-6.5284e-02 -8.5199e-02 4.6932e-02 -3.1171e-02 5.9979e-02 -7.2145e-02 3.4968e-02 1.2552e-02 -5.8252e-02 5.4977e-02 -8.1966e-03 -4.5627e-02 2.6565e-02 -2.2599e-02 2.4068e-02 5.7566e-02 -1.0151e-01 1.6938e-02 -5.9271e-02 1.6259e-02 -3.8022e-02 7.5486e-04 -3.7636e-02 6.4567e-02 6.2771e-03 -5.4965e-02 1.0116e-02 -4.0425e-02 1.1969e-02 -7.7586e-02 3.7548e-02 2.2402e-02 -8.8878e-02 2.8231e-03 -3.2138e-02 8.4572e-02 -7.6623e-02 -6.3844e-02 -2.2643e-02 2.2654e-02 6.5740e-03 5.6650e-02 -2.1108e-03 -1.8256e-02 1.1100e-02 -3.7776e-02 3.6509e-03 9.4100e-02 3.1238e-02 4.2729e-02 -5.9464e-02 4.6989e-02 -8.5063e-02 -3.2225e-03 -2.9158e-02 -3.1254e-02 4.3467e-02 9.5584e-02 2.5285e-02 6.6637e-02 6.9691e-02 6.3485e-02 1.5216e-02 6.8973e-02 -3.0722e-03 -1.1546e-02 5.4727e-02 2.1940e-02 5.9727e-02 -3.5575e-02 -2.0154e-02 2.9631e-02 3.8520e-02 -4.5843e-02 -7.5482e-02 2.4151e-02 3.8668e-02 3.4934e-02 -6.7824e-02 -9.1204e-02 -7.0842e-03 2.7004e-02 -6.9843e-03 3.5302e-02 -5.9027e-02 -8.9378e-02 -1.8627e-02 -1.0449e-01 3.2015e-02 -9.2818e-02 6.7717e-02 3.7862e-02 3.5432e-02 4.4708e-02 -3.3418e-02 4.1703e-02 4.5928e-02 2.2323e-02 6.2240e-02 -3.1078e-02 -1.1288e-01 5.1683e-02 2.0416e-02 -7.0470e-03 -2.8789e-02 2.9525e-02 6.7040e-02 9.3224e-02 2.0440e-02 1.6807e-02 1.0363e-01 -3.8431e-02 5.7087e-02 -4.7233e-02 -9.2181e-03 1.2260e-02 1.1598e-02 -3.2736e-02 -4.9820e-02 1.0261e-01 3.3375e-02 -2.9997e-02 9.6087e-03 3.5987e-02 4.4026e-02 -4.9505e-02 5.9050e-02 -5.8835e-02 -4.6242e-02 1.3555e-02 -9.0397e-02 8.3216e-02 -2.0491e-03 4.6355e-02 7.8503e-02 -2.9017e-02 -1.2038e-02 4.4605e-03 -4.9361e-02 5.7581e-02 6.2949e-02 -1.9617e-02 4.4935e-03 1.0421e-01 -3.6402e-02 2.0510e-02 1.3262e-02 -4.3562e-02 6.1955e-02 4.1839e-02 2.6359e-02 -3.8936e-03 1.5280e-02 -2.5158e-02 4.6287e-02 -3.9074e-02 -4.7607e-02 5.4158e-02 -8.2620e-02 1.6944e-02 -3.9142e-02 -7.7730e-03 -5.3472e-02 1.2363e-03 4.5926e-02 -1.3342e-02 -3.4221e-02 -6.2082e-03 -1.5954e-02 -6.6833e-02 1.3857e-02 -3.5480e-02 6.2254e-02 -1.4376e-02 3.4042e-02 4.1990e-03 4.1035e-02 -1.8575e-02 2.7043e-02 -5.1600e-02 -6.2516e-03 4.6291e-02 -6.9289e-02 1.8534e-02 -1.9117e-02 1.5227e-02 -9.8136e-03 3.2627e-02 -4.1560e-02 1.0027e-02 2.2346e-02 8.8671e-02 2.9159e-03 -1.2503e-02 7.8499e-02 -8.1801e-03 -5.1661e-03 2.0131e-02 1.7484e-02 -5.1942e-03 -1.2494e-02 9.9868e-03 -8.3901e-02 3.2383e-02 -1.2168e-02 -4.2166e-02 -1.0946e-02 2.4439e-02 1.5620e-02 2.2163e-03 2.0051e-02 5.0156e-02 -6.3961e-02 1.1833e-02 6.7799e-03 2.0937e-02 -1.6260e-02 3.2755e-02 2.5116e-02 2.4004e-02 7.5896e-03 3.5332e-02 -3.2843e-02 2.5542e-02 2.4758e-02 5.6257e-02 1.3103e-02 3.2949e-02 -9.6084e-03 1.6668e-02 -4.5580e-02 -5.5605e-03 -1.6209e-03 -2.9449e-02 -1.9895e-02 -2.6930e-02 -1.3845e-03 1.3129e-02 3.1838e-02 4.8510e-02 1.5842e-02 -9.3476e-03 2.3853e-02 3.2917e-02 2.0835e-02 5.3553e-03 -7.3051e-03 -2.1166e-02 -1.8676e-02 -1.8760e-02 5.4823e-02 9.2699e-03 2.1891e-02 -4.1542e-02 8.4522e-03 -5.2815e-02 6.9958e-03 -6.8441e-02 -1.7711e-02 3.2219e-02 -1.1547e-02 -8.2061e-02 3.5081e-02 -5.4540e-02 1.5595e-02 2.0371e-02 -8.8520e-02 3.6397e-02 -1.6293e-03 -1.0210e-02 -5.6788e-02 1.0895e-02 -4.8510e-03 2.1280e-02 2.2799e-02 2.3054e-02 -2.5122e-02 -1.3638e-02 6.7246e-02 -1.2113e-02 -2.7312e-02 -7.5123e-02 5.7251e-04 -5.8253e-02 2.0087e-02 3.7517e-02 -8.4133e-02 8.7358e-02 2.3555e-02 -3.2210e-02 -1.6789e-02 2.7396e-02 1.3328e-02 -7.4622e-02 3.8721e-02 3.3421e-02 6.0122e-04 -1.1828e-02 -3.9483e-02 1.6646e-03 -3.4611e-02 -2.1294e-02 1.9386e-02 2.1758e-03 -8.3955e-02 -3.2251e-02 1.9600e-02 9.4842e-02 -8.8387e-04 1.0997e-01 -4.1596e-02 4.2613e-02 -1.5419e-02 -1.0959e-02 6.6621e-02 -8.2773e-03 1.0885e-02 -4.3360e-02 -4.1570e-02 -3.5371e-02 -4.0932e-02 -7.9779e-03 5.0156e-02 -2.5508e-02 -9.0014e-03 1.0472e-01 -4.3831e-02 1.3495e-02 3.0402e-02 7.5776e-02 -5.3200e-03 -3.1762e-02 -2.4740e-02 -1.4883e-02 2.2242e-02 5.1805e-02 -5.2445e-02 2.2274e-02 -5.0000e-02 -1.7998e-02 4.4467e-02 -1.2807e-02 6.4761e-02 5.4526e-02 -2.3652e-03 -1.1354e-02 -5.4186e-03 2.7470e-02 1.0351e-02 -4.0682e-02 3.5882e-02 1.5290e-02 -2.0869e-02 -8.3103e-03 2.8526e-03 4.0046e-02 -3.4006e-04 6.1700e-03 -5.9104e-02 8.0913e-02 1.3039e-02 -3.8089e-03 1.9077e-02 -3.0486e-02 2.4191e-02 -3.1749e-02 1.7965e-02 -1.1392e-02 -1.2645e-02 1.8423e-02 -2.0000e-02 -7.3397e-03 -2.0019e-02 4.0916e-02 -2.6297e-02 -2.1961e-02 -1.9023e-02 1.1532e-02 3.2914e-03 3.7066e-02 3.4026e-02 2.2597e-02 2.2527e-03 3.8922e-02 5.5020e-03 -2.4674e-02 -3.2555e-02 -8.1435e-03 1.3099e-02 -5.1517e-03 2.8898e-02 -3.3639e-02 -4.1653e-04 9.7016e-03 -7.5545e-03 2.0160e-02 -6.4934e-02 -3.2824e-02 1.9905e-02 -8.7525e-03 5.4340e-02 -4.1138e-03 1.3452e-02 2.4818e-02 3.5812e-02 4.8546e-02 -3.0894e-03 -2.0361e-02 -8.8549e-03 2.2206e-02 -1.1651e-03 3.0819e-02 -1.5205e-02 4.1907e-02 5.3278e-02 9.7036e-03 1.8084e-02 5.6139e-02 4.4990e-02 -4.2645e-03 4.2172e-02 -1.1256e-01 -1.7763e-02 -1.3246e-03 -9.6268e-03 -7.4607e-02 1.2085e-02 -4.8829e-02 -1.5102e-02 -4.7543e-02 5.3099e-03 -3.6099e-02 1.4946e-03 4.4842e-02 -4.7336e-02 3.2257e-02 -4.3404e-02 -4.6929e-04 -6.5307e-02 2.6883e-02 3.9606e-02 -1.8992e-02 -4.5329e-03 7.6260e-02 -1.4422e-02 2.8105e-02 4.9163e-02 -3.9064e-02 7.0677e-04 -1.1002e-01 4.2513e-02 -2.1487e-02 -5.5913e-03 1.1573e-02 -4.4040e-02 8.5924e-02 -4.9871e-02 -4.8361e-02 -3.0185e-02 3.6444e-02 2.7584e-02 -3.2339e-02 2.3916e-03 4.2150e-03 8.1720e-02 7.2476e-03 -3.2923e-02 -7.1148e-03 -3.1596e-02 8.7439e-03 -3.2922e-03 -3.6966e-02 1.3227e-02 -4.5361e-04 9.9634e-02 4.2849e-03 -3.0294e-03 8.2711e-02 4.0095e-02 3.8278e-02 -8.7102e-03 -5.1030e-02 5.4046e-02 4.5236e-02 -2.9181e-02 -2.6075e-02 1.0907e-02 -4.9084e-02 -4.1823e-02 -1.5986e-02 4.7867e-02 -4.4592e-02 -2.7096e-02 1.2568e-02 -2.1291e-02 4.9431e-02 4.2992e-03 5.9521e-02 -3.5052e-02 -5.6594e-02 -3.5422e-02 -5.2797e-03 1.3228e-02 9.7680e-02 -8.2386e-02 -8.1847e-02 -3.6997e-02 -6.6047e-02 4.2298e-02 -9.7455e-02 8.3512e-02 -2.6054e-02 -1.3700e-02 -3.6408e-03 -2.9088e-02 1.2133e-02 7.3753e-03 2.3469e-02 8.8963e-03 1.6564e-03 2.6168e-02 4.9885e-02 -2.7129e-02 5.2714e-03 3.8675e-02 3.8290e-02 5.2015e-02 5.3943e-02 2.9516e-02 3.8182e-02 3.0019e-02 1.2824e-02 -8.6243e-03 -8.3894e-02 4.5588e-02 2.5484e-02 -4.8566e-02 -3.0468e-02 -6.1703e-02 1.5346e-02 -1.0339e-01 3.7132e-02 -9.0893e-02 2.2962e-02 2.4397e-02 1.5817e-02 -1.4096e-02 3.4903e-03 -5.3248e-02 6.0693e-02 -2.8976e-02 7.6051e-02 3.3387e-04 -4.6274e-02 -2.3915e-02 -2.4824e-02 -6.3056e-03 8.7297e-03 1.8446e-02 5.7183e-02 1.4316e-02 5.6889e-02 4.5730e-02 1.0356e-02 1.5178e-02 -9.1816e-03 -5.9188e-02 7.7102e-02 -2.5852e-02 -4.6405e-03 3.4671e-02 -5.4928e-02 1.3245e-02 3.6643e-04 5.9350e-02 -2.2034e-02 -6.4124e-03 5.8248e-02 -2.8562e-03 -3.3018e-02 -6.7780e-03 6.1080e-02 -5.3122e-02 -5.7781e-02 -8.4604e-02 -5.3800e-02 2.1640e-02 3.2768e-02 5.3743e-02 -8.1684e-02 5.6516e-03 2.2049e-02 3.4595e-02 -3.9048e-02 3.5690e-02 1.2645e-02 -1.3070e-02 -5.6913e-02 4.6087e-02 -3.9311e-02 4.4693e-02 -2.4121e-02 1.9273e-03 -5.7336e-02 -2.9844e-02 -8.1383e-03 -1.5153e-02 3.5951e-02 9.2642e-03 -1.4976e-02 3.5875e-03 9.7482e-02 -3.2839e-02 -9.2405e-03 6.6677e-02 -3.3955e-02 5.0171e-03 -8.1411e-02 3.5644e-02 -4.6467e-02 -5.8661e-02 5.5371e-02 4.7924e-02 8.3040e-03 -1.0432e-02 -5.3036e-02 -5.7124e-03 6.2619e-02 2.8208e-02 -2.5785e-02 4.3379e-02 -2.8054e-02 4.2479e-02 3.0800e-02 -1.8072e-02 2.8926e-02 4.1133e-03 4.4311e-02 1.9964e-02 2.8713e-02 6.9184e-02 9.1256e-03 -1.8482e-02 8.7671e-02 3.7686e-02 3.0147e-02 2.0306e-03 5.5899e-02 -4.0140e-02 2.9985e-03 9.2475e-02 1.7825e-02 2.7507e-02 -5.6604e-02 8.4913e-02 8.5264e-02 1.0811e-02 -5.2431e-02 7.1279e-02 -2.7600e-03 9.9186e-03 5.3889e-02 -5.2581e-02 5.7362e-02 1.2702e-02 -9.0517e-03 -4.3150e-02 -6.6211e-02 1.0694e-03 1.6142e-02 3.7557e-02 7.1867e-03 -6.2872e-03 -1.1880e-02 5.3081e-03 -1.4915e-02 -1.3091e-02 -7.0775e-02 -6.7298e-03 -4.4219e-02 1.1672e-02 -2.7357e-02 -3.5121e-03 -5.6349e-02 -4.4946e-02 9.5361e-03 -2.8114e-02 4.4473e-03 -7.3047e-02 3.2721e-02 -4.7003e-02 4.8432e-02 1.2872e-03 -1.1091e-02 -1.4665e-02 -7.2121e-04 -3.7641e-02 -2.9951e-02 6.5937e-02 -2.6212e-02 -2.4211e-02 -2.1809e-02 2.4086e-02 -7.1457e-03 6.7890e-03 2.1094e-02 -3.9882e-02 3.7380e-02 -1.9933e-02 -6.6609e-02 -2.0253e-02 -4.1589e-02 3.0176e-02 -4.2780e-02 3.8292e-03 9.8733e-03 -2.6228e-02 4.0451e-02 -6.2539e-03 -3.1762e-03 -2.6066e-03 -5.2929e-03 -8.9773e-03 -2.8123e-02 -6.1612e-03 5.1006e-02 1.1506e-02 1.8448e-02 -1.8312e-02 -1.1598e-02 1.7580e-02 7.9700e-02 -1.9980e-02 2.5871e-02 5.1374e-02 -3.7361e-02 1.1883e-02 -1.1641e-03 -5.0925e-02 5.1705e-02 -1.1009e-03 3.3947e-03 -3.8428e-03 1.4104e-02 2.5938e-02 4.2272e-02 -2.8398e-02 -3.9617e-02 3.3641e-02 6.1034e-02 -9.4219e-03 -5.1506e-02 -2.8816e-06 -2.6853e-02 5.0869e-03 4.3005e-02 -1.8858e-02 -1.2549e-02 -1.3377e-03 -2.4317e-02 8.6777e-02 -7.7361e-02 3.3858e-02 5.0688e-03 -7.1882e-03 -2.2583e-02 3.3718e-02 -9.3003e-03 -9.1595e-03 3.4189e-02 -3.6775e-02 1.9591e-02 -8.9917e-02 -3.8475e-02 -4.0267e-02 4.4369e-02 -2.5280e-02 -1.1139e-02 5.9730e-03 7.1966e-02 -1.1536e-02 4.0044e-02 1.7537e-02 -7.5084e-03 -1.3263e-02 -2.7571e-02 4.6054e-02 -4.4911e-02 -2.8240e-03 5.1735e-02 -4.1588e-02 2.2737e-02 -8.5966e-03 -5.7188e-04 -1.7143e-02 4.5363e-02 -8.4544e-04 1.5800e-02 2.4750e-02 4.0984e-02 3.6645e-02 7.3791e-03 -2.9383e-02 -5.9533e-03 3.6733e-02 -1.2254e-02 2.5316e-02 -4.6233e-03 1.3069e-02 -6.0293e-03 1.5406e-02 3.0640e-03 -5.1371e-02 4.7444e-02 3.7867e-02 6.6774e-02 -3.6565e-02 -2.9066e-02 8.6514e-02 -2.4402e-02 3.2393e-02 -8.0579e-02 2.7603e-02 -1.1653e-03 3.5721e-02 -1.5995e-02 6.8893e-02 -3.9326e-02 2.8052e-02 1.7981e-02 -7.4854e-03 1.9804e-02 1.4244e-03 5.6985e-02 6.5531e-03 -3.9256e-02 1.1158e-02 4.7271e-02 3.7775e-02 5.0803e-02
