 7.5087e-02 -8.8781e-02 -4.5230e-02 9.4596e-02 -1.2661e-01 9.2329e-02 -5.4674e-02 8.2888e-02 2.2047e-02 1.4491e-03 3.0204e-02 -3.0505e-03 5.9272e-02 -8.1377e-02 -2.1347e-02 -3.2050e-02 3.3124e-02 -1.2167e-02 1.4557e-01 4.6909e-02 -5.8960e-02 -9.7985e-02 -5.3420e-02 -1.1637e-01 -7.0783e-02 -4.3694e-02 3.6243e-02 2.3728e-02 -2.1893e-01 1.3206e-01 -6.5482e-03 1.1409e-01 9.6706e-02 -1.5203e-01 -1.3052e-01 -1.5573e-01 1.2509e-01 -2.5681e-02 1.0177e-01 -3.6594e-02 1.1767e-01 -1.3446e-01 1.1065e-01 2.5028e-02 -4.2863e-02 5.5446e-02 -1.1516e-01 3.7458e-02 -1.1151e-02 2.6995e-02 -1.6648e-01 -9.2182e-02 9.2150e-02 -6.6703e-02 1.6627e-01 1.5268e-01 -2.6075e-02 -1.5057e-01 9.5019e-02 3.1055e-02 -1.3731e-01 1.0778e-01 9.4417e-02 1.5072e-01 -1.2729e-01 -3.3791e-02 -1.8960e-02 8.3284e-03 -1.6018e-01 -1.3017e-01 8.8570e-02 -7.3343e-02 6.0330e-02 -1.4033e-02 4.9979e-02 1.9921e-02 5.1052e-02 8.6663e-02 -1.7340e-01 8.9978e-02 -1.3259e-01 -1.3984e-01 1.7827e-02 -4.1270e-02 9.7823e-02 -9.2058e-02 -1.5627e-01 1.3587e-01 -4.5131e-02 9.4498e-02 6.2532e-02 -1.4981e-01 3.4214e-02 4.7828e-02 -1.1836e-01 -9.2315e-02 6.8152e-02 3.7154e-02 -7.4548e-02 -4.5452e-02 1.0987e-01 -1.0212e-01 5.0206e-02 4.5027e-02 -1.3670e-01 -2.0694e-01 1.2750e-01 -4.8314e-02 9.3427e-02 1.4228e-02 3.0934e-03 8.6002e-02 1.3448e-01 -1.5365e-01 1.5842e-02 7.9050e-02 7.3408e-02 6.6917e-02 -1.3522e-01 -1.0006e-01 -1.6738e-01 -3.3485e-02 1.4171e-01 -1.3187e-01 1.0289e-01 -2.9198e-02 -1.4506e-01 -8.9541e-02 2.5864e-02 8.5742e-02 -8.6363e-02 2.1765e-02 1.1623e-01 5.8526e-02 5.2769e-02 1.3366e-01 8.4746e-02 -4.7120e-03 -1.7732e-01 -1.9972e-01 -1.1300e-01 -6.7985e-02 -1.4863e-01 2.2819e-02 -1.1135e-02 1.1619e-04 7.1938e-02 4.6372e-02 6.4950e-02 5.3723e-02
