0.104000 -0.025700 0.062700 -0.122500 -0.083300 -0.040800 0.158500 0.031000 -0.082200 0.046800 0.181700 -0.066000 0.022700 -0.004400 -0.085900 -0.137300 -0.019200 0.041600 -0.089000 -0.080900 0.007700 0.034900 0.041300 -0.103800 -0.173800 -0.000900 -0.024200 -0.018100 -0.099400 0.037700 0.027800 0.146800 0.043200 -0.047900 0.028800 -0.031700 0.165200 0.037900 -0.043500 -0.015000 -0.046000 0.008200 -0.076300 -0.016900 0.008800 -0.024800 0.046300 0.120000 0.197600 0.118600 0.077600 -0.090600 0.142900 0.107600 0.029900 -0.099800 -0.006300 0.019100 0.073800 0.082300 0.046200 -0.054700 -0.088000 0.061100 0.011300 0.016100 -0.055200 0.064600 -0.038300 0.018500 -0.093000 -0.121900 -0.058400 0.079200 0.096900 0.148600 -0.086900 0.033300 0.002700 0.048000 0.015600 -0.070400 0.057100 0.152300 0.158000 -0.172500 -0.086700 0.088100 0.010200 -0.033200 -0.043900 -0.059700 0.026400 0.158400 -0.031600 -0.100100 -0.011900 -0.045300 -0.025100 0.101400 -0.040200 -0.045500 -0.022100 -0.159600 -0.058600 0.027400 -0.018700 0.161400 -0.056100 -0.037600 -0.074900 -0.103400 -0.021200 0.044900 -0.073400 -0.085900 -0.018600 -0.198500 0.142200 0.017200 
