0.007497 -0.033302 -0.003808 -0.018726 -0.068998 -0.056211 -0.074242 -0.043103 -0.015076 0.038959 0.040809 -0.014711 0.091751 -0.072595 -0.007237 -0.038711 0.080367 -0.003446 -0.080350 0.062110 -0.088387 0.034866 -0.025437 -0.032340 -0.015433 -0.063914 0.012735 -0.025431 -0.045611 0.067227 -0.003729 0.028609 -0.029950 0.072210 -0.062934 -0.068840 -0.043828 -0.046616 -0.029253 0.034070 -0.064027 -0.060867 -0.041795 0.027173 -0.063805 -0.013102 0.003471 0.002741 0.035318 -0.027880 0.045537 0.023510 -0.084706 0.032865 0.002904 0.015791 -0.103820 -0.010508 0.025621 -0.013554 -0.038502 0.056654 -0.069402 0.059238 -0.002634 0.042401 0.008753 0.056400 0.024689 0.010145 0.067304 -0.114040 0.030355 0.023383 -0.056555 -0.080000 -0.023054 0.001892 -0.034855 -0.054083 0.067549 -0.042838 0.028273 0.050047 -0.030888 0.019563 -0.015930 -0.021695 0.019404 0.002308 0.001227 0.030476 0.033464 -0.046472 -0.044613 -0.077729 -0.054978 0.069230 0.069906 -0.076918 -0.053844 0.114530 -0.096858 0.003804 -0.002591 0.070379 0.060769 0.050700 -0.032186 -0.107420 -0.039472 -0.006552 -0.060677 -0.058652 0.047615 -0.014928 0.003774 0.050374 0.041592 -0.091533 0.059284 0.037436 0.001324 -0.044412 0.002964 -0.040559 -0.029273 -0.099618 0.024297 -0.073043 -0.045346 0.066760 -0.005177 -0.029908 -0.046846 -0.017923 0.047399 0.020634 -0.081126 0.112760 0.049603 0.095771 -0.102460 0.020276 0.019734 0.079536 -0.002314 -0.009270 0.056542 0.044729 -0.086108 -0.092675 -0.060786 -0.012634 -0.004845 0.025620 -0.101910 -0.012869 -0.056576 0.090626 0.042246 0.049312 -0.018122 -0.064395 -0.042397 0.023006 -0.018533 0.005288 0.069867 -0.068000 0.041628 0.046404 -0.089206 -0.053689 -0.072851 0.025239 0.049916 0.063540 -0.016918 0.067479 0.076566 0.019888 -0.096193 -0.076482 0.063929 0.052183 -0.032240 -0.076257 -0.006018 -0.097830 0.040207 0.055998 0.031211 -0.070838 -0.004812 -0.045558 0.046477 0.092926 -0.006279 -0.022473 0.017975 -0.039929 -0.050517 -0.064134 0.002920 0.075406 0.082971 0.038445 0.041351 -0.062686 0.083105 -0.005298 -0.061916 0.071360 0.027389 -0.037460 -0.072757 -0.051010 -0.028615 -0.049660 0.076576 0.075311 -0.083211 -0.082979 -0.042113 -0.025982 -0.051070 0.068726 -0.041028 0.064331 0.030436 0.075000 -0.058252 0.033384 -0.049476 0.006968 0.074714 0.083853 -0.088767 0.002797 -0.025911 0.026317 -0.089662 0.046804 -0.056386 -0.075937 -0.069157 -0.072950 0.033813 -0.006591 0.004538 0.068397 0.076986 -0.014625 0.033783 0.110480 0.114380 0.000093 0.025894 0.010067 0.000334 0.035358 -0.109330 0.067688 -0.014142 0.044195 -0.037365 -0.129850 0.120390 0.006257 -0.094451 -0.014005 -0.048031 0.003989 -0.043256 -0.137680 -0.066033 0.068535 0.029559 -0.001381 0.071892 -0.046563 0.002481 0.058623 0.039387 -0.009831 -0.016567 -0.018142 0.039072 -0.084642 -0.047123 0.078191 -0.047398 0.008909 -0.057854 0.093630 0.050737 0.008433 -0.057996 -0.056327 -0.032401 0.000228 -0.102810 0.084077 0.135350 0.008051 0.036176 -0.113700 0.037937 -0.026645 0.031716 -0.020009 0.040694 -0.057104 0.030317 -0.050634 0.092326 -0.032563 -0.010551 0.024786 -0.046757 0.017059 -0.102370 -0.000720 -0.046008 -0.033342 0.002601 -0.023999 -0.066292 -0.005089 -0.005419 -0.004362 0.097296 -0.000142 0.025478 0.051578 -0.025470 -0.068357 -0.009183 -0.042522 -0.033873 -0.021819 0.012177 -0.103460 -0.068705 0.041098 0.081913 -0.013897 -0.032301 -0.055241 0.033219 0.009122 -0.055266 0.075152 0.056556 0.062033 0.001922 0.035511 0.070222 0.042241 0.081602 -0.006575 0.097445 0.070170 0.011743 0.019379 0.038362 -0.023811 -0.169490 0.043011 -0.082732 0.042179 -0.112100 -0.041142 0.052879 -0.015277 -0.056255 -0.159070 0.005735 -0.057482 0.052587 0.063325 -0.010565 -0.011111 -0.047841 -0.052086 0.042093 0.003713 -0.012073 0.069848 -0.055817 -0.073707 0.031169 -0.022399 0.057178 0.017426 0.001217 -0.093387 -0.008177 -0.011776 0.077458 -0.074166 0.132290 0.004856 0.026588 -0.013121 -0.066468 0.015791 0.035914 0.043056 0.009548 -0.085078 -0.016423 0.041679 -0.045408 -0.057479 0.071198 -0.005752 0.032747 0.052494 0.028494 0.050109 0.094643 -0.031257 -0.017078 0.010538 -0.055491 -0.012493 -0.036906 -0.027666 -0.002943 -0.078556 0.028769 -0.050255 0.026925 0.121010 -0.094823 -0.070633 0.056951 -0.003155 -0.006394 0.034675 0.047388 -0.036438 0.074479 0.024764 -0.037784 0.014588 0.066054 -0.073717 -0.076468 -0.061232 0.011543 -0.049107 0.089416 0.003990 0.038222 0.047260 -0.052866 -0.037112 -0.030409 -0.046937 0.135550 -0.029951 0.066607 -0.123030 0.040165 -0.047340 0.125370 -0.007551 -0.069966 -0.047739 -0.016666 0.067097 -0.003196 0.037911 -0.059497 0.040423 0.016243 -0.077163 0.060389 -0.084419 0.053317 -0.023828 0.010768 0.013977 0.078170 0.050849 -0.039183 -0.002106 0.037381 -0.109170 0.045212 0.038479 0.021589 -0.033270 -0.050309 -0.048754 0.043740 0.061400 -0.044245 -0.052340 0.011661 -0.099822 -0.040771 -0.059393 0.020876 0.051232 0.049519 0.010116 0.049209 0.067015 -0.019806 0.095011 -0.061718 0.002036 0.071808 0.016504 0.005068 -0.074441 -0.023078 -0.047873 -0.045981 0.021344 -0.016178 -0.043927 -0.037143 0.075178 -0.080294 0.013348 0.088554 0.014450 0.101760 -0.049904 -0.009855 0.007774 0.060331 -0.023041 -0.071002 -0.092154 0.036311 -0.041296 -0.052120 0.007511 0.004441 0.059558 0.056824 0.002348 0.027697 0.010250 0.056728 0.031544 0.049707 -0.022227 -0.048245 0.000445 0.009108 -0.039367 0.051161 -0.039436 0.051048 -0.056425 0.005791 -0.072893 0.032422 -0.092452 -0.008166 -0.029340 0.037482 -0.096010 -0.013455 0.004823 -0.040221 0.028668 -0.051370 0.025604 0.002084 0.012475 -0.007700 0.022333 0.006752 -0.012562 0.042884 0.022766 0.070462 0.003523 -0.030346 -0.035638 -0.052806 0.084589 0.037833 -0.074490 -0.011339 0.049630 0.069901 0.024457 -0.049374 0.047837 -0.029513 0.092132 0.047002 -0.002462 -0.022753 -0.063468 -0.056042 0.035302 -0.032480 0.019144 -0.011641 -0.070595 0.047974 -0.051187 0.082865 -0.009543 -0.007860 -0.073907 0.079191 -0.059796 0.014183 0.029936 -0.058018 0.002915 0.031172 -0.011186 -0.094866 0.046544 -0.022633 -0.106820 0.006032 0.122110 0.048015 0.047816 -0.063726 0.085561 -0.013182 -0.085805 0.003041 -0.085240 -0.097455 -0.053756 -0.072172 0.061997 0.017905 -0.070672 -0.036625 0.021312 -0.073856 0.003615 -0.010316 -0.004713 -0.059141 0.091966 0.090480 -0.005383 -0.110760 0.054732 -0.016892 0.058934 0.026090 0.011502 -0.036800 -0.073989 0.045684 0.027583 -0.005651 0.015350 -0.052250 -0.022969 -0.000258 0.064044 0.013920 -0.039360 0.050409 0.064656 0.011451 -0.016208 0.024654 0.011992 0.005299 -0.053464 0.039232 -0.000722 0.009843 0.000464 0.025499 0.066052 0.036253 0.096643 -0.048616 -0.096305 -0.015505 0.033349 -0.034859 -0.034941 0.013657 0.041339 -0.019874 -0.016419 -0.022070 -0.007705 0.001689 -0.021388 0.033751 -0.025261 0.051839 -0.014408 0.003297 0.060084 -0.073823 0.031774 -0.017124 -0.050828 -0.067449 0.000597 0.068545 0.025227 0.041947 0.023123 0.040455 0.004095 0.046146 -0.065952 0.070996 -0.023155 -0.037130 0.008790 -0.039680 0.016486 -0.100960 0.086879 0.059908 0.025116 0.036084 0.004198 0.030499 -0.014080 -0.082494 -0.042636 0.022335 -0.082088 0.022850 0.085299 -0.000916 0.009313 -0.030807 0.030696 -0.007602 -0.013096 0.043341 -0.062096 0.054445 -0.034376 0.059228 -0.022900 0.070861 0.108950 -0.036389 0.052176 -0.057632 0.008613 0.048442 0.090939 0.051225 -0.019721 -0.012678 -0.013808 0.043496 0.031968 -0.016295 0.005975 0.033658 -0.093762 0.091630 0.003965 -0.000981 -0.080397 -0.008327 0.054016 -0.055733 0.031110 -0.034878 0.002205 -0.060537 0.020685 -0.042418 0.042927 -0.046498 -0.063030 0.050060 0.054406 -0.054147 0.037197 -0.038977 -0.064526 -0.091530 0.065150 -0.059391 0.006471 0.059694 -0.025475 -0.048994 -0.029175 0.088057 0.054624 0.034621 0.042191 -0.009322 0.013003 -0.057144 0.018283 -0.054563 -0.002304 0.055708 -0.041631 -0.027302 0.042335 0.007249 -0.042466 0.069836 -0.011624 0.028677 -0.067182 0.082499 -0.061918 0.056293 -0.108030 -0.002264 -0.045194 0.004059 -0.010735 0.044700 -0.032022 -0.051752 -0.029205 -0.068293 0.093127 -0.084970 0.040024 0.056218 0.066399 -0.055345 -0.052144 0.044891 -0.066666 0.001978 0.001570 -0.004035 -0.002235 0.106380 -0.065421 0.018175 0.049911 0.008124 0.054642 -0.020005 -0.075576 0.014083 0.056198 -0.067631 -0.088528 -0.033371 0.026826 -0.024267 0.011264 -0.024635 0.038272 0.052024 -0.030762 -0.099619 0.059648 -0.027991 0.074816 0.015595 0.052710 -0.090975 -0.003452 0.046502 -0.010051 0.044592 -0.049025 0.089101 0.013349 0.022066 -0.012064 0.043242 0.036219 0.018240 -0.030551 0.011881 0.020880 -0.023561 -0.005931 -0.048391 -0.000501 -0.086912 0.047433 -0.116840 0.059682 -0.073357 -0.075130 0.050212 -0.069378 -0.066513 0.010008 -0.013216 0.020095 -0.117650 -0.006136 0.110260 0.053665 0.015113 -0.007966 0.010073 -0.039706 0.002580 -0.023340 0.049125 -0.018487 -0.050577 -0.001751 -0.073922 -0.068386 0.034621 0.073250 -0.036585 -0.044269 -0.067537 0.032648 -0.014350 -0.014245 -0.048519 0.035589 -0.039847 0.055478 0.045884 -0.049247 -0.090461 0.040957 -0.098682 0.013610 0.064198 0.033361 -0.016494 -0.074760 -0.004110 0.029885 -0.003171 0.084125 -0.088024 0.060930 0.048591 0.062514 0.037927 0.084143 -0.032143 0.004044 0.013298 -0.001312 -0.087378 0.098113 -0.067020 0.029777 0.155520 0.066909 0.007538 -0.027475 -0.032126 0.004952 -0.053355 0.073328 0.016636 -0.118560 -0.075017 0.067861 0.042548 -0.054138 0.030471 -0.078961 0.100890 -0.009936 -0.012515 0.030615 -0.019955 0.003084 0.043418 -0.040450 0.083154 -0.025847 -0.166910 -0.042760 0.037912 -0.013437 -0.030157 -0.006859 -0.033013 0.077807 0.025057 -0.002356 -0.084343 -0.013681 -0.030784 -0.122370 0.002340 0.085529 0.041788 -0.052120 -0.007832 -0.027626 -0.022429 -0.025246 -0.042562 0.020930 0.027963 0.130870 0.052595 -0.023030 -0.028324 -0.034337 0.131240 0.073497 -0.070496 0.086005 -0.021164 -0.049677 -0.012468 -0.097760 -0.011040 -0.031908 -0.011959 0.086875 -0.052122 0.068573 -0.098214 0.010594 0.072863 0.032321 -0.081302 -0.083652 0.097614 -0.016126 0.054366 -0.003280 0.030702 0.059786 -0.005500 -0.128210 -0.024324 -0.072363 0.007775 -0.063906 0.021651 -0.017715 -0.068074 -0.012575 0.051800 -0.002399 -0.114930 -0.054843 -0.082218 0.016805 -0.005122 -0.114630 -0.016441 0.088721 -0.053250 -0.094008 -0.044862 -0.010468 0.052636 -0.058877 0.029859 -0.090342 0.026203 0.015033 -0.007283 -0.054251 -0.020929 -0.045080 -0.014868 -0.028785 -0.119860 -0.011685 -0.015142 0.005509 0.009191 -0.077441 -0.036079 -0.132100 0.013671 -0.034310 -0.061734 -0.015118 0.081711 -0.008841 -0.054524 -0.053546 -0.036808 0.074648 -0.123380 -0.030157 -0.003330 0.009309 -0.015772 0.084390 -0.040213 -0.043201 -0.005113 -0.098474 0.031234 0.067109 -0.086330 -0.023681 -0.060704 0.030140 0.052006 0.031971 -0.048577 0.068108 0.010246 0.080771 -0.024343 -0.079717 0.031111 0.082985 0.044572 -0.045065 -0.064823 0.012260 0.028462 -0.051461 -0.008133 0.043416 0.043521 0.042003 0.066974 -0.049018 0.019920 -0.014694 0.025046 0.046750 0.043049 -0.007968 -0.025683 0.079723 0.019115 0.098438 0.108190 -0.073629 -0.030525 -0.031604 0.078630 0.081205 0.074386 -0.072162 0.078752 -0.017720 -0.059262 -0.014740 -0.064232 0.034458 -0.036646 -0.071690 0.040327 0.035618 0.039991 0.007186 -0.074552 0.045625 -0.092312 0.037205 -0.049295 0.071842 0.088815 0.057851 -0.015642 0.009593 0.051894 0.009706 -0.011465 0.059288 -0.008802 -0.044903 -0.082856 -0.066169 -0.064819 -0.048831 -0.017960 -0.049729 -0.024194 0.011705 -0.009331 0.028725 0.077129 -0.066581 -0.077783 -0.028186 -0.038324 -0.013994 -0.091340 -0.082449 -0.050590 -0.018887 -0.008672 0.067550 -0.027903 0.002449 -0.035575 -0.075307 -0.013514 0.036602 -0.035312 -0.070122 -0.053548 -0.004356 0.080960 0.068316 0.031818 -0.086322 -0.046429 0.014898 -0.001832 0.076129 0.011088 0.069797 -0.063444 0.027795 0.000778 0.072092 0.010857 0.032532 -0.066453 -0.046415 -0.041975 0.053527 -0.070263 -0.085310 0.072961 -0.084730 -0.032153 0.023646 -0.016026 0.089312 0.080962 0.048467 0.044574 0.069744 -0.056160 -0.044017 0.032746 -0.028600 0.084854 -0.013338 0.029108 -0.039267 0.045641 -0.016279 0.039036 0.064748 -0.029731 0.048424 -0.084663 -0.069766 -0.020726 0.057875 -0.000775 0.043662 0.045612 -0.023711 -0.014358 0.036454 0.043046 0.000428 -0.010063 0.003673 -0.021234 -0.057658 -0.013354 0.004747 0.070641 0.061404 0.076807 -0.107610 0.046036 -0.025566 0.061235 0.043488 0.046663 -0.019822 0.045576 0.054773 -0.020554 -0.017746 0.025694 -0.006893 0.056888 -0.043920 -0.043811 0.092950 -0.042320 -0.014598 0.034034 0.020612 0.089598 0.069904 -0.000123 -0.000027 0.029145 0.025247 -0.029898 -0.009161 -0.091963 -0.041087 -0.091584 -0.037613 -0.066139 0.024517 -0.003945 0.019925 0.024836 0.031713 0.099126 0.035933 0.085394 0.012638 -0.060938 -0.015935 -0.039441 -0.025838 -0.077541 0.075409 -0.008925 0.051518 -0.044443 0.057566 0.004636 -0.069335 -0.128260 -0.118930 0.038619 -0.090800 -0.053147 0.062431 -0.072610 0.032598 -0.008751 0.024586 -0.022903 0.075424 -0.085096 -0.033104 0.022974 0.031961 0.111140 -0.024303 -0.045818 0.010774 0.070132 0.012480 0.074370 -0.036197 0.050685 0.040060 0.003898 -0.023457 0.020335 -0.004111 -0.043505 0.069411 -0.066758 -0.030980 0.054905 0.025282 -0.028121 -0.072807 0.077717 -0.004448 -0.065412 0.033276 0.097972 0.042631 -0.062111 -0.053299 -0.039525 -0.029648 0.028081 -0.037880 0.074099 0.087371 -0.048312 0.087941 0.038940 -0.024261 -0.010463 -0.007779 0.003935 0.095821 -0.088668 -0.099236 -0.008591 -0.009154 -0.001266 0.015360 -0.008135 0.017704 -0.070618 0.020821 -0.056720 0.045871 0.059535 -0.085594 -0.064019 0.050305 -0.027107 -0.014725 -0.028701 0.084047 -0.065436 0.051863 -0.079318 -0.076414 0.091433 -0.017153 0.045482 0.011848 -0.019270 -0.014118 0.062257 0.082345 0.072837 -0.033881 0.057024 -0.045471 -0.047216 0.026101 -0.022480 -0.036817 0.062193 -0.098316 0.014823 0.118260 0.028217 0.019758 0.074255 -0.000875 -0.020978 -0.065116 0.063989 -0.038243 -0.035067 -0.069895 0.073867 -0.063627 -0.075794 -0.020922 0.075918 0.028297 0.069091 -0.007711 0.075269 0.005934 0.076021 0.000926 0.054134 0.049361 -0.014317 0.110090 -0.056458 0.039785 -0.128800 -0.035924 -0.020341 -0.049453 -0.076330 0.002994 0.025106 0.051272 0.091980 0.067615 0.048236 -0.051069 -0.053942 -0.053556 -0.004940 -0.056758 0.054091 0.002129 0.056035 -0.018839 -0.006835 0.050714 -0.022922 -0.077522 0.049508 0.034519 0.037303 -0.072741 -0.022422 0.025823 0.054058 -0.075988 -0.125180 0.072536 -0.018869 -0.042516 -0.082663 0.005453 -0.070347 -0.009408 -0.015283 0.070094 -0.035321 0.079463 -0.119930 0.021134 -0.058346 0.093725 0.043818 0.000416 -0.033021 0.044875 -0.016125 -0.045363 0.108890 -0.021626 0.027081 -0.070435 -0.003361 -0.079176 0.030639 -0.135080 0.033528 0.018651 0.051515 0.021319 0.040452 -0.015511 -0.001157 -0.027098 0.015206 -0.033741 0.054475 0.011646 0.038504 0.063657 0.054292 0.003730 0.022110 0.114270 -0.016347 -0.004895 -0.017522 -0.005534 0.001920 0.020910 -0.025515 0.026043 0.032997 0.018553 0.088055 0.031342 0.017667 -0.024202 -0.041885 0.006601 -0.050229 0.018429 0.022372 -0.029323 -0.030250 0.017485 0.099049 0.009432 -0.000865 -0.088823 -0.099191 -0.040467 -0.019564 0.032430 0.057443 0.047664 0.046296 0.013969 -0.005034 -0.118750 -0.033667 -0.013370 -0.020654 0.022280 0.046826 -0.003691 -0.094162 0.023811 -0.022431 -0.027351 0.076220 -0.052653 -0.045069 -0.053402 -0.027505 0.004867 -0.041219 -0.081623 -0.066445 -0.024648 -0.019357 -0.000408 -0.038135 -0.003009 -0.053964 -0.045896 -0.070092 0.094741 -0.041496 0.051022 -0.022593 -0.077145 -0.008880 -0.058105 -0.021563 -0.058324 0.134310 0.020092 0.074762 -0.038626 -0.028469 -0.018012 0.129560 0.021119 0.022219 -0.122170 -0.018034 -0.027203 -0.034416 -0.046381 -0.050779 -0.051701 -0.021530 0.002003 -0.037289 0.054163 -0.013742 -0.072631 -0.021646 -0.053873 0.132530 0.011702 0.003052 0.044065 -0.005496 0.041941 -0.022106 0.007191 -0.041234 -0.028326 -0.004644 0.007694 0.000335 0.044051 0.012393 -0.077504 0.059014 0.059466 0.054826 -0.033581 -0.009686 -0.054668 0.050045 0.017530 0.043951 -0.075325 -0.027315 0.047592 0.038488 0.072505 -0.032707 0.016257 0.033544 -0.037128 0.028459 0.043568 0.016141 -0.067743 -0.083779 0.086870 0.041016 -0.111070 0.025085 -0.092612 0.042599 0.050507 -0.055558 0.066220 -0.044870 -0.044773 -0.020223 -0.009600 0.055155 0.034905 -0.058552 0.093537 0.021234 0.020709 -0.010620 -0.050944 -0.062999 0.014943 0.010465 -0.027307 -0.002425 0.011106 -0.092813 0.044640 0.070286 0.094238 -0.040447 -0.051586 -0.062555 0.016120 -0.071138 -0.061156 0.038619 0.047230 0.009332 -0.083570 0.040851 0.080894 -0.054547 0.025472 -0.036231 -0.052885 -0.063332 0.078826 -0.021256 0.005975 -0.006253 0.019632 0.025589 0.102360 0.064061 -0.057081 0.039233 -0.040977 -0.086401 -0.035669 -0.076377 -0.027047 -0.017022 -0.002106 0.058732 0.018394 0.009988 -0.070688 -0.023679 0.068146 0.101860 0.049981 0.070192 -0.018757 -0.034773 -0.004495 0.055773 0.020315 -0.080022 0.001209 0.003819 0.048123 -0.000160 -0.013820 0.039187 -0.023786 0.010566 0.074885 0.000803 0.060978 -0.083045 0.035877 -0.037534 -0.094935 -0.010659 -0.025700 0.046873 -0.064577 0.018786 0.025694 0.023730 0.070996 0.004612 -0.067089 -0.030349 0.045845 0.006672 -0.067062 0.023421 -0.017272 0.027179 -0.110950 0.011948 -0.045307 0.010041 0.053997 0.000113 0.037302 0.012159 0.080660 -0.042728 0.009951 0.065559 -0.015340 0.033275 0.026863 -0.002942 0.057715 -0.119760 -0.017711 0.037365 0.019602 0.039341 0.017633 -0.029510 -0.008751 -0.012247 -0.050045 -0.051626 0.027698 0.022916 0.018046 0.039496 -0.013081 0.046488 -0.033262 0.060999 0.035368 0.102880 -0.049731 -0.010146 -0.024513 -0.028015 -0.056200 -0.057115 0.007007 0.022785 -0.058080 -0.052433 0.036757 -0.073421 0.034206 0.003381 0.075455 -0.045135 0.006309 -0.012303 -0.098371 0.014655 -0.048595 0.034788 -0.081962 0.039259 -0.059264 0.050735 0.040442 0.021646 0.042572 0.014256 0.036074 0.024654 -0.028238 -0.090222 0.070742 0.021184 0.052477 -0.054062 0.089747 0.013657 0.024209 0.066442 0.038152 0.033251 -0.038733 0.083386 0.083910 0.107480 0.017762 0.066831 0.071010 0.066924 0.060112 -0.007120 0.049146 -0.055834 -0.078389 0.096951 -0.009192 -0.004964 -0.006243 -0.027494 0.087864 0.024326 0.120360 0.000667 0.066171 -0.049985 0.055604 0.126940 0.015137 0.069356 -0.069641 0.002284 -0.004522 0.062921 -0.076011 -0.042680 0.025983 0.101910 -0.062980 0.048389 0.021509 0.034734 0.051213 0.075702 0.038640 0.103790 -0.038174 0.075855 0.048636 -0.017821 0.030884 -0.014487 0.032691 0.090227 0.035698 -0.028385 0.065370 0.032947 0.064808 0.053042 0.059082 -0.002222 0.008253 -0.059834 0.066056 0.011773 -0.051441 -0.050927 0.027583 0.034577 -0.028724 -0.089664 0.027880 -0.087334 0.050594 0.034346 -0.036245 0.043437 -0.048614 -0.045149 0.058618 -0.032124 0.077584 0.060209 0.036372 0.063490 0.046508 0.029985 -0.043857 -0.048230 -0.042810 0.076828 0.070435 0.026406 0.058381 -0.079974 -0.040389 0.009178 -0.036673 -0.016521 -0.063497 -0.071752 0.084498 -0.004583 -0.069633 0.041470 -0.014473 0.061631 0.068733 0.052869 -0.048663 -0.056785 0.049749 0.061592 -0.021848 0.046815 -0.060083 -0.057755 0.015882 0.003401 0.082880 -0.030619 -0.045892 -0.054394 0.021572 0.057592 -0.072483 0.039019 0.048154 -0.063892 0.040579 -0.042387 0.029191 -0.034930 0.049067 -0.005019 -0.032018 -0.015047 -0.007082 -0.061976 0.075454 0.051936 0.087403 -0.057346 0.109250 -0.038129 -0.016236 -0.038638 0.004656 -0.042648 -0.034673 -0.010253 -0.029660 -0.034678 -0.002566 -0.006862 0.074504 -0.029275 0.001433 0.038557 0.011509 -0.026349 -0.075175 0.016201 0.021552 0.006515 0.057406 0.076674 -0.002728 0.067273 -0.092934 -0.033877 -0.029794 0.006792 0.059776 -0.058242 0.043937 0.000561 -0.048719 -0.099551 0.002641 -0.001044 0.062825 -0.041365 -0.013153 -0.059014 0.126080 -0.030407 -0.013108 -0.014814 -0.037359 0.033955 -0.053493 0.022501 0.021536 0.030274 0.037320 -0.035272 0.038255 -0.051381 -0.044706 -0.101380 0.051830 -0.015519 0.008226 0.028177 0.053594 -0.060077 0.056538 0.089335 0.047516 -0.043776 -0.036821 0.016281 -0.017170 0.052424 0.000704 -0.100910 -0.043054 -0.020045 -0.039134 -0.047388 0.036519 0.008644 0.017594 -0.042699 0.026238 0.028059 0.031831 0.054344 -0.027598 -0.024407 -0.017272 -0.069181 0.055300 0.063949 0.029587 0.060148 0.006620 -0.002015 -0.003691 0.105140 -0.021631 -0.012419 -0.098596 0.030069 0.061661 -0.041404 0.077270 -0.061465 0.010707 -0.042807 -0.080539 -0.020082 -0.001697 0.035395 0.068074 0.004805 0.076631 0.021967 0.037886 0.092980 -0.046860 -0.028719 0.026434 -0.067306 0.053604 -0.049106 -0.033408 0.009462 0.010119 0.119800 -0.070338 0.005043 -0.083670 -0.036162 0.030971 0.054906 0.002541 0.028665 -0.018314 -0.014380 -0.022112 0.004948 0.047225 0.040785 -0.075545 0.091947 0.080511 -0.050074 -0.001996 0.070486 -0.061571 -0.021013 0.061825 -0.009655 0.037007 -0.065184 -0.022263 0.047803 -0.077600 -0.099554 -0.036556 -0.035735 0.038910 0.060083 0.016265 0.015668 -0.101210 -0.088459 -0.059186 0.006148 0.006614 -0.054500 0.068025 -0.029132 0.021086 -0.007536 -0.025971 0.102490 0.032241 0.096245 0.038906 -0.004883 -0.064262 -0.027036 0.065599 0.064457 0.060095 0.031669 0.017068 0.013017 0.115920 -0.035791 -0.035853 0.111060 -0.034843 0.119950 0.003572 0.046691 -0.106580 0.076642 -0.046673 0.048723 0.048154 0.036651 0.105440 0.039210 -0.015263 0.022612 -0.023214 -0.060423 -0.004382 0.039763 0.008691 -0.062368 -0.068241 -0.062138 0.022206 0.016311 0.059530 -0.033751 -0.021306 -0.030271 0.029279 0.050925 0.003275 0.031845 0.038836 -0.009724 -0.056226 -0.018836 0.042831 0.076515 0.035144 -0.062602 -0.088621 -0.046296 0.015760 -0.076209 -0.014962 -0.127850 0.060102 0.022106 0.003788 -0.035370 0.043540 0.054684 -0.008920 -0.026943 -0.065783 0.067325 -0.079564 0.002753 0.093184 -0.027056 -0.063875 0.012466 0.040676 0.011962 -0.018052 0.071056 -0.064804 -0.061518 -0.020137 0.049360 0.105490 -0.002818 0.032509 -0.047211 -0.023314 0.064048 0.098721 -0.030150 0.008121 -0.057059 -0.022426 -0.108790 0.050805 0.063898 -0.005025 -0.053404 -0.042256 0.042674 -0.042733 0.006474 0.058026 -0.060142 0.008380 -0.015719 0.032617 -0.010974 0.026199 -0.080245 -0.013861 0.077960 -0.073815 0.077700 -0.088645 0.063967 -0.021013 0.025131 -0.017354 -0.009035 -0.022395 -0.022952 -0.075645 0.100490 -0.013750 0.000004 0.025103 -0.060106 -0.016507 -0.097512 -0.002183 0.035632 -0.039718 0.006490 0.093295 -0.096356 -0.091377 -0.050740 0.032048 0.096611 -0.000247 -0.105380 0.101910 0.014178 0.047012 -0.104940 0.042682 -0.002768 0.038491 0.070979 0.016769 -0.015726 0.003908 0.004914 0.041541 0.029556 0.097760 -0.016689 0.063889 0.005375 0.000452 0.012605 -0.039316 -0.009810 -0.061907 -0.043423 -0.040329 0.048295 0.008643 -0.076905 -0.063949 -0.004380 0.041977 0.005401 -0.103360 0.017660 0.049840 -0.076758 0.094594 0.013022 -0.045652 0.035061 -0.071406 -0.020476 0.049502 0.030727 0.103610 -0.000635 -0.012948 -0.029374 0.004557 -0.112890 -0.022028 0.060674 -0.025397 0.137610 0.024697 -0.033324 -0.047033 0.030921 -0.048738 0.073689 0.038888 0.031682 0.052658 -0.065234 0.032930 0.030462 0.016102 -0.047118 -0.064132 0.050371 -0.024797 0.011852 0.031404 -0.029059 0.024668 0.015175 0.097746 -0.054512 0.056724 0.051974 0.006890 -0.039721 0.120300 0.084002 -0.085769 -0.042010 -0.018956 0.025048 -0.060004 0.014300 -0.028924 0.045325 0.083811 0.067003 0.010697 0.054916 0.016059 0.048912 0.075255 0.062885 -0.001590 0.039039 -0.034388 0.087460 -0.027075 0.052281 0.019944 -0.051438 -0.014291 0.072382 -0.036914 0.024427 0.082406 0.040930 0.009671 -0.041482 0.052198 0.022720 -0.053035 -0.025512 -0.072607 -0.116010 -0.090488 0.022444 -0.027816 -0.018872 -0.064452 -0.076866 0.040560 0.013209 0.051575 0.086490 -0.045611 0.076771 0.017837 0.104710 0.097568 0.025602 0.090253 0.010173 0.039441 0.066570 0.026425 -0.048591 0.026840 -0.019504 -0.068915 0.018315 0.055566 -0.036118 0.127170 -0.078658 0.018224 -0.099245 0.041902 -0.007236 0.038183 -0.042177 -0.055843 -0.066462 0.019649 -0.048361 -0.067205 0.057512 0.025611 -0.012193 -0.006120 -0.065725 -0.036032 -0.012801 0.035322 -0.086159 0.057178 -0.033281 0.024908 -0.051088 0.015452 -0.092886 0.031141 -0.021535 -0.006370 -0.111080 0.075397 0.057792 0.041003 0.078452 0.039912 -0.012087 -0.039407 0.019209 -0.083928 0.062334 -0.052538 -0.000217 0.033742 -0.006518 -0.098426 -0.109980 -0.033256 -0.005507 0.003538 -0.052641 -0.036921 0.100030 -0.051601 -0.000749 -0.060289 -0.031779 -0.001789 -0.045546 -0.002700 0.004705 0.127830 -0.071002 -0.046783 -0.042699 -0.013021 -0.060164 0.042092 0.077676 0.035598 0.013853 0.031238 0.060225 -0.039153 -0.040114 -0.087171 0.068680 -0.035337 0.075441 0.012786 -0.002397 -0.056952 0.011472 0.038421 -0.013720 0.042583 0.032207 -0.048062 0.018571 0.021000 -0.034563 -0.027277 -0.036820 0.072619 -0.095062 -0.074421 -0.039742 0.063145 0.032816 0.047794 0.012525 -0.067441 -0.016770 0.034134 -0.007850 -0.028922 -0.078675 0.065664 -0.065950 -0.001717 0.089837 -0.017791 -0.065376 -0.041185 -0.048465 -0.062745 0.043668 0.058642 -0.030425 -0.002394 -0.044818 -0.075180 -0.079923 0.008747 0.063243 0.030820 0.006056 0.025683 0.005305 0.067171 -0.009267 0.034311 -0.023360 0.000837 -0.085607 0.050082 0.001907 -0.023607 -0.045232 0.062473 -0.066428 -0.023221 -0.095282 -0.052116 0.095921 0.085004 0.095821 0.025332 0.038808 0.092039 -0.005691 0.010492 0.061350 -0.030431 -0.018225 0.028811 0.061516 0.017780 0.021498 0.052499 0.075140 -0.034161 -0.033126 0.106380 0.011966 0.089157 0.044232 0.022698 -0.070104 0.099603 0.049885 0.059271 -0.008404 0.024928 0.015193 -0.055925 0.077455 -0.041969 0.009793 -0.048010 -0.003305 0.019506 -0.024625 -0.073330 0.030082 0.104810 -0.029664 0.091885 0.066508 0.008870 0.025272 -0.057525 0.019156 0.093730 -0.035250 -0.011539 -0.025679 0.023318 -0.005145 0.019497 -0.096070 -0.056955 -0.066025 -0.044111 0.025303 0.027256 0.051141 0.080239 0.074413 0.011709 0.047640 0.066184 0.061317 0.115660 -0.062125 -0.030271 0.026783 -0.039009 0.019180 -0.044851 0.068201 -0.053582 -0.029051 -0.067512 -0.041615 -0.037671 -0.015410 0.032323 -0.020250 0.057508 -0.106400 -0.060740 0.099955 -0.062760 0.033044 -0.027302 0.090547 0.004397 0.083955 0.021654 0.077129 0.102590 -0.039246 0.062795 -0.044008 -0.001100 0.039480 0.038175 -0.007882 0.125430 -0.073300 0.015188 -0.074173 0.064993 -0.005355 -0.021703 0.007843 0.038309 -0.019499 0.021462 -0.029156 -0.059183 0.081395 -0.020701 -0.021686 0.018992 -0.008255 -0.080209 0.023911 -0.041998 -0.073112 -0.049213 0.018677 -0.004235 0.040744 0.051466 0.050414 0.012723 0.059473 0.065338 -0.020901 0.025842 -0.001475 0.034583 -0.074526 0.018502 0.023045 0.027889 0.009622 0.071681 -0.018830 -0.073118 0.012192 0.042408 0.078362 -0.024135 -0.063429 0.051789 0.021957 -0.016481 0.005149 0.067829 0.066358 -0.039673 -0.036097 -0.012723 0.016001 0.021280 -0.045063 -0.007804 -0.028011 0.062907 -0.029627 -0.088531 -0.006026 -0.005477 -0.029957 0.082200 0.035123 0.021285 -0.008497 0.057806 0.012801 0.012559 -0.004063 0.017599 -0.072486 0.069996 -0.100360 0.022167 -0.024175 -0.047218 0.039559 -0.020198 -0.052632 0.044541 -0.048826 -0.046095 -0.071352 -0.075940 -0.032719 -0.022701 -0.002712 0.041403 -0.075360 0.024090 0.072496 0.056477 -0.047414 0.030072 0.062518 -0.044995 -0.015867 0.072070 -0.036707 -0.020230 -0.069642 -0.057652 0.089353 0.024425 -0.015407 -0.048884 0.044291 -0.065480 -0.099693 0.106760 -0.038726 0.054075 -0.051194 -0.080077 -0.024892 0.027201 -0.062445 -0.020677 0.080191 0.009021 0.055784 -0.019441 0.033768 -0.053260 -0.024111 0.065087 -0.035630 -0.026100 -0.016688 0.029460 0.078555 0.004082 -0.057555 -0.077352 -0.051096 -0.033937 0.029259 0.054442 0.039926 -0.027240 -0.064810 0.023373 0.058114 -0.043729 -0.060877 -0.067328 -0.013359 -0.100670 -0.012188 -0.007424 0.031881 -0.124480 -0.000306 0.042288 -0.057771 -0.114100 -0.109890 0.107860 0.099591 0.084384 0.007629 -0.008516 -0.048075 0.078722 0.052657 -0.062780 0.070066 -0.051802 0.020783 -0.056158 -0.098677 -0.065685 -0.053669 -0.012368 0.001294 -0.099970 0.052644 -0.132830 -0.002880 0.030065 -0.097198 -0.047369 0.017341 -0.103560 -0.008848 0.006969 0.008224 0.035248 0.052715 0.006211 0.083099 0.048127 0.034262 -0.053020 0.085441 -0.068053 -0.036842 -0.003431 -0.006835 0.059768 0.059280 0.050209 0.041163 -0.068323 0.042042 0.079487 0.002551 0.072674 -0.105360 -0.004640 -0.009959 0.006132 0.109620 0.040940 0.016754 0.026259 0.047842 -0.070427 -0.090997 -0.057472 -0.043227 -0.027813 -0.061691 -0.085660 -0.021084 -0.068386 0.072659 -0.011924 -0.062247 0.063198 0.015350 0.017804 0.033570 0.040425 -0.017935 -0.022754 0.023027 -0.026970 0.016152 0.042200 -0.021126 0.030235 0.043351 -0.015683 0.037024 -0.007998 -0.006545 -0.061292 0.006442 -0.058500 0.024560 -0.064303 -0.042885 -0.041216 0.031313 -0.058036 -0.066063 0.065015 -0.018359 0.023927 -0.019934 -0.022551 -0.080084 -0.063335 0.048310 0.003068 -0.040406 -0.037247 0.019470 -0.079785 0.034957 -0.018796 -0.056109 -0.036974 0.080418 0.076430 -0.040527 0.006981 -0.053040 -0.067267 0.000267 0.058371 -0.109190 0.046355 0.063882 0.096922 0.026781 0.077688 0.090110 0.059523 -0.100760 -0.031179 0.086201 -0.061132 -0.052785 0.060553 0.059248 -0.073743 0.018288 0.067974 -0.072324 0.000111 -0.018445 -0.055714 0.028367 0.036468 -0.071577 0.005644 0.045374 -0.051597 0.076821 -0.008576 0.003304 0.036752 -0.041092 0.037452 -0.045637 0.003255 0.059510 -0.010094 -0.057235 -0.008163 0.014289 -0.049555 0.043489 0.064127 0.091732 0.041516 0.011732 0.015403 0.090408 -0.052770 0.070534 -0.001985 -0.027892 -0.040316 -0.002071 0.006042 -0.047845 -0.031595 0.011911 0.015708 -0.013377 0.020367 -0.040930 0.001505 -0.096626 0.019487 -0.016477 -0.001963 -0.013351 -0.081095 0.083033 -0.038668 0.012328 0.077463 0.002308 -0.004565 -0.013215 0.012920 0.026924 -0.058084 0.008303 0.021401 -0.022439 0.012962 0.006798 -0.041607 -0.055608 -0.083530 0.082838 -0.017314 -0.018669 -0.009567 -0.105960 0.080158 0.050512 -0.042711 -0.007378 -0.035380 -0.038356 -0.128430 0.110130 -0.019177 0.058304 0.005731 -0.035626 -0.011005 0.084827 0.133840 -0.087344 -0.003313 -0.006073 -0.071524 -0.114000 -0.001608 -0.074931 -0.042746 0.041674 -0.064471 0.102390 0.073867 -0.061326 0.012381 -0.022485 0.004585 -0.034501 -0.026933 -0.114210 -0.096884 -0.005410 -0.030690 -0.023756 -0.080044 -0.060058 0.097046 -0.027327 0.056817 -0.044938 -0.055886 0.071529 0.004133 -0.085832 0.069115 0.021619 0.053711 0.061988 -0.043021 -0.013138 0.008519 0.048912 0.088901 0.111010 0.013822 0.037014 0.047590 0.088703 0.034218 0.054439 0.062119 0.025681 0.076937 -0.026493 -0.009938 -0.013018 -0.056390 -0.001529 0.013207 0.078427 0.029868 0.055251 -0.072607 -0.075627 -0.087053 0.035374 0.081887 -0.026179 0.013660 -0.050762 -0.005209 0.035814 -0.010851 -0.031216 -0.069631 -0.053690 0.074147 0.011383 -0.025934 -0.088903 0.033048 -0.039270 0.025450 0.073350 0.020001 0.018418 0.098984 -0.120520 0.045021 -0.023171 -0.014867 -0.115960 0.032168 -0.051302 0.042377 -0.040153 0.063704 -0.044479 -0.066752 0.112060 -0.064189 -0.067338 -0.089724 -0.062979 -0.018728 -0.099861 0.077418 0.016321 -0.063639 -0.048806 0.039611 0.088414 -0.059032 -0.011044 -0.031858 -0.062307 -0.011858 0.025827 0.041684 0.080829 -0.037244 -0.070458 -0.022361 0.011327 0.005838 0.000410 -0.009391 0.034673 -0.024601 -0.008589 -0.014122 0.071518 0.096682 0.047186 0.010627 -0.026071 0.008398 -0.065469 0.010406 -0.055144 -0.004811 0.031908 0.067417 -0.025072 0.016770 0.089911 -0.061540 -0.018540 0.079734 0.031179 -0.043036 -0.018349 -0.051651 -0.085989 0.016098 0.006281 -0.091373 0.032230 -0.084171 -0.060900 -0.058783 0.020157 -0.060453 -0.098869 0.056543 -0.030652 -0.019963 0.113560 0.009858 -0.061825 0.024803 -0.074837 0.047185 0.058889 0.006569 -0.048420 0.042137 -0.061981 -0.001852 -0.090556 0.044052 -0.040429 -0.005343 -0.065825 -0.003889 0.016030 -0.061753 -0.086587 0.009255 0.049159 0.066049 0.008748 -0.091477 0.046017 0.042018 0.054873 -0.020831 0.062675 0.092339 0.088217 -0.072885 -0.077748 0.081886 -0.073583 0.071970 -0.043553 -0.042356 0.000905 0.078641 0.050837 -0.007964 0.054866 -0.026313 0.058851 -0.004217 0.032335 -0.042584 -0.027608 -0.023933 -0.033698 0.051230 0.009062 0.063280 0.075759 0.079030 -0.044821 -0.044683 -0.090769 0.092501 0.069882 0.017113 -0.046912 0.104700 -0.030395 0.059030 -0.043683 0.057148 -0.009912 -0.010103 0.038177 0.025608 0.020647 -0.110230 -0.032907 -0.001214 -0.095345 0.028151 -0.027611 -0.089152 0.094737 -0.007977 0.005182 0.005443 0.051331 0.045266 0.078293 -0.037668 0.041025 -0.001045 0.106500 -0.000920 -0.001963 0.022975 0.045152 -0.109090 0.044721 -0.046305 -0.088059 0.048716 0.073814 -0.033277 -0.059317 0.051086 -0.038234 -0.037259 0.093850 0.080340 0.059186 -0.022513 0.068946 -0.078684 0.072822 -0.016158 0.034763 -0.018163 -0.014130 -0.068573 -0.107210 0.012641 -0.014649 0.010040 -0.059591 0.084855 0.083767 -0.023006 0.050939 0.032353 0.063508 0.045740 -0.030463 0.057762 0.055550 0.040475 0.086397 0.001929 -0.018031 -0.002157 -0.004383 -0.100160 -0.026820 0.089886 0.060586 -0.074294 0.017680 0.061286 0.046275 -0.104690 -0.061077 0.023113 -0.022411 -0.066783 -0.052917 0.067258 -0.062834 0.041259 0.092581 -0.039460 -0.063928 0.048553 0.050452 0.061919 -0.043925 0.054128 -0.047056 0.010998 -0.045361 0.060596 -0.038958 0.042728 -0.031347 0.020171 -0.018692 0.038760 0.046828 -0.041090 0.021979 -0.005929 -0.054550 -0.001589 -0.018085 0.015685 0.061366 -0.078348 0.024664 0.018184 0.050631 -0.060389 0.095887 0.043403 -0.058118 0.011968 0.026645 -0.061839 -0.036947 -0.058141 0.044555 -0.116840 0.010622 0.039169 0.024915 -0.064463 0.006664 -0.016547 0.043543 -0.042076 -0.008925 -0.068367 0.039894 0.025166 -0.077184 -0.086663 -0.090904 -0.056877 -0.055330 0.075563 0.067300 -0.017964 -0.000651 -0.112950 0.041720 0.099564 0.021327 -0.021786 -0.018798 0.083989 0.011730 0.062588 0.027976 0.039636 -0.026107 0.019751 -0.010703 0.005540 0.054092 0.057402 -0.062920 0.025090 0.061810 -0.096921 -0.085153 -0.048608 0.101410 -0.005030 0.016288 0.090368 0.041611 -0.013947 -0.001002 -0.027492 0.019866 -0.062116 -0.047743 0.040806 0.082709 0.027691 0.017357 -0.074516 0.046852 0.066650 -0.016944 -0.058899 0.044391 0.038830 0.052608 0.055469 0.013501 -0.076619 -0.030487 0.025019 -0.000571 -0.021846 0.017453 -0.020336 -0.017732 0.051765 -0.055565 0.091628 0.046742 -0.011396 -0.010503 0.053633 0.080576 -0.057525 -0.083704 -0.015421 0.042560 0.122840 -0.041813 0.102080 0.020787 -0.055872 0.016110 -0.001419 -0.019501 0.101920 -0.042782 0.063897 0.003766 0.023355 0.038307 0.063420 0.029792 -0.010456 0.003668 0.090115 0.021169 -0.053345 0.016275 0.016859 0.012601 -0.041516 -0.086910 0.072663 -0.019426 -0.030670 0.074215 0.008613 0.031800 0.006590 0.034030 0.055010 0.058298 -0.051931 -0.031255 0.112850 0.049788 0.002372 0.077202 0.049486 -0.071303 0.001061 0.105490 0.028781 -0.001651 0.052795 -0.010804 0.075295 -0.004456 0.108470 -0.009389 -0.018143 0.013090 0.039293 -0.025549 0.003653 -0.080708 -0.042769 -0.025279 0.038559 0.005845 0.082130 -0.015483 -0.080423 0.032382 -0.017536 -0.052281 -0.092572 0.047884 -0.025214 0.116790 -0.075876 0.031699 -0.028545 0.047896 0.082977 0.019388 0.061669 0.013351 -0.043938 0.042185 0.059965 0.044475 -0.025840 0.015312 0.012544 -0.007482 0.062339 0.039995 -0.001951 -0.001434 0.069374 0.039964 -0.002875 0.054829 0.091752 0.078763 0.103610 -0.031283 0.023346 0.024861 0.029528 -0.042641 0.013328 0.048644 -0.032229 -0.076666 -0.008112 -0.081900 -0.032670 0.067671 -0.040882 -0.051553 -0.066759 0.052880 0.035561 0.030991 -0.090513 0.053244 0.025274 0.037679 -0.027477 -0.061602 0.050919 -0.087229 0.044565 -0.012071 -0.017964 0.004041 -0.034788 -0.092770 0.049092 0.009680 0.037579 -0.040065 0.031956 -0.047085 -0.023629 0.044972 -0.003589 -0.064412 0.089565 0.071323 0.044764 -0.009739 -0.085908 -0.031515 -0.082133 -0.038428 -0.032659 -0.041558 -0.000630 -0.069648 0.028405 -0.072980 0.045286 -0.054595 0.009604 0.085863 0.058902 0.074619 -0.005675 -0.079474 -0.015641 -0.008080 -0.038476 -0.094811 -0.032828 0.036262 0.073026 -0.046084 0.070630 0.001822 0.059320 0.056660 0.063196 -0.013702 -0.049700 0.020358 0.061106 -0.064713 0.105880 0.003452 0.065312 0.040921 -0.031089 -0.045918 0.014791 -0.036839 -0.071248 0.044544 0.056128 0.026262 -0.098096 0.050073 -0.009645 0.041184 0.015243 -0.054772 0.046432 0.009409 0.092966 0.027873 -0.039091 0.019483 -0.011630 0.041614 0.004645 0.065777 0.023953 0.072610 0.000425 0.007615 0.035209 -0.004730 0.039143 0.014111 -0.009901 0.055773 -0.053494 -0.088696 -0.006350 0.071957 0.036090 -0.138350 -0.061537 -0.000532 -0.029850 -0.006071 0.070096 -0.032474 -0.017007 -0.119870 -0.017202 -0.015172 -0.042543 -0.021083 -0.020061 0.053805 -0.032892 0.035082 0.064781 0.053966 0.032938 0.045848 -0.019640 0.020621 -0.008365 0.072260 0.044715 0.052561 -0.007058 -0.075445 0.075617 0.061676 -0.004940 0.015014 -0.053090 0.056766 -0.027770 0.016650 0.023913 0.129440 -0.130760 -0.031897 -0.028752 -0.013552 0.023464 -0.053057 0.048826 0.019989 0.026489 -0.008170 -0.099443 -0.081076 -0.007568 0.059105 -0.028336 -0.023630 0.090339 0.032658 -0.026866 -0.061018 -0.102350 -0.044088 0.047600 -0.021348 0.025921 0.006488 0.015281 0.024931 -0.017944 -0.024244 -0.008862 0.036682 0.001044 0.048652 0.097212 0.013749 0.020200 0.043377 -0.064191 -0.012768 -0.003060 -0.005370 -0.008535 0.081231 -0.057616 -0.115160 0.018856 0.000698 0.074062 0.011604 -0.005711 -0.014429 0.046339 -0.029447 -0.084124 0.019118 0.048675 0.034626 0.032394 0.002046 0.035510 -0.002112 -0.017234 -0.009082 -0.092864 0.046468 -0.100010 0.014585 -0.003124 -0.062004 -0.027494 -0.042936 0.039610 0.007700 -0.025435 0.045069 0.039535 0.017253 0.081836 -0.098996 0.102800 0.002892 -0.064689 0.017724 -0.043298 0.096220 -0.010027 0.066193 -0.031365 0.061439 0.044574 -0.068232 -0.102440 -0.000979 0.065341 -0.033237 0.081917 0.005589 0.025642 -0.029754 0.076533 0.055370 0.069408 -0.025225 -0.009576 -0.019473 0.015437 -0.042902 -0.064933 0.087681 -0.017280 -0.075406 0.011125 0.012030 -0.023614 0.020796 0.042637 0.008305 0.078269 0.018519 0.035798 0.000786 0.031636 0.016369 -0.025816 0.015397 -0.010050 0.013293 -0.049847 -0.005371 0.012954 0.066580 -0.055449 -0.042625 0.040085 0.001972 -0.026837 -0.037466 0.038985 0.044890 -0.016597 0.029549 0.022857 0.058318 0.084679 0.007359 0.008401 -0.026828 0.066192 0.018671 0.012119 0.013483 0.013937 -0.050784 -0.045541 0.021061 0.109430 0.062727 0.005622 -0.056476 0.042416 0.095927 -0.004929 -0.007057 0.018162 0.069945 -0.002341 -0.038331 -0.028319 -0.113310 0.001483 0.010763 -0.068217 0.072003 -0.083850 0.087189 -0.072903 0.115370 -0.049040 0.009701 0.035452 -0.062572 -0.046542 -0.056403 -0.011975 -0.014417 -0.069734 -0.030705 0.021979 -0.035492 -0.004007 0.041519 0.088346 -0.020923 -0.064546 -0.044648 -0.003186 -0.053448 -0.052302 -0.038197 -0.053615 -0.020692 0.074181 0.056425 -0.009776 0.017302 -0.023866 0.019318 0.063480 -0.012447 0.067616 0.078341 0.034512 0.003937 0.032416 0.023851 0.065573 0.088098 -0.057555 0.004251 0.019600 -0.038799 -0.063067 0.076031 -0.072541 0.071567 0.021031 0.025468 0.084199 0.065860 0.004934 0.014842 0.059316 0.060210 -0.068627 -0.009716 0.086248 0.000219 0.007168 -0.026833 0.076086 -0.017138 0.050855 -0.112380 0.077212 -0.034230 0.019234 -0.026936 -0.096487 -0.057597 0.078234 0.007096 -0.003259 -0.012801 -0.050435 -0.057122 -0.058669 -0.045450 0.007885 0.080777 0.018871 0.028370 0.017026 0.043206 -0.012423 0.058819 -0.010603 0.061576 -0.025927 -0.041910 -0.086260 0.018159 -0.031583 -0.036254 -0.020774 0.052885 -0.008435 -0.003244 -0.030414 -0.082501 -0.040025 -0.019922 -0.019815 -0.022959 0.061957 0.013292 -0.079445 -0.042128 -0.025477 -0.063266 0.005709 0.001009 -0.047824 -0.042426 -0.068600 -0.043696 -0.020139 -0.037399 -0.078339 -0.007695 -0.041733 0.064321 0.016749 0.056316 -0.026028 0.050756 0.042723 0.024599 0.063007 0.059037 -0.076647 -0.002226 0.099084 0.072164 -0.056378 -0.036797 -0.101740 0.082973 -0.031617 0.015615 0.026325 0.004491 0.054552 -0.032917 -0.020215 -0.071004 0.042605 0.042967 -0.080698 0.008805 -0.013115 0.062715 -0.013683 -0.097028 -0.069466 -0.072811 -0.013186 0.079158 0.084263 -0.018219 0.004099 0.065722 -0.072654 0.047707 -0.014889 0.057079 0.050305 -0.031410 -0.059714 -0.088099 0.035184 -0.002400 -0.088873 0.050905 0.012535 -0.034496 -0.083946 -0.011431 -0.028958 0.025355 -0.066165 0.059519 0.004027 0.074019 -0.004674 0.088373 -0.035689 0.054012 0.018954 0.095600 0.045737 0.020424 -0.007566 -0.024618 -0.042213 0.006477 0.028883 -0.009049 0.009372 -0.003284 -0.106870 0.057099 0.085964 0.033924 0.010877 0.021184 -0.015294 0.061134 0.040903 0.022460 0.009415 -0.019148 0.005453 -0.017597 -0.063568 0.046123 -0.087361 -0.033909 0.042280 -0.022452 0.051243 -0.066509 0.008441 0.093593 0.039961 -0.029066 -0.025220 0.004899 -0.040876 -0.096737 0.000240 0.074458 -0.026441 -0.024744 0.006822 0.038871 0.042369 0.016316 0.005415 -0.003308 -0.090094 0.008061 -0.010326 0.104590 -0.013784 -0.050261 -0.046737 -0.045878 0.013871 -0.007152 0.021312 -0.074659 -0.055747 0.052852 0.083249 0.077629 0.105070 0.003364 0.058821 0.004142 0.042062 0.020163 0.003007 -0.032779 -0.010961 0.031942 -0.055378 -0.004667 -0.004890 -0.011875 -0.063392 -0.018249 -0.052334 -0.040352 0.076839 0.037368 -0.065917 -0.039771 0.072442 0.067082 -0.062612 -0.001565 -0.022813 0.061360 0.006566 0.070969 0.035772 0.063244 0.086396 0.040653 0.000401 -0.027136 -0.056241 0.011139 -0.044460 0.100490 0.021491 -0.119220 0.016989 -0.050716 -0.039707 -0.035405 -0.022497 -0.041395 0.032354 -0.071223 -0.042889 0.033574 -0.027565 -0.035053 -0.097260 -0.032684 0.034579 -0.043661 -0.041820 -0.033629 0.041956 0.111020 -0.010612 -0.075708 -0.019269 -0.001342 0.003176 0.019703 0.072428 -0.033273 -0.067051 0.043781 0.091959 0.033037 0.030243 0.062713 -0.062573 0.078893 0.052651 -0.055626 -0.085393 -0.089904 -0.050245 0.016901 -0.025051 -0.080410 0.050939 -0.049227 0.012227 -0.059612 -0.139900 0.034083 0.005299 0.077231 0.124030 -0.027029 0.012230 -0.071506 -0.082005 -0.002168 0.088294 0.004547 -0.063560 0.007769 -0.042316 0.126320 -0.018124 -0.048547 0.038370 -0.012845 0.047874 -0.014735 0.093377 0.015263 -0.022346 -0.007212 0.022647 -0.050258 0.036047 -0.022992 -0.059042 -0.041847 -0.010016 -0.013157 -0.031991 0.042983 -0.060279 0.086658 -0.001337 -0.025050 -0.016116 0.049497 0.011476 0.019168 -0.035969 -0.055790 0.019963 -0.049023 0.010744 -0.055107 0.009077 -0.054269 -0.012085 0.051029 0.000753 -0.055745 -0.022640 -0.076693 0.019616 0.062103 0.013872 -0.007866 0.037480 0.124400 -0.045071 -0.029459 0.038406 -0.028597 0.023570 -0.074843 -0.019039 -0.067441 0.102200 0.040596 0.092894 -0.049483 0.016758 0.055328 -0.050397 -0.004593 -0.034182 0.011599 -0.078752 0.102450 0.116810 -0.073146 0.000798 -0.095221 0.094199 -0.010747 0.031328 0.006435 0.092942 0.095820 0.114480 -0.041467 0.067763 -0.105560 0.051238 -0.054510 0.096838 0.021220 0.016805 0.028314 -0.010603 -0.063244 -0.003575 0.017698 0.008552 -0.094905 0.100420 -0.057197 0.031114 -0.095221 -0.018257 0.055359 0.079922 0.046482 -0.050626 -0.022314 0.020106 -0.013658 -0.007303 -0.060122 0.047547 -0.095101 -0.050941 0.039713 0.086870 0.060874 -0.081155 0.098205 0.063885 0.023501 -0.046642 -0.101610 0.032997 0.013412 0.103970 -0.003492 0.042873 0.078781 0.008563 -0.071848 0.023565 -0.067113 -0.029828 0.031007 0.073112 0.057660 -0.040003 0.037388 -0.051423 -0.024077 -0.030043 -0.098897 0.004531 -0.064417 -0.050533 -0.083224 0.060153 -0.035318 -0.008717 0.032232 -0.007043 0.032158 -0.036152 0.019131 -0.047263 -0.072435 -0.081857 0.109330 0.063973 0.020976 0.082557 0.017021 0.004246 -0.043898 0.009802 -0.053080 0.078754 0.046545 -0.049247 -0.058393 -0.069869 0.024450 -0.075161 0.038486 -0.102950 -0.029578 0.002676 0.059755 0.052484 0.036725 -0.008419 -0.048417 0.022987 -0.096889 0.051828 -0.053041 -0.085231 0.020350 -0.072337 0.011727 0.039000 0.083217 0.019106 0.146240 0.045019 0.117740 0.083199 0.043635 0.024410 0.032753 0.142340 0.070089 0.046155 0.096165 0.082742 -0.056706 -0.023142 -0.055337 -0.058188 0.042440 -0.016927 0.022778 -0.007417 0.049823 0.059535 -0.031935 0.035390 0.055954 0.090367 0.084118 -0.043254 0.038243 -0.025159 -0.067780 -0.056775 -0.058528 0.021881 -0.010572 -0.010354 0.068119 0.011079 -0.081520 0.064353 0.016160 0.035350 0.042561 0.069054 0.005132 0.093117 0.021103 -0.039773 -0.000777 0.064890 -0.044152 0.067840 0.051338 -0.069788 -0.007893 0.063671 0.017198 -0.082243 -0.017714 0.020420 -0.093563 0.006729 0.057794 0.028476 0.002708 -0.007301 0.006291 0.080704 0.022338 0.064818 0.015591 0.004800 0.067770 0.048549 -0.059811 -0.059624 -0.024706 -0.067237 -0.005813 0.019286 -0.051883 0.027297 -0.015920 0.118120 -0.063725 -0.059732 0.045400 -0.031836 -0.086454 0.045294 -0.099254 -0.052335 -0.105510 0.011761 -0.070483 -0.052598 0.086440 -0.122480 -0.050532 0.014088 0.007031 0.005240 -0.106990 0.087774 0.003291 0.020871 -0.078090 0.030250 -0.060096 0.069462 0.048994 -0.008203 -0.044502 0.067516 0.053586 -0.037498 0.037370 -0.050100 -0.054919 -0.002844 0.005074 0.061063 -0.033831 -0.069269 0.016478 0.040223 0.103880 0.041833 0.046542 -0.047890 -0.032245 0.022892 0.038190 0.031300 -0.054924 0.027532 0.064382 -0.013418 0.038108 0.001391 -0.082956 -0.032355 -0.029228 -0.033328 0.002088 -0.018351 -0.083947 -0.085960 0.060797 -0.030483 -0.017723 -0.074921 0.024785 0.008836 -0.006328 -0.079349 -0.003219 0.032125 -0.047206 0.062468 0.019528 0.059361 -0.026388 -0.153280 0.078327 0.023392 -0.107840 0.031512 0.059059 -0.074279 -0.048778 0.113030 0.073332 -0.006014 0.059038 0.083578 0.114080 0.015313 -0.060996 -0.016556 -0.058355 0.083582 -0.038053 -0.026152 0.034616 -0.043502 0.093972 0.048743 -0.015473 0.014068 -0.076050 0.034801 -0.007106 0.014724 0.050026 -0.051268 0.034089 0.021716 -0.017025 -0.010032 0.081008 0.059537 -0.027018 -0.011616 -0.027879 0.123540 0.058937 0.005948 0.082854 -0.037016 -0.050766 -0.071336 0.068640 -0.059693 0.073143 -0.033855 -0.041296 -0.052338 0.012532 -0.052321 0.004150 0.044068 -0.014101 -0.084073 0.073895 -0.042617 -0.063064 0.022659 0.050456 -0.036879 -0.045867 0.002580 -0.054875 -0.045793 -0.020536 0.076555 -0.009033 -0.010115 0.007444 0.041066 0.053317 -0.020837 0.054377 0.020445 0.019838 -0.041741 0.077023 -0.068044 0.080314 -0.041100 0.071344 0.068895 -0.075983 0.076246 -0.000904 -0.048498 0.025363 0.008823 0.000662 -0.074113 0.005305 0.027584 -0.077867 -0.008887 -0.064389 -0.050052 0.023335 0.069209 0.006724 -0.081005 0.006614 -0.001134 -0.000063 0.043368 -0.031586 -0.026594 -0.009104 0.027267 -0.009708 0.031084 0.036787 0.100190 0.067544 -0.034065 0.018149 -0.000332 -0.030495 0.094749 -0.044518 -0.079748 0.050364 0.034010 0.062077 -0.057911 0.000020 0.012328 0.029362 0.064266 -0.084310 0.096869 -0.012423 -0.032490 0.027301 0.003003 0.049387 -0.051995 0.061985 -0.026215 -0.040740 -0.026782 -0.013327 0.055907 0.057394 -0.054628 -0.029246 -0.015981 -0.129100 0.055200 -0.072766 0.021605 -0.033552 0.071257 0.011083 -0.030208 -0.070660 -0.090028 -0.028276 -0.036506 0.017528 0.098789 0.003649 -0.064252 0.107530 -0.028432 0.027560 0.028134 -0.008205 -0.098807 0.083080 -0.043426 0.073926 -0.049728 0.029460 -0.008456 -0.027671 0.138380 -0.118440 0.111960 0.062913 0.062201 -0.001347 0.059587 0.100800 0.042517 0.034331 0.050191 0.083534 0.087501 0.039087 -0.085474 0.019591 -0.013664 -0.062845 -0.042559 0.011627 -0.047248 0.077222 -0.002920 0.066616 0.016207 0.030385 0.067443 -0.101410 0.107130 0.021539 0.040578 0.051188 -0.112960 -0.026931 0.009055 0.003161 0.003847 0.074007 0.112050 -0.038264 0.098303 0.013445 -0.049530 -0.018499 0.027314 0.017947 0.009489 0.108720 0.128100 0.021937 -0.008856 -0.090914 -0.031191 0.067584 -0.052395 0.062621 -0.004877 -0.024576 -0.015630 -0.047023 0.046575 -0.030700 0.049343 -0.056092 0.012322 -0.082841 0.009811 -0.072419 0.007764 0.031293 0.010974 -0.005249 0.092235 -0.111130 -0.022261 0.029002 0.013500 -0.081193 -0.108430 -0.086402 -0.065065 0.004331 -0.078797 -0.029679 0.122320 0.020684 0.022618 0.033339 0.036890 -0.061421 -0.011212 0.031478 0.044354 0.014370 -0.001637 -0.044602 -0.093589 0.099930 0.027164 0.082889 -0.027361 -0.012292 -0.013192 -0.013282 0.014219 -0.072813 -0.022856 -0.043537 -0.077819 -0.013726 -0.107330 -0.045433 -0.006388 -0.007044 0.021595 -0.036524 0.053599 -0.047832 0.013243 -0.090141 0.052076 0.003168 0.090665 -0.022853 -0.062839 0.019405 -0.060265 -0.032974 -0.032183 -0.069615 0.041820 0.062717 0.007213 -0.015051 -0.066749 0.052489 -0.019765 0.055393 0.071243 -0.010227 -0.059567 0.074150 0.014542 -0.043016 0.036260 -0.051684 0.038619 0.038202 0.024104 -0.069494 -0.061827 0.003752 0.057699 -0.088807 0.043857 -0.028691 0.051444 0.054572 -0.040483 -0.033725 -0.080027 -0.013206 0.063138 0.072224 0.047802 0.026770 0.026332 0.048933 -0.049266 0.009171 0.038173 0.046130 -0.063424 0.076044 0.037727 0.049936 -0.036010 0.088136 0.019919 0.002939 0.043733 0.078263 0.054216 0.068790 -0.035745 -0.030167 -0.001723 -0.077231 -0.043967 -0.058413 -0.056212 -0.018175 -0.007036 0.060899 -0.018842 0.005591 0.049639 0.022182 -0.037347 -0.070453 -0.039997 0.084411 0.018119 0.001641 0.027474 -0.004163 -0.084562 -0.010768 -0.067051 -0.017750 0.049112 -0.018974 0.071977 -0.007155 -0.036701 0.031283 -0.053475 0.040705 0.098802 0.106980 0.009647 0.015800 0.066781 -0.065379 0.045900 -0.020372 -0.065138 0.048765 0.062036 0.095375 -0.052527 0.017623 -0.041241 -0.033838 0.000020 -0.076819 0.071878 0.012772 -0.045951 0.059403 0.016722 -0.011682 -0.082230 0.065912 0.089000 0.042217 -0.047776 -0.130740 -0.054900 0.016966 -0.020418 -0.101100 0.052748 -0.044070 0.026593 -0.046333 0.035938 0.056809 0.088679 0.058442 -0.021841 -0.056705 -0.008244 0.012971 0.003947 -0.045522 0.045495 0.005991 -0.020292 0.014030 0.030049 -0.062370 -0.027451 0.076607 -0.022760 -0.001428 -0.058196 -0.035896 0.041798 0.069547 -0.034227 -0.056642 0.010850 0.044292 0.031347 0.070972 -0.111400 -0.025680 -0.047625 0.053733 0.035823 -0.008550 0.095568 -0.010745 0.009195 0.004064 -0.066811 -0.059277 -0.061329 0.039243 -0.049259 0.037101 -0.071257 -0.013222 0.055504 0.045012 0.006224 0.019066 -0.014406 0.005676 0.043798 -0.000232 0.016919 0.062503 0.058466 0.065407 0.037407 0.027479 0.089224 0.019385 0.033781 -0.023413 -0.009398 -0.025050 0.053442 0.002021 0.164230 -0.007196 -0.031745 0.027880 -0.016079 -0.068885 -0.037598 -0.013967 0.080157 -0.012835 -0.049985 0.044553 0.020020 -0.029721 -0.044386 0.010870 0.076756 -0.018207 -0.053843 -0.032476 -0.032011 0.048616 0.081834 -0.022118 -0.052753 0.011153 0.004456 0.045187 -0.023503 -0.020958 0.029595 -0.088753 -0.015325 0.020070 0.007111 0.012533 0.068247 -0.044816 -0.079196 0.046644 0.036733 0.075921 0.007902 -0.017614 -0.091325 -0.005287 0.013041 0.088440 -0.023233 -0.022228 0.005845 0.092999 -0.078321 0.012067 -0.064598 0.076973 0.008660 0.040224 0.006555 0.013455 -0.035625 0.016172 0.005601 -0.037676 -0.070235 -0.049306 -0.003159 0.049872 -0.093643 0.009637 0.020999 0.045269 -0.066304 0.053806 0.088795 0.052203 -0.000716 0.064529 0.057863 0.000623 0.032900 0.027076 0.043476 0.032866 0.049470 -0.007937 -0.093302 -0.008336 0.048538 0.047758 -0.013890 -0.021008 0.030676 0.035273 0.004775 -0.016682 -0.062837 -0.055402 -0.066207 -0.067317 -0.031101 -0.084319 0.042153 -0.011358 0.003069 -0.072747 0.055807 -0.049981 0.026849 0.056525 0.030099 -0.053478 -0.012010 -0.003725 -0.049373 -0.111950 0.028356 0.034977 0.054980 0.060571 0.037452 -0.010371 0.000987 0.111560 0.058427 0.044125 0.045664 -0.014100 -0.055746 0.064253 0.026074 -0.028054 -0.053400 0.000805 -0.027616 0.031225 -0.046729 -0.021242 -0.077111 -0.052539 0.041399 -0.008670 -0.061887 -0.029844 -0.016448 0.045790 -0.012511 -0.070341 0.097793 0.000363 -0.036129 -0.024399 -0.079761 0.011336 0.037031 0.071576 -0.025634 -0.029887 -0.050236 0.037429 0.047174 0.072904 0.022968 0.037977 -0.084538 0.008330 -0.058515 -0.014753 -0.065015 -0.116860 -0.021056 0.011884 0.022518 -0.013331 0.085439 0.083821 -0.096807 -0.036561 -0.073042 0.002861 -0.083623 -0.050351 0.095527 0.057320 0.056073 -0.090738 -0.083935 -0.045114 0.106860 0.037154 0.045830 0.008607 -0.060140 -0.116810 -0.011389 -0.004668 -0.048122 -0.047087 -0.064361 -0.039674 -0.021884 0.081467 0.023014 0.026829 -0.011643 -0.030204 -0.088478 0.052260 0.020437 0.048922 0.000220 -0.049658 0.030420 0.004355 -0.021177 -0.031004 -0.039222 -0.040923 -0.009653 -0.012187 0.018200 0.012011 -0.039843 0.019415 0.036760 -0.073148 -0.080851 0.057652 0.040752 0.022407 -0.057519 -0.115000 -0.055717 0.081407 -0.022461 -0.017275 0.033778 -0.073199 -0.010774 -0.017098 0.079940 0.031326 0.027695 0.049222 -0.003329 -0.031807 -0.023945 0.044646 0.046713 0.042902 0.049441 -0.077431 -0.004785 0.022573 0.006078 0.031819 -0.001231 0.075573 0.053311 0.023214 0.044267 -0.024116 -0.051207 0.044534 0.051434 0.009639 -0.031421 0.064529 -0.037508 0.011945 0.045737 -0.010980 -0.064096 -0.043571 -0.006645 -0.055311 -0.003467 -0.036278 0.046620 0.008495 0.038563 0.056990 -0.023643 0.080989 0.011346 0.013490 0.072070 0.004942 -0.073563 0.068415 -0.044377 -0.012198 -0.072139 0.001431 0.063854 0.036578 -0.066492 0.006613 -0.044434 0.031334 -0.035420 -0.000242 -0.065131 -0.082408 -0.036612 -0.096454 -0.087639 -0.052896 -0.020627 0.050268 -0.013775 0.057561 -0.047601 -0.000560 -0.029922 -0.049392 -0.022086 0.062697 0.059330 0.024549 -0.041986 -0.026043 -0.085430 0.006980 -0.057876 0.068667 -0.073210 0.081913 0.007209 -0.104430 -0.071877 0.027143 0.020722 0.045891 -0.096596 0.066270 -0.057259 0.006516 -0.013670 -0.046439 0.029074 0.018320 0.007363 -0.023374 0.029678 -0.059946 -0.056173 0.012628 -0.008639 -0.010353 -0.001507 0.056538 -0.098420 -0.051808 0.014876 0.053203 -0.015779 0.030467 -0.000742 0.052706 0.069211 -0.007922 -0.080346 -0.042200 -0.029573 -0.021229 0.041696 0.035209 -0.019094 0.071384 -0.024759 0.085249 -0.047626 0.063819 -0.031608 -0.101460 -0.025147 0.105180 0.060285 -0.034964 -0.055865 -0.013378 -0.028255 0.007888 0.013125 0.066458 0.015463 -0.017970 -0.040326 -0.092523 0.004301 0.038332 -0.089048 -0.080802 -0.032170 0.057565 -0.062929 0.016101 0.059758 -0.015107 -0.048558 0.061470 0.035249 0.044236 -0.056435 0.034218 -0.064625 0.047886 0.032304 -0.000216 0.064182 0.084962 -0.007380 0.091744 -0.038996 0.010322 0.073180 -0.006020 -0.027223 0.037590 -0.035638 0.002021 -0.029175 -0.004394 0.019030 0.093640 -0.077679 0.079954 -0.037265 0.083024 0.035757 -0.048048 0.014021 0.075626 -0.037809 0.051348 0.014419 -0.101420 0.042509 -0.045642 0.029442 0.019907 0.027258 -0.026071 0.025571 -0.014748 -0.001713 0.069562 0.069220 0.005386 0.017741 0.034677 0.084098 0.056527 0.056049 -0.056158 -0.107130 0.071156 0.067793 0.090110 -0.066337 -0.022095 0.095896 -0.086470 -0.073158 -0.000957 -0.071475 0.006237 -0.006111 0.028708 0.012904 -0.000875 0.013910 0.044112 0.032700 0.030317 -0.064820 -0.036732 -0.087482 -0.024157 0.039345 0.108570 0.042609 -0.022794 0.083517 -0.027737 -0.018564 -0.061985 0.017090 0.052954 -0.043660 -0.045406 -0.051723 -0.087722 -0.084185 -0.023433 -0.020346 -0.096778 -0.013376 0.028680 0.054039 0.049278 -0.009850 0.015674 -0.025004 0.009654 -0.091314 -0.001951 -0.010428 0.071529 0.017674 -0.033902 -0.070717 -0.090868 0.035857 -0.006013 0.018164 -0.014468 0.015500 0.056373 0.072174 -0.016076 0.017648 0.022135 0.033841 -0.055036 0.096220 0.003567 -0.029167 0.044517 0.063406 0.064604 0.005703 -0.047458 -0.048573 0.047098 0.007681 0.070278 0.059069 -0.043095 0.012373 0.026475 0.056397 -0.056409 -0.036727 0.049433 -0.078886 -0.074857 0.014022 -0.053208 -0.057417 -0.001643 -0.076431 -0.015472 -0.036032 -0.074809 0.017327 -0.008592 -0.062448 0.018061 -0.037071 0.082748 0.052093 -0.007553 -0.089101 0.101610 -0.103130 -0.009632 0.142670 0.039871 0.043583 -0.015262 0.060867 -0.017517 -0.135760 0.090618 0.100110 0.090617 -0.004122 -0.006880 0.005373 -0.108270 -0.068574 -0.042962 -0.039260 -0.007998 -0.078229 0.017317 0.006992 0.031310 0.035074 -0.013271 0.082446 0.008477 -0.015077 0.003884 0.011773 -0.024878 -0.063496 -0.020872 -0.103640 0.080210 0.057279 0.100790 -0.063885 -0.004794 -0.010925 0.020358 -0.039605 -0.056705 0.008983 0.023789 0.041868 0.066133 0.057672 0.004487 -0.078583 0.104890 0.002495 0.094000 -0.081495 0.069072 0.033080 -0.046364 0.083104 -0.117580 -0.024889 -0.003062 -0.017138 -0.025750 0.082082 0.039773 -0.017962 0.020276 -0.001031 -0.016668 -0.021067 0.092836 -0.042811 0.019170 -0.061059 0.041582 0.065654 0.050028 0.088448 0.027632 0.071127 0.047429 -0.023665 0.022554 -0.060557 -0.016737 0.097541 -0.004225 0.016505 -0.075726 -0.027881 0.025427 0.035817 0.025260 -0.044930 0.018823 -0.112180 0.025949 0.114130 0.067069 -0.046728 0.084675 -0.044744 0.111900 0.089393 -0.080153 -0.044217 -0.030361 -0.092620 0.073643 0.095956 -0.123650 -0.013727 -0.003866 0.011894 -0.074643 0.043872 -0.000648 -0.041471 0.051132 -0.003358 -0.073530 0.059743 0.022300 0.016609 -0.024181 0.034207 -0.075586 0.017232 0.077801 0.068151 0.005725 0.065090 -0.037382 0.023517 0.093138 -0.098684 -0.054270 0.070858 0.012303 0.007979 0.075663 -0.068832 0.004699 0.002866 0.029939 -0.028175 -0.055106 0.023289 0.001587 0.001884 -0.043483 -0.043788 -0.043569 0.058698 -0.044989 -0.122080 -0.008195 -0.015137 0.037026 -0.046234 -0.011829 0.014883 -0.022211 -0.019699 -0.062311 -0.050064 -0.081701 0.006676 0.040253 -0.040168 0.006878 -0.025294 0.046454 -0.009433 0.006018 -0.125230 0.042309 0.018307 0.054773 -0.005090 0.078705 0.062086 0.012863 0.019787 -0.010871 0.046489 -0.003672 0.017661 0.029901 0.023401 -0.052068 0.004368 0.019951 -0.009359 0.012128 -0.006151 -0.041404 0.008665 0.000294 0.056554 0.059174 0.039406 0.078396 0.069242 0.020450 -0.087144 -0.102730 -0.064858 -0.026148 0.034478 0.046267 0.033028 0.038071 -0.023888 -0.063519 -0.011538 0.033980 -0.011091 0.063189 0.058333 -0.018946 -0.025286 0.033475 -0.077091 -0.036495 0.107560 -0.002328 0.077548 -0.023438 0.036859 0.043001 -0.012147 0.039563 -0.011481 0.045769 0.091819 0.005940 -0.058357 -0.068499 0.006689 -0.063787 0.011836 -0.026646 -0.023496 0.110810 -0.060529 0.079582 -0.038311 -0.066905 -0.078403 -0.070819 0.048252 -0.092873 -0.006517 0.060795 -0.051006 0.025764 0.129210 0.007439 -0.003691 0.015426 0.053486 0.084442 0.107130 0.011925 -0.016293 -0.070892 -0.039879 -0.044837 -0.002587 -0.089842 0.044055 -0.104640 -0.072086 -0.008232 -0.024142 -0.030180 -0.018109 -0.007999 -0.074105 0.105690 0.046331 -0.059496 -0.038345 -0.027105 0.018259 0.086396 -0.056154 0.050145 -0.037266 0.015606 0.080877 -0.084639 0.066966 -0.081940 0.040503 -0.013982 -0.004886 0.045211 0.034072 0.028197 0.031380 0.055571 -0.029604 0.062809 0.074006 -0.004936 -0.005986 0.056540 0.070941 -0.050379 0.072914 -0.061559 -0.057546 0.034828 -0.052265 -0.083050 -0.020484 0.004892 0.000803 0.001134 0.001071 0.009156 -0.018594 -0.052399 -0.053471 -0.068581 0.031201 -0.058422 -0.041029 -0.031154 0.084439 0.044465 0.093199 0.029477 0.081495 0.023134 0.024885 0.074485 -0.009399 -0.086178 0.059495 0.008371 -0.000661 -0.036407 -0.018958 -0.005116 0.038699 0.001371 -0.003701 0.075504 -0.022780 0.037717 -0.037649 -0.047688 -0.044289 -0.079048 0.032986 -0.068098 0.082409 -0.054351 0.095398 0.094445 -0.059924 0.006151 -0.032428 0.033785 0.025066 0.066045 0.065091 0.023850 -0.048761 0.050589 -0.075370 -0.091257 -0.009665 0.012103 0.031353 0.097328 -0.077346 0.059559 -0.022174 0.046276 -0.000808 -0.050131 0.041499 -0.028778 0.048828 -0.046115 0.063212 0.021509 -0.058061 0.008736 0.061236 -0.033225 -0.096164 -0.079352 -0.011516 0.091670 0.002334 -0.024386 0.118800 0.012304 0.022096 0.039969 0.073727 0.046410 -0.075507 0.037851 0.047307 -0.004424 0.076170 0.031211 -0.034035 -0.045098 -0.003601 0.042228 -0.059103 -0.022874 0.037161 0.008096 0.063312 -0.041429 -0.064614 0.060698 0.033180 0.082211 0.027198 -0.048481 0.102310 -0.018857 0.017215 0.042926 0.095236 -0.060452 -0.073891 0.036621 0.025932 0.022929 0.058772 0.080134 -0.063887 -0.048821 0.035353 -0.012458 0.044120 -0.048479 0.021957 0.014804 -0.090607 0.051670 0.058437 -0.100760 -0.022363 0.018631 0.074255 0.056906 0.038956 0.039842 0.051646 -0.090249 0.018530 -0.020467 0.041645 -0.068123 0.039107 -0.028068 -0.050399 -0.032731 0.034929 0.070307 -0.004475 0.034697 -0.011682 0.049875 0.023721 0.019366 -0.048830 0.019785 0.018034 -0.053763 -0.113110 0.099090 -0.043369 -0.006124 0.036622 -0.005652 0.012888 -0.034607 0.085697 -0.081432 -0.075788 0.024697 0.118670 -0.025940 0.046506 -0.004318 0.100850 -0.004791 0.048005 0.062327 0.024484 0.000528 0.059245 0.012812 0.030025 0.048423 0.004180 0.073531 0.038415 0.034544 -0.023224 -0.006835 -0.076872 -0.068060 0.061000 -0.032470 0.022223 0.020931 0.008519 -0.031721 -0.077817 -0.028541 -0.017061 0.019568 -0.050840 -0.009002 0.006539 0.011862 -0.041275 -0.067811 -0.026014 0.090973 0.021029 -0.005763 -0.057769 0.055625 -0.049206 0.007953 -0.119170 0.016741 -0.013094 -0.029376 -0.085876 -0.055840 0.039259 0.099828 -0.030115 0.036307 0.123870 -0.053702 0.035704 -0.051764 0.063931 -0.019868 0.023975 -0.014272 -0.084174 0.054888 0.088820 0.059326 0.014182 0.058146 0.003595 -0.054929 0.002956 -0.094848 0.059651 0.082212 0.029764 0.041739 -0.010885 -0.035343 0.001240 -0.071957 -0.049919 -0.066067 -0.078687 -0.042321 -0.023721 -0.027227 0.119020 -0.054391 0.089577 -0.025675 0.002805 -0.036082 -0.025657 -0.066408 -0.039333 0.133960 -0.057257 -0.019655 0.046258 -0.069574 0.080136 -0.015134 0.040398 0.013886 0.029834 0.092364 -0.016190 0.077729 0.017276 0.001300 0.071011 0.057716 -0.013564 -0.037813 -0.043366 -0.002608 0.076362 0.044116 -0.068781 0.091569 -0.072590 -0.013277 0.034200 -0.049159 0.033544 0.010101 -0.084837 -0.014739 0.003255 0.012994 -0.091293 0.043526 0.039814 -0.025648 0.047012 -0.089299 -0.034352 -0.069267 -0.052737 0.019364 0.067789 0.098367 0.006287 -0.105460 0.039970 -0.005593 -0.042054 0.093372 0.023455 0.015479 -0.002743 -0.035238 0.032290 0.037020 0.022819 0.030105 -0.050617 0.108120 -0.048762 -0.040068 -0.035567 -0.032303 0.052521 -0.086697 -0.067977 0.066423 0.011021 0.048173 0.004798 0.063656 -0.036930 0.075709 -0.008552 -0.005683 0.088714 -0.070569 0.003584 -0.053710 -0.064237 0.039513 -0.009787 0.044072 -0.014995 0.051277 -0.096385 0.018364 0.051021 -0.061769 0.001444 0.094223 0.040627 -0.060062 -0.028481 0.020408 0.028028 0.018474 -0.051917 -0.012257 0.005579 0.064450 -0.021465 0.001319 0.058590 -0.089951 0.010683 -0.059114 -0.055229 -0.059862 0.025124 -0.054626 -0.031859 -0.026505 0.046961 -0.081958 0.065150 0.017196 0.047638 -0.071345 -0.024565 -0.058183 0.068557 0.003416 -0.054383 -0.084539 0.035088 -0.024174 -0.014265 -0.042544 0.004451 -0.092011 0.025585 0.061321 0.048270 -0.030329 0.054440 0.049447 -0.008091 0.075747 0.077186 0.064079 -0.006606 0.081718 0.041878 0.057790 0.013581 -0.035812 -0.026476 0.018273 0.065616 0.063890 0.025043 -0.020060 0.061716 -0.040845 -0.093295 0.048474 -0.004155 0.052663 -0.054703 -0.059358 0.047722 0.006264 0.050174 -0.040461 0.084148 0.108840 -0.032846 -0.062906 0.033740 0.030757 -0.137620 0.021783 -0.052770 0.095696 0.053766 0.106370 -0.000449 0.052126 0.046963 0.008273 0.091003 0.112430 -0.047814 -0.033719 -0.054095 0.020888 0.042057 -0.071657 -0.020118 0.036444 -0.066688 -0.074350 -0.012533 0.038620 -0.000923 0.065008 -0.083601 -0.068990 -0.086121 -0.082098 -0.033126 0.031500 -0.022599 0.036955 -0.044667 -0.005442 0.007547 -0.031899 0.042472 0.039435 0.085959 0.112970 0.003203 -0.037876 -0.063463 -0.052120 -0.023333 0.041725 0.057094 -0.060215 -0.059830 -0.072045 0.055392 0.056615 0.071161 -0.035845 -0.048195 0.033960 0.050977 -0.002954 -0.006450 0.004558 -0.094788 -0.053577 0.030641 -0.079180 -0.023202 0.063116 -0.004593 -0.058717 0.059601 -0.023900 -0.053476 -0.016841 -0.017357 0.029378 0.046924 -0.011189 -0.058065 0.057418 0.022195 0.019514 -0.091236 -0.028536 -0.074186 0.095286 0.080486 -0.009222 -0.038551 0.053653 -0.039328 -0.075436 -0.052899 0.051549 -0.059486 -0.029712 0.008838 -0.060751 0.023670 0.007516 -0.037281 -0.034586 0.004074 -0.050839 0.006792 -0.010563 0.036739 0.059871 0.037274 -0.012520 0.000753 -0.056214 -0.071102 -0.030125 -0.019666 -0.082580 -0.064645 -0.004139 0.021783 0.046813 0.033661 -0.015599 -0.050999 -0.000999 0.046307 0.053003 0.062570 0.093404 -0.063219 -0.090357 -0.037325 0.087264 -0.002543 -0.038931 -0.027364 0.035559 -0.031523 0.048733 0.039778 -0.044490 -0.100970 0.033007 -0.028275 0.089983 -0.014031 0.091709 -0.000168 -0.037967 0.009641 -0.114230 0.029916 0.099138 0.092299 -0.028986 -0.020007 -0.031987 0.002539 0.080604 -0.058272 0.046267 0.015298 0.092494 0.056856 -0.027282 -0.000850 0.022180 0.060619 -0.031344 -0.016390 0.011107 -0.008556 -0.050592 -0.012955 0.020225 0.103490 0.110510 0.038462 0.020101 0.019033 -0.080353 0.061694 0.043095 0.026083 -0.011726 0.082255 0.029001 0.060340 -0.057107 0.063467 -0.054926 0.052439 -0.090354 0.063439 0.019932 -0.034188 0.094051 -0.078735 -0.003032 0.046278 -0.006463 -0.038888 0.014890 -0.042915 0.033014 0.043897 0.047026 -0.003254 -0.007407 -0.006301 0.060524 0.035960 0.038218 0.052891 0.114650 0.014633 -0.024327 -0.091294 -0.085436 -0.025310 0.002878 0.060881 -0.080639 0.019197 -0.072737 0.040539 -0.071278 -0.002938 -0.017617 -0.040782 0.035117 -0.064818 0.040315 -0.040497 0.085719 0.048483 -0.067830 0.002244 0.029946 -0.050994 -0.074558 0.032252 0.014339 -0.121330 -0.001989 0.034479 -0.051563 0.073575 0.029370 0.007190 -0.010717 -0.020300 -0.047808 -0.042496 0.061871 0.063887 -0.047980 -0.065282 -0.040652 -0.039615 -0.064835 -0.095558 -0.001655 0.042458 0.110000 -0.093800 0.058274 -0.104060 0.026456 -0.018761 -0.043685 -0.040863 -0.019011 0.019090 0.047161 -0.085335 -0.014280 0.026240 -0.032413 0.041645 0.068474 0.032793 0.089222 0.059998 0.044287 0.012750 -0.042255 -0.067903 -0.068182 0.027985 0.047750 -0.097143 -0.004450 -0.013344 -0.029476 -0.044378 0.044558 0.030407 -0.002882 -0.027629 -0.010358 0.033776 0.099726 -0.071922 -0.041596 -0.021900 -0.007071 0.008401 -0.000776 -0.041126 -0.071034 -0.074575 -0.069332 0.013967 0.061785 0.001339 0.062507 0.020939 -0.089199 0.090778 -0.079109 -0.003790 -0.032398 0.035995 0.071664 -0.068979 -0.039334 0.057486 -0.001350 -0.016062 -0.001358 -0.044118 -0.120240 0.029229 0.016421 -0.076690 0.105220 0.054637 0.034020 -0.099980 0.088616 -0.027999 -0.019142 0.050464 -0.022924 0.018780 0.042514 0.011895 -0.057575 0.088956 0.059543 -0.011463 -0.033349 0.050032 0.027203 -0.031117 -0.044576 0.067523 -0.027168 0.091108 -0.035518 0.037464 -0.115920 0.034310 -0.019355 -0.066162 -0.076106 0.098837 -0.054715 -0.058712 0.032001 0.011367 -0.039725 0.096559 -0.035129 0.000199 0.004022 0.042659 -0.004089 0.020130 -0.052841 -0.055986 -0.004165 0.038768 -0.010316 -0.062389 -0.031926 0.062043 -0.076991 0.025204 0.106490 -0.003621 -0.015923 -0.030805 -0.036537 -0.028018 0.051916 0.003302 0.035502 0.053412 -0.019737 0.063164 -0.107150 0.056958 0.075754 0.065083 0.090188 -0.095646 0.022579 -0.052393 -0.026104 0.079311 0.021143 0.022843 0.013339 0.049749 0.072292 -0.014941 0.004392 0.035536 -0.020909 0.090523 -0.063346 -0.028753 0.048357 0.049911 0.048156 -0.058466 -0.007983 -0.040735 -0.012202 0.048212 0.100640 -0.079402 0.001167 -0.086629 -0.064996 -0.012158 -0.012522 0.107030 -0.037427 -0.034594 0.078826 -0.076275 -0.053278 -0.040551 -0.047104 -0.025285 0.039472 0.049522 0.091102 -0.074344 0.006801 -0.071236 -0.021156 0.017023 -0.105220 -0.029566 -0.030689 -0.003256 -0.112020 -0.010716 0.040110 0.027842 -0.001362 0.013439 0.030908 0.010262 0.066942 0.070493 0.053111 0.055440 -0.008243 -0.078368 -0.001077 -0.063836 0.094251 0.090013 -0.029818 -0.007854 0.053863 0.009310 0.044657 0.046646 -0.075364 -0.054107 -0.000399 0.000284 0.028292 -0.013763 -0.023563 0.064842 -0.024876 -0.009867 0.100340 0.035549 0.027451 0.067936 -0.023110 -0.016541 0.030255 0.010904 0.007598 -0.019330 0.019778 -0.068193 -0.111150 0.034896 0.044252 0.004274 0.063730 -0.053706 -0.036423 -0.076512 -0.025746 0.057084 0.045648 -0.066703 0.050490 -0.000773 0.011820 -0.067412 -0.008428 -0.023130 -0.001063 0.031490 -0.041519 -0.043698 -0.067559 -0.036178 0.000153 0.006202 0.090007 0.040674 0.089521 -0.036942 -0.093626 0.082183 0.035548 0.070308 -0.024927 -0.047146 0.053162 0.081956 0.064056 -0.048297 0.003714 -0.007182 0.009838 -0.005209 -0.025201 0.061966 -0.028246 -0.033531 -0.060764 0.017273 -0.058346 -0.070975 0.130180 -0.023280 -0.015648 0.027052 0.015375 -0.033879 0.014698 0.004791 -0.029246 -0.072072 -0.050829 -0.038522 -0.004103 0.057148 0.106380 -0.055916 -0.049133 -0.019542 -0.087676 0.007773 -0.037758 0.036220 -0.038387 -0.064039 -0.049559 -0.008318 0.045149 -0.032046 -0.075940 0.037285 -0.041703 -0.041749 0.078789 -0.014383 -0.033827 -0.092266 0.025759 -0.072892 -0.061265 0.054243 -0.053117 -0.086955 0.072688 0.004916 0.100950 -0.018747 -0.043706 0.040395 0.020839 -0.074867 -0.055606 -0.062889 -0.071980 0.028573 0.066647 0.067760 0.019209 -0.043035 0.070183 0.074854 0.045388 0.011484 0.030963 0.004405 0.101070 0.096902 0.002448 0.024521 -0.027976 0.031302 0.057259 0.014163 0.008196 -0.118030 0.025301 -0.069751 0.031123 -0.001922 0.038304 0.025673 -0.017663 0.039815 -0.055406 -0.045886 0.033886 -0.031319 -0.046358 0.079451 -0.028062 -0.040460 -0.006908 -0.003508 0.038105 0.113600 0.039952 0.043173 0.142480 -0.081494 -0.091876 0.053270 -0.053950 0.031418 -0.017787 0.018749 0.087518 0.113170 -0.122490 0.033826 0.110090 0.047592 -0.034657 -0.025852 0.087760 0.060089 -0.014367 -0.054672 0.031095 -0.019947 -0.003909 0.020104 0.023532 -0.044199 0.008318 0.012312 -0.005719 0.012351 -0.050755 0.027808 0.012138 0.021664 -0.050578 0.040019 0.041419 0.072332 -0.019842 0.012465 0.087711 0.097586 -0.014630 0.011271 -0.005928 0.005620 -0.007298 0.060576 -0.004865 0.085293 0.085043 -0.131140 -0.012252 0.052690 -0.131640 -0.052349 0.054698 0.069704 0.031124 0.047209 -0.013072 -0.034982 -0.062269 0.036764 0.018624 0.018180 0.006252 0.072300 -0.045120 0.065097 -0.052959 0.039872 0.061535 0.065212 0.028525 0.098212 0.033435 0.043491 -0.037522 -0.045776 -0.058247 -0.052706 -0.073647 0.020991 -0.100970 -0.013693 -0.009654 0.020641 -0.046152 -0.089293 -0.048323 -0.029762 0.002748 0.076196 -0.034614 0.011378 -0.013850 0.027077 0.054875 -0.023065 -0.038897 -0.080358 -0.002670 -0.021017 -0.063360 -0.058324 0.030312 0.056985 -0.066483 0.031554 -0.053307 -0.135900 0.070168 -0.053267 -0.016348 -0.090346 0.074228 0.014469 -0.041688 -0.023940 -0.079805 0.009904 0.009874 0.015880 0.067539 -0.018794 0.020509 -0.086227 -0.013256 -0.123890 0.038766 -0.062558 0.031653 -0.007073 -0.006075 0.089990 -0.086074 -0.041735 -0.029679 0.024192 0.102610 -0.033450 0.001811 -0.047291 -0.036661 0.018524 -0.003866 -0.039901 0.026377 -0.039106 0.120730 -0.083099 0.011715 -0.070201 0.039671 0.028486 0.063562 0.070666 -0.087350 0.006986 0.040446 -0.056257 -0.035569 -0.035054 0.061880 -0.072845 0.034310 -0.030050 0.002284 0.090607 -0.040395 -0.037752 0.018303 -0.050981 0.027507 0.111970 0.083510 -0.078323 -0.048761 -0.013292 0.048985 -0.031351 0.052537 0.033021 -0.014566 0.079085 -0.146130 -0.022666 -0.086565 -0.108680 0.063118 0.059449 -0.031877 0.005646 -0.093235 0.053078 0.008238 0.044250 0.006409 -0.050897 0.083323 -0.032892 0.057751 0.101570 -0.028252 -0.086451 -0.075249 -0.070012 -0.025689 -0.031577 0.032261 0.014762 0.017978 0.042760 -0.058841 0.026523 0.030213 0.005789 0.068753 0.017378 0.130240 -0.057392 0.046883 -0.062429 -0.013618 0.032077 -0.017929 0.065270 -0.094119 0.015902 -0.038678 -0.060750 0.045009 -0.060211 -0.065616 -0.042289 0.006216 0.080540 0.015762 0.011452 -0.034559 -0.023096 0.045408 -0.013596 -0.093424 -0.033950 -0.006702 0.138350 0.044014 0.023724 -0.025673 0.043670 0.004060 0.010883 0.059007 0.043090 -0.055625 -0.007813 -0.055520 0.008098 0.027523 0.042943 0.009879 -0.000401 -0.008799 -0.044582 0.011495 -0.032430 0.053277 0.049389 -0.036413 0.003164 -0.083852 -0.073567 -0.029587 -0.000386 0.073049 -0.039207 -0.053921 0.051949 0.043025 -0.036275 0.054759 0.013128 -0.107150 0.100250 -0.004883 0.020553 -0.064113 0.025934 -0.016197 0.016668 0.064740 -0.010331 -0.056289 -0.000639 0.050669 0.097251 0.005772 0.023449 -0.047023 -0.014050 0.091625 0.065315 0.064401 -0.066278 -0.033389 -0.032798 -0.033150 -0.031173 -0.014207 0.021458 -0.063292 0.030346 0.035766 0.009980 -0.028051 0.089653 -0.049981 0.009156 0.010734 0.040320 0.005886 -0.050767 0.052255 -0.077866 -0.001814 0.092030 0.029755 0.078167 -0.028083 0.017499 0.016631 0.013637 -0.074241 -0.049101 0.025647 0.006163 0.009460 -0.020310 0.067407 -0.053631 0.042202 0.070987 -0.037545 -0.064780 -0.066374 -0.055269 0.008613 -0.035239 0.054626 0.097619 -0.033411 0.031224 -0.100400 0.020397 0.017243 0.057871 -0.039112 -0.023795 -0.025336 0.058853 -0.039360 0.057914 -0.066654 0.002035 0.098340 0.075139 0.050520 -0.061663 0.037514 0.054504 0.004365 -0.025469 0.082724 -0.007406 -0.031051 -0.038603 -0.080752 0.036350 -0.004237 0.015787 -0.085019 0.041590 0.014211 0.022408 0.073677 0.041076 -0.078707 -0.001895 0.054572 -0.065292 -0.018567 -0.038162 -0.001610 -0.055995 -0.056826 0.010430 0.032166 0.019622 -0.040572 0.035733 0.068579 -0.056594 -0.020508 0.042456 -0.031961 -0.026506 0.064349 -0.038811 0.055539 -0.032112 -0.062105 -0.049053 0.056004 -0.067967 -0.010652 -0.019597 -0.039925 -0.046153 -0.015031 0.011618 0.035204 0.057918 0.050408 0.031150 -0.063755 -0.032015 0.060042 -0.043100 -0.072815 0.062702 0.040256 0.033175 0.014810 0.014831 -0.012337 0.039174 -0.076811 -0.013340 0.030193 -0.048258 -0.048117 -0.116790 0.014911 0.010750 0.062177 -0.040638 -0.062677 -0.126820 -0.076342 0.025451 0.055805 -0.077317 -0.045848 0.009843 -0.052677 0.042851 -0.075469 0.035680 0.009256 0.010772 -0.023278 0.036928 0.036554 -0.094672 -0.024265 0.011369 0.101170 -0.052124 -0.075899 -0.000249 -0.031239 0.054607 0.031438 -0.067168 -0.033572 -0.075310 -0.081200 0.022274 0.019573 -0.085132 0.053802 -0.010373 0.015534 0.102850 -0.005808 -0.023874 0.055859 -0.063722 -0.057096 -0.018573 -0.020906 -0.074075 0.014578 0.026306 0.086603 0.018157 -0.075346 0.016765 0.038117 -0.058180 0.073931 -0.050738 0.008786 0.023443 -0.046684 -0.038131 -0.051965 0.045668 -0.055871 -0.026949 -0.048948 0.010359 0.073354 0.005271 -0.043091 -0.064838 -0.048331 -0.001532 -0.012229 -0.012598 -0.064041 0.018425 -0.014376 -0.099575 -0.047325 -0.053642 -0.020066 -0.007613 0.019748 0.041343 -0.026122 -0.090531 -0.001704 0.016858 0.003203 -0.039691 -0.031106 -0.045140 0.106600 -0.040334 0.067674 -0.052125 0.002818 0.012112 -0.015655 0.049095 0.014260 0.047769 0.014542 -0.024480 -0.078953 0.072758 -0.064393 0.089458 -0.043841 0.016791 0.050783 0.005853 -0.049320 0.013672 0.018168 0.088484 0.002114 -0.026418 0.024409 0.013840 0.068762 0.041202 -0.037072 -0.022344 0.021457 -0.014315 -0.017193 0.049959 -0.011056 0.069348 -0.015279 0.032358 0.030472 -0.035587 0.065970 -0.008853 0.077936 -0.038484 -0.070411 -0.078390 0.067613 -0.060020 -0.050505 0.030562 0.045479 0.051679 -0.076283 0.047209 -0.050781 0.097497 0.047679 -0.022798 0.057063 0.002323 0.039190 -0.002168 -0.069239 -0.028384 -0.027279 -0.018332 0.075212 -0.061382 0.012438 0.051408 0.050199 -0.027416 -0.004195 -0.063313 0.074071 0.031864 0.017002 0.053554 -0.028857 0.000841 -0.055692 -0.067801 -0.076012 0.034948 -0.039793 0.104050 -0.084495 -0.053985 -0.058165 -0.052420 -0.030091 0.025320 -0.051367 0.031009 0.003352 0.024562 -0.020754 0.109300 -0.018096 -0.024044 -0.079756 0.057324 0.029374 -0.007857 0.032833 -0.064749 0.074451 -0.050249 0.041597 -0.058254 -0.050934 0.028863 -0.059633 0.018606 -0.047613 -0.040899 0.048827 0.042022 0.007241 -0.068132 -0.035895 -0.095634 0.018423 -0.085802 -0.080582 0.020562 0.070296 0.014630 0.020704 0.000122 0.041524 -0.102450 0.087817 -0.049122 0.044977 0.058595 0.052460 0.045734 -0.010070 0.092126 -0.035724 -0.064075 0.002923 -0.032153 -0.002601 0.003935 -0.063685 -0.080528 -0.040102 0.020609 0.001451 0.010127 0.100820 -0.091021 -0.090339 0.051550 -0.048043 -0.027003 -0.046785 0.047897 0.008855 0.019636 -0.035620 -0.060735 0.005132 0.107260 0.090844 0.080949 -0.105930 -0.080955 -0.074745 -0.081096 -0.030038 0.041776 0.073197 -0.053328 -0.006859 0.136830 0.046977 -0.031961 0.038223 -0.042958 -0.012625 0.017734 0.052191 -0.064740 0.019310 -0.041237 0.011278 -0.054729 0.014894 0.063374 -0.040733 0.036907 0.029934 -0.104080 0.052547 0.065436 0.125560 0.002104 0.062276 -0.076683 0.018117 -0.039940 -0.014440 0.045050 0.043872 0.036106 0.083039 0.007601 -0.016480 0.065477 0.094910 -0.033806 0.005379 -0.080258 -0.021004 -0.032399 -0.051503 -0.028039 0.075446 -0.021129 0.062499 -0.025366 0.053758 0.057323 -0.020863 -0.029390 -0.123710 0.021767 0.042646 0.005223 0.108610 0.011248 -0.018716 -0.065432 -0.052881 0.057543 -0.030676 -0.009314 -0.044966 0.054477 -0.039184 -0.030321 -0.050336 0.062218 -0.063251 -0.060958 -0.008145 -0.020944 -0.008837 0.082088 -0.005475 -0.073530 0.005995 0.021295 -0.074857 0.065610 -0.086254 -0.029438 -0.015231 -0.069402 0.029749 0.021113 0.080036 -0.035851 -0.063930 -0.063940 0.112610 0.031503 0.024593 -0.029644 0.051011 -0.030387 0.024478 -0.008211 -0.065596 0.029747 -0.043745 0.011818 -0.063698 0.047764 -0.075239 -0.069731 -0.010505 0.068739 0.038904 0.070791 0.066577 -0.115180 0.063344 -0.016196 0.041004 0.055341 0.015086 -0.121140 0.076007 0.061177 -0.095572 0.049480 0.001433 0.022287 0.130650 0.056474 -0.033788 0.026054 0.044611 -0.110590 -0.047886 -0.061863 -0.079552 -0.106910 0.019786 0.068072 -0.105190 -0.078124 -0.053480 -0.025873 0.050405 0.062008 0.040415 0.022734 -0.093446 -0.033315 -0.047148 0.149400 -0.098035 -0.050679 -0.048208 -0.094155 -0.036952 -0.049544 0.026075 0.004547 -0.053032 0.047872 0.041321 -0.087455 -0.074189 -0.032166 -0.032391 0.100930 0.020861 -0.021764 -0.021155 0.011183 -0.098050 0.013834 0.031354 0.070139 -0.026247 0.017071 0.035601 0.060403 0.020598 -0.044513 -0.018620 -0.013191 0.083942 -0.039898 0.006449 0.045345 0.042098 0.031863 0.058251 0.033908 -0.020534 0.070269 0.023595 -0.007098 -0.004963 -0.055863 -0.042873 0.077772 0.085913 0.014278 -0.042202 -0.036355 -0.066972 0.035566 0.086508 0.052632 0.010633 -0.060004 0.014778 -0.011818 0.075237 0.035273 0.066493 -0.048674 -0.059131 0.017493 0.006618 -0.073504 -0.083037 -0.041129 -0.021775 0.028982 -0.017138 0.087052 -0.029309 0.056613 -0.010908 0.000955 -0.054411 -0.039234 0.078263 -0.020531 -0.015645 -0.020669 -0.039677 -0.047891 0.095047 -0.058514 -0.091264 0.020036 -0.038643 -0.006927 -0.044813 0.061330 0.001541 0.011472 -0.056610 0.070596 -0.012026 -0.008738 0.021377 -0.029466 0.058902 -0.038219 0.048124 -0.056206 0.031918 0.004178 -0.092774 -0.033763 -0.038353 0.002344 -0.051498 -0.003353 0.039635 0.049568 -0.030469 -0.017405 0.073395 0.028913 -0.005522 -0.024218 -0.018293 0.018578 -0.033989 -0.046592 0.080848 0.050049 -0.041044 0.010171 0.059890 -0.060190 0.025563 -0.105940 -0.072951 -0.000643 -0.026531 -0.001076 -0.093810 0.065258 -0.042696 -0.113480 -0.037276 0.067113 0.064659 -0.026057 0.038331 0.114100 0.037157 0.002572 -0.025504 0.006066 -0.050779 0.028885 -0.034369 -0.007221 0.005866 -0.007342 0.018240 0.000794 0.027067 0.014338 0.038500 0.019590 0.094751 -0.039655 0.094442 -0.024759 0.049852 0.040810 -0.014526 -0.012345 -0.076238 -0.009192 -0.066457 -0.045420 0.021870 0.061849 -0.019317 -0.009546 0.040083 -0.119570 0.023198 -0.095267 0.021974 -0.044006 0.011460 0.027826 -0.013378 0.016638 0.144040 0.034689 -0.012722 0.037766 0.014143 0.031552 0.000177 -0.042396 0.093897 -0.025736 -0.004529 0.027309 0.009942 0.045371 -0.019606 -0.061256 -0.020174 -0.051975 0.097292 -0.012544 -0.092542 -0.046932 -0.058097 -0.010963 0.103150 0.003073 0.024615 0.075189 0.022887 -0.009552 0.064168 -0.004782 -0.035147 -0.008928 -0.086598 0.024202 -0.070826 0.060904 -0.043029 0.027744 -0.031168 0.066891 0.094564 -0.007633 0.032176 0.042563 0.000546 -0.000438 0.034055 -0.032329 -0.135010 0.068487 0.076082 0.034073 0.073970 0.100520 -0.075943 -0.083032 -0.057092 -0.097280 -0.083844 -0.087740 0.043637 0.029179 0.062706 0.057442 0.050932 -0.047586 -0.021324 -0.045511 0.011795 -0.027362 0.042479 -0.029721 0.079450 0.000647 0.074789 0.107940 0.026946 0.018617 0.081745 0.081364 0.028026 -0.009214 -0.025276 -0.024634 0.011665 -0.008290 0.098787 -0.051555 -0.007559 0.004610 -0.087608 0.063120 0.095304 0.054601 0.044325 -0.005210 -0.079053 -0.040640 0.098908 -0.002055 0.035056 0.074710 -0.068812 -0.081052 -0.062714 0.004791 0.014717 -0.046683 -0.036424 0.013878 0.035319 -0.055669 0.059089 0.003139 -0.035094 -0.095508 -0.066783 0.041790 0.052329 -0.067121 -0.084954 0.060023 -0.032313 -0.067339 0.027884 -0.017848 0.090650 0.075783 0.061115 -0.025814 -0.062668 -0.055537 -0.055637 -0.035149 0.064639 -0.002240 0.062140 -0.076881 0.078847 -0.024434 0.067040 -0.039592 0.057102 -0.046960 -0.015630 0.056521 -0.024711 -0.055175 0.012719 -0.063190 -0.055028 0.013987 0.055461 -0.060052 -0.053231 -0.021003 -0.000623 0.046425 -0.039084 0.014485 0.018315 -0.052427 -0.016986 0.041014 -0.074741 0.063112 -0.069023 0.036050 0.051051 -0.077693 -0.028747 0.080077 0.046305 -0.074308 -0.022649 0.009137 0.013616 -0.044926 0.050886 -0.006948 -0.019906 -0.027091 0.028053 -0.050250 -0.051107 -0.037873 0.017808 -0.050020 0.062615 -0.027338 -0.023108 -0.034009 0.088419 -0.104380 -0.025494 0.027378 0.088482 0.050633 0.012384 0.090383 0.059869 0.045260 -0.007589 -0.001491 0.065552 -0.009849 0.029209 0.028690 0.048147 0.034179 -0.061026 -0.070907 -0.008805 -0.133670 0.013621 0.032519 0.018739 0.056987 0.025076 0.070622 -0.110270 -0.052332 -0.032601 -0.060823 0.049140 -0.059278 -0.038216 0.025067 0.057628 -0.032765 -0.056861 0.044779 -0.037898 -0.002164 0.029226 -0.088647 -0.003058 0.046347 0.023308 0.042631 -0.005692 0.020091 0.015264 -0.008449 0.031472 0.007848 -0.048628 0.072164 -0.027053 -0.001095 0.034292 0.075379 -0.013508 -0.028737 0.082334 0.044540 0.036409 -0.043546 0.089532 0.042413 -0.019827 -0.042140 0.034290 0.015715 0.010547 0.026197 -0.129800 -0.008227 0.021704 0.043998 -0.052966 -0.018877 0.052752 0.039618 0.044268 -0.080843 -0.054616 -0.112650 0.058451 -0.011964 0.041890 0.104270 0.087287 0.081573 -0.085540 0.060445 -0.108600 0.028305 0.018103 0.040980 0.035138 -0.006563 -0.039850 0.014211 -0.068304 0.009033 -0.010984 -0.056800 -0.097589 0.012231 0.044942 -0.072921 0.029202 -0.006633 0.079144 -0.079162 -0.040509 0.021785 -0.102290 0.053851 0.015021 -0.010687 -0.026962 -0.022186 0.043683 0.080299 0.056347 -0.104770 0.050970 0.030832 0.017199 0.025971 -0.086899 -0.021466 -0.060076 -0.022068 -0.070714 -0.019527 0.025249 -0.007731 -0.002848 -0.005914 -0.057938 0.032601 -0.033979 -0.048916 0.075132 -0.005450 -0.042011 0.010292 -0.017711 -0.033820 0.060589 0.049248 -0.079045 -0.036797 -0.060426 0.020148 0.082892 -0.043882 0.036237 -0.028877 -0.030399 -0.074185 -0.060445 -0.078219 -0.047000 0.033355 -0.003263 -0.031892 -0.109700 -0.005210 -0.019963 -0.094121 -0.125490 0.054823 0.016897 0.019686 -0.019596 0.069120 0.020045 -0.028663 -0.040008 -0.001194 0.035598 -0.031713 -0.021612 -0.040194 -0.019848 0.026781 -0.015779 0.034600 -0.033442 0.039122 -0.072212 -0.053879 -0.068441 0.006453 0.024103 0.035041 0.063245 0.042034 -0.047859 -0.042805 -0.056717 -0.035618 -0.070895 -0.053182 0.035915 -0.005237 0.027712 0.011258 -0.041517 -0.045440 0.076224 0.079355 0.068462 -0.082172 0.024197 -0.094762 0.004914 0.034376 -0.012294 -0.050519 0.031068 -0.053191 -0.024203 0.057188 -0.062696 -0.021322 0.109120 0.036994 0.030270 -0.007277 0.057003 0.024642 0.030101 0.115670 -0.070533 -0.005067 -0.014870 0.077489 -0.080673 -0.037277 -0.057738 0.004023 0.005837 0.034146 0.072713 -0.084852 -0.063228 0.008603 0.015795 -0.017858 0.015265 0.026058 -0.056377 0.023776 0.026457 0.019159 -0.016802 0.070271 0.117170 -0.055469 0.023137 0.006254 -0.097449 0.118750 -0.031044 0.026747 -0.080111 0.048245 -0.082617 -0.094458 -0.016903 0.068809 0.045111 0.005589 -0.058387 0.032659 0.097150 0.058471 -0.005931 -0.064699 0.091139 -0.033681 0.025830 0.009280 0.050967 0.094009 -0.047790 0.045049 0.033289 -0.006057 -0.061868 -0.000297 0.013259 0.072074 0.012467 0.044650 -0.057585 -0.008608 0.038216 -0.017664 0.005734 -0.078541 -0.041605 -0.091020 0.034077 0.076071 -0.054547 -0.036966 -0.027361 -0.078616 -0.041157 0.004278 -0.075465 0.064170 0.049801 0.025879 0.057928 -0.059034 -0.047686 0.007508 -0.055283 -0.062128 -0.048844 -0.060257 -0.117670 0.026296 0.043133 0.025253 -0.009288 0.029553 -0.010469 -0.016283 -0.043157 0.003768 -0.072392 0.008245 0.002861 -0.058958 0.125410 0.078636 0.077184 0.020586 0.007759 0.040658 -0.027493 -0.111860 0.041381 -0.088388 -0.037165 -0.003230 0.003772 0.030670 0.039817 0.006734 -0.048088 0.056934 -0.044715 0.071699 0.007570 -0.051671 0.121430 -0.049156 -0.043103 0.042415 -0.015883 -0.025468 -0.012303 0.009502 0.050856 0.007909 0.029518 -0.055345 0.048618 -0.038288 -0.090159 -0.085273 0.100890 0.011513 0.046509 -0.031749 0.096129 -0.031898 0.003397 0.018595 0.023877 -0.047376 -0.085177 0.016443 0.018037 -0.057569 0.016744 -0.057471 -0.066054 -0.042402 -0.064894 -0.052834 0.086953 -0.121390 0.012470 -0.116710 -0.041111 -0.021168 -0.110110 0.061433 -0.014573 0.059123 -0.031840 0.052303 -0.052656 -0.029568 0.019757 0.038487 -0.012417 -0.066652 -0.051345 -0.056197 0.004510 0.013128 0.083397 -0.075250 0.028278 0.064633 0.002140 -0.075356 -0.058563 -0.011119 0.038236 0.064577 -0.003832 0.005739 -0.015280 0.040080 0.035874 0.033120 -0.006362 -0.083264 0.126310 0.061015 -0.030030 -0.042681 -0.099798 0.062351 0.029181 -0.073174 -0.089131 0.070476 -0.024163 -0.054723 0.064682 -0.084246 0.048174 -0.042508 -0.076903 0.061839 -0.129330 0.041645 -0.021538 0.004440 0.058551 0.097752 0.056195 -0.008879 -0.029068 0.056773 -0.017628 0.013094 -0.040034 0.022008 -0.025420 -0.031674 -0.032929 0.028118 -0.030421 0.078075 -0.041684 0.025851 -0.028629 0.031399 0.055257 -0.042330 -0.030119 0.072086 0.083897 0.016561 0.027326 -0.081024 0.015066 -0.011728 0.027918 -0.000884 0.004553 -0.018458 0.073021 0.105970 0.021521 -0.004418 0.030623 -0.060313 -0.113400 0.046088 -0.040700 -0.008934 -0.012855 -0.092747 -0.012192 -0.114960 -0.037972 -0.125630 -0.009851 0.074999 -0.011958 0.053348 0.001476 -0.065379 0.056782 0.017342 0.011417 0.040340 0.001638 -0.010831 -0.027207 -0.018487 -0.016346 0.078943 -0.046219 0.027835 -0.053264 -0.058743 0.041989 -0.021170 0.042030 -0.041040 -0.000800 -0.127340 -0.066203 0.035405 -0.018134 -0.023094 0.044829 0.075494 0.035793 0.045122 -0.023496 0.068421 0.009298 0.058221 0.077065 -0.052882 -0.069703 0.077473 -0.055287 -0.060678 -0.001986 0.023967 0.028243 -0.021289 -0.098788 -0.020391 -0.012528 0.056169 0.085484 0.071501 -0.012012 -0.037355 0.028028 0.040196 -0.067582 -0.028449 -0.003918 -0.090524 -0.078328 -0.050793 0.053402 0.040349 -0.063896 0.097048 0.052582 -0.032217 0.055359 -0.077272 -0.100060 0.014931 -0.032927 -0.001727 -0.033058 -0.037740 -0.045933 -0.076004 -0.059576 -0.000260 0.033832 0.105850 -0.054402 -0.062953 -0.030292 0.047553 -0.058472 0.042863 0.020124 -0.000111 -0.028177 -0.042241 -0.065141 0.065729 -0.070779 -0.029162 -0.024637 -0.022124 0.036595 -0.038237 0.004432 -0.023649 0.085907 0.033207 0.032398 -0.031443 0.055034 0.047739 -0.050673 -0.057991 0.042380 0.002813 0.095665 -0.105390 0.059754 0.028739 0.046256 0.068411 0.028897 0.050459 -0.031595 -0.080585 0.060112 -0.028695 -0.083682 0.130640 0.098454 -0.071860 0.053505 -0.089878 0.045302 0.006802 0.014367 0.051974 0.010124 0.037209 -0.068629 -0.085445 -0.005878 -0.056302 -0.012160 0.058773 -0.075586 -0.011469 -0.051663 -0.027681 -0.049624 0.048720 0.068949 0.021193 -0.002932 0.046133 0.016401 -0.049259 -0.076899 0.051724 0.030309 0.083156 -0.022570 -0.073205 0.004267 -0.017447 -0.051604 0.056458 0.070874 -0.013757 -0.019003 -0.022627 0.031646 0.053013 -0.112420 -0.055091 -0.067988 0.043858 -0.024413 -0.028713 0.014947 0.031654 0.003909 0.009280 -0.059824 -0.010099 0.069892 -0.060348 -0.009234 0.022631 0.025529 -0.072662 -0.091718 -0.009544 0.023178 0.056941 -0.069486 -0.041371 0.095007 -0.027299 0.049722 0.046219 -0.009698 -0.023203 -0.011173 -0.021925 0.021489 -0.077991 -0.047007 0.141500 0.075992 0.000332 -0.130370 0.038957 0.029604 -0.057107 -0.050157 -0.028804 0.046564 -0.099925 -0.015881 -0.040620 0.089305 -0.098279 -0.028544 0.020113 -0.045929 0.035649 0.002151 -0.069057 -0.063757 0.052717 0.053465 -0.015962 0.021463 -0.018677 0.000048 -0.073932 0.024848 -0.012278 -0.045574 0.047808 -0.012044 0.018234 -0.037860 0.049123 -0.117940 0.055785 -0.006075 0.082985 0.023095 0.101530 -0.090708 -0.024684 0.001597 0.002733 0.071174 0.032860 -0.080874 -0.021979 0.013717 -0.036598 0.057825 -0.061821 0.071363 0.120150 0.038801 -0.085482 -0.005705 0.001642 -0.051319 -0.058586 0.039975 -0.018214 -0.075852 0.087478 -0.022303 0.001468 -0.075893 -0.112520 -0.032159 -0.053256 -0.028652 -0.032477 0.011853 0.043004 0.003740 0.002427 -0.005304 -0.051559 -0.071229 0.041038 0.009384 -0.036389 0.033212 0.038565 0.006350 0.120160 0.037259 0.047848 0.039693 -0.035025 0.097876 0.062839 0.088736 -0.044794 0.075755 -0.044650 0.009250 -0.037190 0.022666 -0.041669 0.004664 0.023504 0.088572 0.051901 -0.026886 0.035047 -0.026230 0.016044 -0.066483 0.064203 -0.071354 -0.040947 0.049556 -0.056684 -0.063202 -0.039696 -0.039614 -0.076269 -0.009373 -0.124330 -0.043703 0.076468 0.059151 -0.033918 0.006640 0.035048 -0.039441 -0.053753 0.017719 0.042736 -0.017481 -0.007357 -0.029512 0.033607 -0.013442 -0.018015 -0.049044 0.104610 -0.003945 -0.053401 -0.048529 -0.037743 0.019332 -0.087642 -0.001531 -0.078810 0.040232 -0.099110 0.039595 0.002299 -0.017010 0.030024 -0.056902 -0.061478 -0.085030 0.105050 -0.037574 0.053952 -0.081162 0.019089 -0.050604 0.042480 -0.008248 0.050622 -0.001621 -0.051571 0.029964 -0.110070 -0.030954 -0.002016 0.032510 0.098149 0.034309 0.043266 0.002968 0.018506 0.008604 -0.091424 0.050650 -0.026974 0.049042 0.085836 -0.029738 -0.005586 0.020313 0.038766 0.004835 -0.056539 0.043271 0.026145 -0.053927 0.082599 -0.085490 -0.081201 -0.010984 0.077397 -0.027329 0.009936 0.001453 0.017930 0.007674 -0.044749 0.073770 0.036211 0.053899 0.021246 0.056677 -0.079340 0.055019 -0.036164 0.018668 -0.012098 -0.010965 -0.032306 0.013019 -0.030513 0.034483 0.081773 -0.004677 -0.093472 0.014438 -0.030601 -0.041680 0.099383 -0.072713 0.005136 -0.109950 0.061469 -0.003007 0.034935 0.060677 0.043580 -0.024579 -0.023045 -0.054322 -0.066710 -0.048614 -0.072218 -0.004759 -0.029195 0.047398 0.110080 -0.054960 -0.101660 0.026017 -0.042380 0.048929 -0.015037 0.047208 0.042695 0.066577 -0.031355 -0.061430 -0.033947 -0.036952 -0.004998 0.003600 0.022493 -0.050372 -0.005956 -0.040605 0.055227 -0.088380 0.049162 -0.037325 0.021715 0.053420 -0.028056 -0.000808 -0.136590 0.104110 0.106930 -0.023749 0.055450 -0.037600 0.017326 -0.024816 0.041560 0.012826 0.051299 -0.050223 0.041920 -0.005430 -0.062128 0.070365 -0.013220 -0.073597 -0.078580 -0.019801 0.007333 -0.071210 -0.050758 -0.045871 -0.035898 -0.008303 -0.013193 0.019661 -0.032857 0.083005 0.115200 0.049571 0.055098 -0.039539 0.057321 0.050266 0.006873 -0.016728 -0.042629 -0.002126 0.008951 0.021570 0.072391 0.022658 0.033175 0.007522 0.061974 -0.043315 0.069237 -0.082144 0.007934 0.042730 -0.057066 -0.084234 -0.014924 0.064033 -0.016112 -0.057277 -0.102710 -0.085635 -0.079132 -0.004812 0.077453 0.065290 -0.062185 0.017576 -0.083567 -0.002525 0.001995 -0.097320 -0.017533 0.027725 -0.101710 -0.027295 0.091614 0.064362 0.000518 0.059402 -0.011059 -0.031914 0.004046 -0.017490 -0.022859 0.063606 0.023042 -0.106510 0.047161 0.080904 0.011008 0.107630 -0.020069 -0.026347 0.046671 0.047770 0.014099 0.009996 0.078795 -0.027090 -0.030683 -0.070866 -0.016278 0.034177 0.070399 -0.046200 -0.082689 0.003288 0.031606 -0.007225 0.011000 -0.041731 -0.028185 0.003142 0.091709 -0.009837 -0.013119 -0.013404 -0.015408 0.027511 0.041329 0.081351 0.030786 -0.007961 0.006873 -0.000769 0.030917 -0.093103 0.009117 0.017584 0.092679 -0.001039 -0.042850 -0.006994 0.024442 -0.029772 -0.011984 -0.008795 -0.034836 -0.057437 0.114410 0.004406 0.062161 -0.006996 0.053996 -0.032478 0.034984 0.055947 -0.048343 -0.001903 -0.077601 0.029325 0.042193 0.001382 -0.037189 0.009394 0.020634 -0.073967 -0.029565 0.021673 -0.019590 0.057687 -0.129510 -0.084578 -0.031723 0.031179 -0.046481 -0.029030 0.031408 -0.033128 0.091227 -0.014004 -0.074040 0.094244 -0.013188 -0.060283 -0.021783 -0.049058 -0.007866 0.025042 0.011270 -0.006706 -0.086471 0.050019 -0.045411 -0.019196 0.000892 0.049938 -0.043670 -0.035569 0.071586 -0.017404 -0.067147 -0.065527 -0.034389 0.009228 -0.035498 -0.053933 -0.085920 -0.030312 0.065860 -0.020737 0.087215 0.046629 -0.016945 0.022366 0.053754 0.038411 0.056115 0.023989 -0.006595 -0.031948 0.064319 0.046721 0.114900 -0.049099 0.037380 -0.105780 -0.019169 -0.003100 -0.003861 -0.078484 -0.068311 -0.007313 0.070552 -0.040845 -0.092895 0.060730 -0.076654 -0.021361 0.071206 0.029762 -0.051066 0.053515 0.071108 0.042967 -0.040073 -0.083211 -0.057474 -0.021814 -0.063027 -0.049712 0.105380 0.034388 0.024420 -0.000872 -0.022797 0.071098 -0.107360 0.006537 -0.116810 0.091403 0.021449 -0.006281 -0.048492 -0.041952 -0.039587 -0.034640 -0.054236 0.164860 -0.041704 -0.029252 0.062702 0.031464 0.132420 0.010331 -0.019736 0.111790 0.082721 -0.004621 0.013305 0.045194 0.004659 0.022327 0.020322 -0.036300 0.053487 0.004834 -0.112910 -0.070757 0.106840 -0.048562 0.011775 0.020866 -0.065851 0.004686 -0.022892 -0.050493 -0.108140 -0.050298 0.013995 -0.053565 -0.068513 0.007653 0.012564 0.061843 -0.066430 -0.037208 0.059952 0.046447 0.026687 0.112690 0.021372 -0.058156 0.047165 0.013780 0.004563 -0.082508 0.110750 -0.052286 0.045079 0.102830 0.032640 0.149490 0.003316 -0.006569 -0.027016 0.020588 0.044635 0.011871 0.060333 0.048091 -0.116730 0.009444 0.061537 0.034588 0.004416 -0.044835 -0.038302 0.000598 0.104330 -0.079257 0.063914 -0.017010 -0.029366 -0.026016 -0.000927 -0.010482 0.045608 -0.016856 -0.032020 0.013029 -0.014532 0.058780 -0.037091 -0.004342 -0.054808 0.002003 0.039618 -0.068799 -0.024192 -0.062177 0.080354 -0.078650 -0.094973 -0.027558 -0.073787 0.067487 0.018297 -0.015403 -0.110400 -0.131540 -0.063711 -0.015493 -0.066204 0.049438 0.069056 0.091738 -0.022169 0.017460 -0.045176 0.085119 0.042569 0.070411 0.075025 -0.024803 0.030451 -0.000601 0.012704 -0.090535 0.090899 -0.030603 0.060323 0.046734 0.057486 0.010274 -0.043558 -0.015278 -0.019468 0.075858 0.016940 -0.067624 -0.016355 0.074269 -0.044743 0.031393 0.019787 -0.019103 -0.070151 0.049883 0.018860 -0.038671 0.036252 0.030652 0.055407 0.071726 0.021906 -0.002786 -0.017698 0.006829 -0.000146 0.049148 0.007092 0.092056 0.057457 0.047624 -0.047684 0.069286 0.041756 0.039858 -0.001702 -0.018476 -0.073196 0.015327 -0.093732 -0.057040 0.016874 -0.022226 -0.059169 -0.008421 0.049677 0.056359 -0.096085 -0.023140 0.005699 0.028616 -0.092232 0.028791 -0.042417 0.059670 -0.046209 0.080238 -0.080724 -0.013376 0.032269 -0.036441 -0.029755 0.072718 0.042969 0.001224 0.012084 -0.000589 0.095434 0.048905 0.030992 0.072880 0.083043 0.035599 -0.096840 -0.037294 0.008450 -0.026449 0.077972 0.060041 0.075519 0.076154 -0.073588 0.045247 -0.019275 -0.047247 0.030707 0.078938 -0.069891 0.027076 -0.057818 0.049934 -0.025265 -0.055424 -0.064792 0.015173 -0.036692 0.042555 -0.026973 -0.027499 0.059980 -0.030531 -0.095508 0.049312 -0.024058 0.029226 0.059407 -0.007626 -0.074157 0.018682 -0.004380 0.096964 -0.061303 0.062997 -0.037836 0.001359 -0.077606 0.092264 -0.046748 0.014040 0.007208 0.066241 0.096710 -0.019602 0.006005 0.056720 -0.016431 -0.013028 0.013463 -0.080582 0.053801 0.019900 0.046327 0.033917 -0.043162 0.043697 -0.005146 -0.039227 -0.005560 0.004308 -0.019663 -0.064745 -0.047493 -0.004076 -0.056143 -0.046122 0.001161 0.052942 0.052914 0.079653 0.021513 -0.063347 -0.053018 -0.054880 0.048906 0.081184 -0.083964 -0.017280 0.059193 0.044823 -0.073363 -0.055742 -0.004225 -0.002640 0.049434 0.041851 -0.019643 -0.110080 -0.050820 0.036631 -0.043366 0.059436 0.067190 0.005835 0.002319 0.063068 -0.015159 -0.034322 -0.044140 -0.062067 -0.083994 0.069428 -0.032861 0.011739 -0.022103 -0.021990 -0.056220 -0.080196 -0.053897 -0.024516 0.026955 -0.045273 0.059354 0.036119 0.060504 0.054076 -0.002463 0.042052 0.033821 0.060903 -0.089237 -0.061734 -0.098591 0.027167 0.013691 -0.075918 -0.028193 -0.080426 -0.003912 
