 0.0000 -0.0000 -0.0452 0.0946 -0.1266 0.0923 -0.0547 0.0829 0.0000 0.0014 0.0302 -0.0031 0.0593 -0.0814 -0.0213 -0.0321 0.0000 -0.0122 0.0000 0.0469 -0.0590 -0.0980 -0.0534 -0.1164 -0.0000 -0.0437 0.0000 0.0237 -0.0000 0.1321 -0.0065 0.0000 0.0000 -0.1520 -0.1305 -0.1557 0.1251 -0.0000 0.0000 -0.0366 0.0000 -0.0000 0.1106 0.0000 -0.0000 0.0554 -0.1152 0.0000 -0.0112 0.0270 -0.1665 -0.0922 0.0000 -0.0667 0.1663 0.1527 -0.0261 -0.1506 0.0000 0.0000 -0.1373 0.1078 0.0944 0.1507 -0.1273 -0.0338 -0.0000 0.0000 -0.1602 -0.1302 0.0886 -0.0000 0.0603 -0.0140 0.0500 0.0199 0.0511 0.0867 -0.1734 0.0900 -0.1326 -0.1398 0.0000 -0.0413 0.0978 -0.0000 -0.1563 0.1359 -0.0451 0.0945 0.0000 -0.1498 0.0000 0.0478 -0.1184 -0.0923 0.0682 0.0372 -0.0745 -0.0000 0.0000 -0.1021 0.0502 0.0450 -0.0000 -0.2069 0.1275 -0.0483 0.0934 0.0000 0.0031 0.0000 0.1345 -0.1536 0.0158 0.0790 0.0734 0.0669 -0.1352 -0.1001 -0.0000 -0.0335 0.1417 -0.0000 0.1029 -0.0000 -0.0000 -0.0000 0.0259 0.0857 -0.0000 0.0000 0.0000 0.0585 0.0528 0.1337 0.0847 -0.0047 -0.1773 -0.1997 -0.0000 -0.0680 -0.1486 0.0228 -0.0000 0.0000 0.0719 0.0464 0.0000 0.0000 0
