-2.6664e-02 -4.1825e-02 8.4681e-02 -3.9806e-02 -5.4361e-02 2.5683e-02 6.0185e-02 9.0934e-02 -3.9958e-02 -1.2291e-02 -3.3377e-02 -2.6653e-02 -2.8451e-02 1.2859e-03 4.4346e-02 8.3517e-02 -3.6959e-02 -2.4767e-02 3.9787e-02 1.0272e-01 4.2794e-02 3.2146e-02 -2.4417e-02 4.2750e-02 -1.8128e-02 -3.1939e-02 -6.9390e-02 -2.7019e-03 -8.4604e-02 4.1777e-02 -1.0805e-01 -2.3862e-02 -1.5442e-02 -6.8612e-02 7.5517e-03 -6.4110e-02 -3.9832e-02 -3.3857e-02 4.5535e-02 -2.8798e-02 3.4121e-02 5.9064e-02 5.5901e-02 -2.7316e-02 1.3637e-02 -6.5563e-02 1.1646e-01 -1.7140e-02 2.4751e-02 -5.1180e-02 -3.1722e-02 6.7462e-03 6.2201e-03 1.4620e-02 -2.0814e-03 3.0520e-02 -9.0257e-02 2.6654e-02 4.7409e-02 7.4598e-02 5.7736e-02 -4.7136e-02 -3.7051e-02 5.1409e-02 -6.9797e-02 4.5393e-02 -5.5408e-02 -7.2039e-02 -5.5007e-03 -8.8105e-02 -4.8595e-02 1.6580e-03 2.9586e-02 4.3313e-02 -3.8375e-02 2.5127e-03 7.5243e-02 -3.8321e-02 -5.3478e-02 9.1552e-02 -5.5935e-03 1.4711e-02 -5.7466e-02 -3.3981e-02 -2.1627e-02 1.9601e-02 3.2932e-02 3.8273e-02 1.6211e-02 -1.6098e-02 -5.6419e-02 -8.6041e-02 2.7533e-02 8.1840e-02 8.7177e-02 3.9068e-02 -2.3507e-02 2.5835e-02 2.4446e-03 1.2164e-02 8.4387e-03 4.1960e-02 -8.6540e-03 -6.4730e-03 4.9856e-02 8.7146e-03 -6.2310e-02 3.7519e-02 1.8913e-02 -3.0604e-02 3.1572e-02 -9.1623e-02 3.2598e-02 -4.2502e-02 4.3975e-02 1.2394e-02 1.6480e-02 3.9936e-02 -6.3750e-02 -6.3932e-02 -7.8199e-02 -2.5408e-02 -4.7545e-02 -2.8844e-02 -2.2399e-02 3.3234e-02 6.0195e-02 6.0834e-02 4.7511e-03 -9.1166e-03 -2.4751e-02 4.2069e-02 -3.7754e-02 4.8407e-04 2.7165e-02 9.7983e-03 2.0537e-02 1.1439e-04 -9.1266e-03 -2.5691e-02 -2.9684e-02 1.6990e-02 -1.4074e-02 -3.9395e-02 -1.1615e-02 -2.2086e-02 -3.3671e-02 -8.7621e-03 -3.3068e-02 -2.5263e-02 -4.3924e-02 9.6760e-02 1.2058e-02 1.2944e-02 -2.6291e-02 4.4878e-02 -3.8686e-02 -2.1650e-02 4.3407e-02 -2.6774e-02 -1.1828e-02 -1.1353e-02 2.5382e-02 8.7266e-02 3.9252e-02 -8.4135e-03 -3.8617e-02 -4.8269e-03 7.0296e-02 -2.8470e-02 -2.5115e-02 6.5884e-02 -1.7816e-02 2.4078e-02 3.7013e-02 7.5879e-02 8.1636e-02 -4.3073e-02 -6.3276e-03 -5.8065e-02 1.9449e-03 -2.2582e-02 -5.4906e-02 4.0834e-02 -3.3084e-02 -2.2146e-02 -1.3730e-01 1.0671e-02 3.0506e-02 -4.6924e-02 -1.3631e-02 -7.6148e-02 -5.0916e-02 2.8453e-02 -2.3419e-03 1.1413e-02 -6.6453e-02 -2.8341e-02 1.7340e-02 -2.0179e-03 1.0565e-02 2.6189e-02 -5.0667e-02 5.3870e-03 -4.1165e-02 -7.1770e-02 -1.8450e-02 -8.1667e-03 3.4349e-02 -4.3975e-02 -5.4012e-02 -5.0333e-02 5.2433e-02 -3.3753e-02 -1.0069e-01 -7.3535e-02 2.6062e-02 -3.5659e-03 -4.7059e-02 -2.7903e-02 -5.2266e-02 9.7674e-03 -3.1217e-02 -4.8188e-02 4.8077e-03 -6.2265e-03 6.0632e-02 -2.8469e-02 -1.7287e-02 4.1273e-02 4.2520e-02 -1.8086e-02 1.5755e-02 -6.6811e-02 6.2210e-03 6.8756e-04 1.3373e-02 5.1472e-02 1.9317e-02 1.9225e-02 2.3537e-02 2.4713e-02 8.1022e-03 -6.1322e-03 4.3957e-02 1.3711e-02 -4.5628e-02 -9.8385e-02 -2.2774e-02 4.1216e-02 -1.9927e-02 -7.3694e-02 7.8290e-03 -4.7548e-03 -3.2258e-02 3.4737e-02 -8.5869e-03 -7.9834e-02 3.4675e-02 4.9504e-03 -1.1491e-02 2.5241e-02 -3.0375e-02 2.4692e-02 -1.1126e-01 3.7081e-02 -1.5080e-02 6.4511e-02 -1.5514e-02 -1.0383e-02 1.2364e-02 -1.7813e-02 -2.3457e-03 -1.2517e-02 -3.8730e-02 -1.8804e-02 3.3164e-02 3.1211e-02 1.1411e-02 -3.4521e-02 1.1981e-02 -1.5957e-03 4.9361e-02 2.6290e-03 -5.3134e-02 5.7891e-02 -5.4571e-02 7.5963e-02 2.2416e-02 5.3697e-02 -6.4857e-02 5.5968e-03 5.2101e-03 -5.8574e-02 1.3341e-02 -3.5472e-03 2.0724e-02 -5.3590e-02 3.2490e-03 3.3132e-02 -2.2733e-02 -6.2560e-02 4.3215e-02 -2.0603e-02 -4.0641e-03 -4.4817e-02 7.9047e-02 6.0406e-03 -4.0378e-02 6.6560e-02 -5.6506e-03 -8.0727e-03 -2.8181e-02 -8.2587e-02 -7.4368e-02 -7.3233e-03 2.4974e-02 2.4570e-02 5.4218e-02 3.9695e-02 -3.1871e-03 1.4997e-02 1.0183e-02 -3.3236e-02 5.8480e-02 -4.6120e-02 2.0199e-02 2.0300e-02 9.4478e-02 -4.1461e-02 -3.8525e-02 8.7006e-02 5.0448e-02 3.5810e-02 4.6210e-02 1.9282e-03 1.8351e-02 -6.4511e-02 3.0929e-02 -3.9962e-03 8.0004e-02 -7.6900e-02 -5.8941e-02 6.0418e-02 -8.3964e-02 -8.3466e-02 -7.2542e-02 1.6176e-03 3.4895e-03 -5.5422e-02 -6.7132e-02 -8.6969e-02 1.8457e-02 -3.9873e-02 2.0423e-03 -2.5271e-02 -1.1344e-01 3.6504e-02 5.9707e-02 -2.6478e-02 -1.1358e-01 -5.1998e-02 -1.7403e-02 2.3410e-02 -6.6918e-02 -6.6063e-02 1.2770e-02 -5.0998e-02 -5.8069e-02 -1.4145e-02 -9.4019e-03 -1.0522e-02 -2.5997e-02 8.5862e-03 2.5617e-03 4.7642e-02 2.2405e-02 -8.6871e-04 -3.4160e-02 -6.1830e-02 4.2948e-02 1.1638e-03 -6.6122e-02 1.0363e-01 1.1064e-02 -2.8286e-02 -5.6724e-02 2.7833e-02 -7.0708e-02 4.2270e-02 -8.9265e-02 1.0537e-01 -2.6698e-02 3.6298e-02 1.0631e-02 -7.1840e-02 4.7162e-02 -7.0491e-02 -3.4903e-02 8.2383e-03 4.9023e-02 -2.3157e-02 -2.3263e-02 -7.6280e-02 -6.0006e-02 1.4589e-02 -1.1831e-02 -2.7742e-02 1.7325e-02 -4.2854e-02 -3.7587e-02 -5.2080e-02 9.4820e-03 1.1744e-02 1.1327e-02 -1.8026e-02 -5.1852e-02 -6.5114e-02 -2.4553e-02 -4.8600e-02 -1.2609e-02 -4.3939e-03 2.8608e-02 -3.3173e-02 2.4736e-02 1.8194e-03 -6.9340e-03 5.7423e-02 -2.5052e-02 -3.3506e-02 -4.1601e-02 1.0092e-02 -4.0641e-03 1.0743e-02 -4.2210e-02 5.5036e-02 2.5788e-02 -7.3212e-03 1.4693e-03 3.2811e-02 1.4671e-02 -7.4767e-03 -2.4611e-02 4.6321e-02 3.9596e-02 4.7900e-03 8.5953e-02 2.9566e-02 -8.4263e-02 -8.7792e-02 3.8735e-02 7.3688e-02 -9.4868e-02 -2.6227e-02 -5.9875e-02 -8.9875e-03 8.9675e-03 -3.3046e-02 8.2954e-03 1.1601e-01 6.0407e-02 5.8326e-02 6.2796e-02 4.9388e-02 5.9440e-02 2.2699e-04 1.8250e-02 -3.2069e-02 5.6387e-02 4.2965e-02 -7.6465e-02 1.5040e-02 -2.3284e-02 3.8312e-02 -8.4498e-02 1.0640e-02 1.8318e-02 -1.7180e-02 2.1606e-02 5.4358e-04 3.5939e-02 -1.9579e-02 -8.5393e-02 -3.4395e-03 2.5055e-02 -4.2242e-03 3.0031e-02 5.6272e-02 4.7519e-02 -2.6367e-02 -4.0457e-02 1.3739e-02 -4.4828e-02 -1.7286e-02 -9.6965e-02 -1.5597e-02 -5.4113e-02 -3.1184e-02 -8.4459e-02 -7.6359e-02 -4.1703e-02 5.5799e-02 -1.8661e-03 1.9806e-03 -8.5018e-02 5.7764e-02 -8.7434e-03 -5.6659e-02 4.8350e-02 -1.9825e-02 5.6662e-02 -3.6476e-02 -2.7205e-02 -5.7005e-02 4.2099e-03 -2.3809e-02 -1.6748e-02 1.4381e-02 -3.2615e-02 3.4823e-03 -4.0082e-02 -5.2873e-02 1.8336e-02 -6.7972e-02 4.2045e-02 5.2696e-02 -2.8290e-02 -1.9606e-02 2.1599e-02 -5.0987e-02 -1.4137e-02 -3.5101e-02 -3.6276e-03 -5.1597e-02 6.8881e-03 -7.2150e-02 -1.6357e-02 1.1483e-02 -3.9140e-02 -4.1456e-02 1.7510e-02 6.5869e-03 5.8358e-02 6.3471e-02 1.8967e-02 4.8284e-02 -6.8584e-03 1.4220e-02 1.3633e-02 -9.1833e-03 7.0368e-02 6.1469e-02 4.5624e-02 -5.7608e-02 -2.8010e-02 -1.1953e-02 3.0116e-02 -4.5787e-02 -4.3977e-02 -7.8262e-03 -1.0917e-02 4.3084e-03 9.6721e-03 -3.4421e-02 2.6563e-02 2.7216e-03 -1.5090e-02 -9.3032e-02 1.5613e-02 -1.3559e-02 -3.4286e-02 -4.2196e-02 -3.7065e-02 -5.1128e-02 5.3163e-03 3.2183e-02 -1.7733e-02 -3.6200e-02 3.6619e-02 2.2703e-02 8.4635e-03 -5.1313e-02 1.8738e-02 -6.3176e-02 -6.0281e-02 -7.1658e-02 3.6555e-02 5.5577e-02 -5.0254e-02 3.9601e-02 6.2637e-02 1.1748e-01 7.5889e-02 -1.6912e-03 7.5857e-02 5.8343e-02 5.5300e-02 -6.7729e-02 -3.5648e-02 6.7197e-02 8.3123e-02 5.1879e-02 1.3047e-02 3.5385e-02 -3.8211e-02 1.0895e-02 2.8064e-02 -8.8953e-02 -8.8114e-03 3.9622e-02 -3.7067e-02 4.1184e-02 3.7795e-02 2.5959e-02 -3.9651e-02 -5.1020e-02 -6.3784e-02 8.2075e-02 7.7056e-02 4.1449e-02 -1.1389e-02 -4.6571e-03 -2.0091e-02 -1.6117e-02 2.8354e-03 4.5448e-02 -6.8853e-02 -1.0349e-02 -5.6438e-02 -8.3757e-02 -4.7330e-02 -1.1524e-01 3.5270e-02 2.7233e-02 -6.6642e-02 -4.8507e-02 6.6359e-03 1.6640e-02 7.4925e-02 1.2766e-03 -2.2540e-02 -1.7181e-03 -3.2727e-02 -1.9845e-02 2.2549e-02 4.7034e-02 4.2723e-02 5.3187e-02 -4.3949e-02 -3.7828e-02 -1.8290e-02 4.9007e-02 -1.0666e-01 -9.0558e-02 2.2272e-03 -6.9333e-02 5.3552e-02 -7.2216e-04 -5.1494e-02 3.4272e-02 2.5379e-02 6.0237e-02 -4.9318e-05 -2.2473e-02 4.9757e-02 9.3209e-02 -2.3363e-02 4.9523e-02 -1.3010e-02 -3.6320e-02 1.6214e-02 -2.6869e-02 -5.1022e-02 -4.0972e-02 -1.3423e-02 -2.5248e-02 3.2230e-02 -1.5895e-02 3.4371e-02 1.6969e-02 4.3079e-02 -2.7921e-02 3.0453e-03 4.6757e-02 8.8457e-02 -7.6905e-03 -4.6617e-02 -1.0423e-02 1.7057e-02 -5.2996e-03 2.1407e-02 -9.0511e-03 -2.8891e-02 -1.7446e-02 -6.0563e-02 -1.0943e-03 -3.2426e-02 -3.4666e-02 -5.4334e-02 -1.3759e-02 -1.8429e-02 -7.9356e-02 -4.4901e-02 -7.5479e-02 3.6227e-02 7.8115e-03 -3.0048e-02 7.4536e-03 -7.8032e-03 2.1913e-02 -2.9939e-02 -4.1767e-02 -1.4230e-02 6.6192e-02 -7.1087e-02 7.6234e-03 1.0134e-02 -7.9610e-03 -3.1847e-03 1.0649e-02 -2.9881e-02 4.1612e-04 -3.5791e-02 -7.5468e-02 -4.1721e-03 -4.1202e-02 2.5688e-02 2.3026e-02 3.8838e-02 -2.3394e-02 4.5048e-02 1.0470e-01 6.2828e-02 5.8342e-02 7.5637e-02 7.5714e-03 4.3527e-02 6.6127e-02 -1.3217e-02 6.9407e-03 9.4382e-03 5.7563e-02 1.4056e-02 -1.1880e-02 -4.3044e-02 4.9168e-02 -1.5717e-02 -1.8838e-02 7.2564e-02 -4.1339e-02 -2.5696e-02 -1.2490e-02 -4.6205e-02 8.0227e-02 5.4047e-03 4.5729e-02 6.8080e-02 1.4784e-01 1.3306e-01 2.0273e-01 3.4283e-02 2.1881e-02 -1.3600e-02 -2.2666e-02 1.1512e-02 3.7687e-02 -5.2393e-02 7.2060e-02 -1.2953e-02 -5.8852e-02 -4.6810e-02 3.6894e-02 7.6277e-02 6.8433e-02 2.3629e-02 -5.3629e-02 9.9022e-03 4.0208e-02 -1.0760e-02 -1.8442e-02 1.1727e-02 -5.0595e-03 -1.9197e-02 1.8395e-02 -6.0552e-02 3.2773e-02 4.9557e-02 4.9021e-02 6.1730e-02 9.1438e-03 -5.2459e-02 1.8086e-02 -1.7217e-02 4.9249e-02 1.5745e-02 -5.2118e-02 -3.2951e-02 4.7921e-02 -5.0091e-02 -3.6791e-02 1.8314e-02 -6.8380e-04 -1.3515e-02 -2.7949e-02 -1.1035e-02 -8.3584e-02 -7.4121e-02 -7.0133e-02 7.3274e-02 7.7786e-02 1.5310e-02 -2.5876e-02 4.8357e-02 -3.0288e-02 2.2230e-02 -4.7420e-02 -7.8025e-02 -6.4756e-02 -4.5991e-02 -8.1223e-02 9.3174e-03 -4.8526e-02 1.2135e-02 2.3607e-02 -2.4511e-02 3.7927e-02 3.3583e-02 6.1845e-02 -5.3932e-04 2.7719e-02 -2.9177e-03 6.8385e-02 -9.1331e-03 2.0449e-02 2.6102e-02 1.1441e-02 5.1377e-02 -2.3676e-02 8.7982e-03 6.0144e-02 -3.9260e-02 -1.0267e-01 -2.3576e-02 -9.3721e-03 -2.5260e-02 -8.2758e-02 -5.5026e-02 -3.8874e-02 -4.8281e-02 1.1291e-02 -1.2150e-02 -5.0512e-02 -4.0751e-02 -3.7555e-02 7.2761e-02 4.3810e-02 5.1549e-02 1.5591e-02 -9.6156e-03 1.9938e-02 2.6352e-02 -8.6001e-02 -3.2153e-02 -6.4359e-02 -6.9476e-02 -2.8844e-02 -1.8475e-02 -4.9566e-02 3.5771e-02 6.3018e-03 -1.5211e-03 -2.9879e-02 -6.3523e-02 1.0411e-03 5.9545e-03 -8.0119e-02 5.4828e-03 -3.8702e-02 3.2806e-02 -8.4218e-03 -6.8382e-02 -2.3242e-02 -5.3053e-02 -4.9449e-04 -5.3867e-02 5.5834e-02 -6.7183e-03 1.3440e-01 1.2540e-01 7.8944e-02 -1.0693e-04 -9.0830e-03 3.0057e-02 4.6061e-02 -1.5220e-02 -2.7596e-02 8.1029e-02 1.1876e-02 1.7148e-02 1.6155e-02 2.8893e-02 -4.2762e-02 -9.1423e-02 1.9826e-02 5.2848e-02 5.5872e-02 -4.0518e-02 2.6172e-02 -3.9219e-02 3.9512e-02 6.0210e-02 1.0801e-03 9.8230e-03 7.1157e-02 1.3473e-01 4.0932e-02 -5.2618e-02 -6.1640e-02 -9.1821e-02 -5.3451e-02 -2.9074e-02 2.2219e-02 -4.6329e-02 -4.7537e-02 -2.1858e-03 2.3960e-02 6.2199e-02 2.1593e-02 6.8008e-02 1.6952e-02 -4.4421e-02 -5.8703e-02 -4.5788e-02 3.6510e-02 5.5298e-02 4.9872e-02 -6.6998e-02 -6.3082e-02 9.2966e-03 -4.8359e-02 -9.8895e-03 -4.2035e-02 -3.2789e-02 -3.7721e-02 -2.3860e-03 3.6034e-02 -7.2097e-02 9.3982e-03 -9.9185e-03 2.3990e-02 2.2150e-02 1.9960e-02 5.8284e-02 2.8556e-02 -9.9058e-02 4.1823e-02 -4.6452e-02 -1.4969e-03 -2.1467e-02 4.9082e-02 -5.0268e-02 -1.0298e-01 -3.6103e-02 -1.6297e-02 2.1738e-02 3.6417e-02 2.8297e-02 -1.7131e-02 -3.7380e-02 -1.7174e-02 -6.9981e-02 -3.7753e-02 -7.4547e-02 -7.4801e-04 -2.4385e-04 3.9366e-02 -5.0759e-02 4.9974e-02 -3.9188e-02 6.4250e-03 3.3942e-02 2.8076e-02 4.7368e-03 1.1413e-02 -5.2662e-02 1.6930e-02 3.6929e-02 -1.2289e-02 4.7792e-02 7.4641e-02 -6.2895e-02 -6.2097e-02 4.4926e-02 6.8857e-03 2.4297e-02 -3.6171e-02 -4.1532e-02 -5.7049e-02 -2.0654e-02 -4.4379e-02 7.3525e-02 -2.2944e-02 -2.3326e-02 -5.4701e-03 -2.0538e-02 3.0803e-02 2.1854e-02 -4.3562e-02 -1.3952e-02 6.6071e-02 -3.4896e-02 -4.3925e-03 -7.5678e-02 -6.5345e-02 -2.0986e-02 -6.3872e-02 1.0547e-02 -3.4863e-02 -4.2271e-02 -5.8672e-02 5.0607e-03 4.3927e-02 1.0006e-02 -6.0954e-02 -1.0128e-01 2.0537e-02 -2.2741e-02 2.7237e-02 -1.6485e-02 5.6722e-02 -5.1297e-02 2.9947e-02 -3.0588e-03 3.8046e-03 4.7529e-02 9.9102e-03 -2.2876e-02 -6.2620e-02 1.6657e-03 5.0747e-02 5.0291e-02 8.3773e-03 -1.6397e-02 1.6642e-02 6.0526e-02 4.1160e-02 9.9988e-03 7.6687e-03 5.3314e-02 -2.3728e-02 -2.1064e-02 3.8898e-03 -4.6684e-02 -2.3052e-02 5.3742e-02 6.0467e-02 -6.5937e-02 -9.5534e-03 8.2493e-02 5.0439e-02 1.0027e-01 1.0409e-02 6.3408e-02 -1.4799e-03 2.3428e-02 -4.6888e-02 2.5378e-02 8.8639e-02 3.9070e-02 -2.9663e-02 -2.0181e-02 5.7976e-02 1.8096e-02 -8.1204e-03 9.3956e-02 4.2100e-03 2.6146e-02 -2.1005e-02 6.4063e-02 -5.9291e-02 -5.8546e-02 -3.7086e-02 -1.3837e-02 -1.2078e-02 -6.2491e-02 -8.2645e-02 1.6169e-02 -4.6082e-02 -6.1511e-02 -8.4720e-02 -5.9632e-02 1.5969e-02 -5.2962e-02 -7.2394e-02 9.3286e-03 -8.6775e-03 1.5805e-02 -6.6791e-02 1.1219e-02 2.5098e-02 -3.5585e-02 -2.5539e-02 2.3571e-02 1.5839e-02 -1.0157e-02 -2.0164e-02 -2.1268e-02 -3.4173e-02 1.7988e-02 -3.5098e-02 6.9599e-02 5.8678e-02 -8.9951e-02 -3.5430e-02 -3.7645e-02 1.4445e-02 2.1848e-02 -2.7314e-04 -6.1846e-02 -4.4977e-02 -6.7141e-02 -4.8128e-02 1.5842e-02 -3.3152e-02 3.8163e-03 6.0024e-02 6.2094e-02 5.3426e-03 5.0334e-02 4.7147e-02 6.2737e-02 3.6109e-02 -2.0557e-04 2.8108e-02 5.2761e-02 -1.5674e-03 1.9270e-02 -1.6731e-02 -1.4518e-02 6.0310e-02 -2.8900e-02 -1.3716e-02 -4.0027e-02 -4.9337e-02 4.8732e-02 4.2569e-03 -2.9096e-02 4.3145e-03 4.5497e-02 7.3425e-02 -4.7918e-02 3.1149e-02 -1.8906e-02 4.7364e-02 -2.6761e-02 -5.9656e-02 3.6123e-03 5.9752e-02 8.3306e-03 -1.2235e-03 1.9249e-02 4.9072e-02 6.1072e-02 -6.0845e-02 -6.2671e-02 3.6355e-04 -5.9413e-03 9.9930e-02 -1.1147e-02 3.9309e-02 -5.6250e-03 -1.1092e-02 -1.0798e-02 -2.5166e-02 -8.5490e-03 1.0004e-01 -4.5702e-02 8.3787e-03 -3.6626e-02 3.2678e-02 3.5936e-02 9.6720e-03 -5.8405e-02 1.0174e-02 -1.7553e-02 4.6449e-02 -5.6485e-02 -4.3369e-02 -4.6139e-02 -2.6202e-02 -2.1127e-02 -2.8374e-02 1.0194e-02 -2.1498e-02 2.8039e-02 -1.9028e-02 -4.0828e-02 -2.6361e-02 4.9540e-02 3.3617e-03 -8.1339e-02 3.0743e-02 -2.7432e-03 2.6207e-02 6.1723e-02 9.4362e-02 -3.2880e-02 4.1253e-02 4.1984e-02 -3.8962e-02 6.7893e-02 1.0215e-01 7.1330e-02 -2.9574e-02 -2.8949e-02 -6.5102e-02 -4.2588e-02 8.1232e-03 7.4026e-02 3.9099e-02 2.2273e-02 3.6267e-03 2.0339e-02 8.6094e-02 8.0794e-02 -2.7081e-02 -4.5143e-02 1.1866e-02 -2.1765e-03 -2.7084e-02 -1.5797e-02 5.5390e-02 7.5219e-02 8.5560e-03 -2.0212e-02 -3.2546e-02 -3.1617e-02 5.6585e-02 -3.9306e-02 2.8207e-02 -8.0932e-02 -4.8983e-02 -4.3232e-02 -1.9210e-02 -2.0056e-02 -4.0271e-02 -5.8145e-02 -3.7099e-02 -6.7214e-02 -1.7665e-02 3.1228e-02 -5.8335e-02 -6.8022e-02 2.8929e-02 2.9132e-02 2.3017e-02 -8.7040e-02 -9.5809e-02 -7.1896e-02 -5.3748e-02 -1.2742e-02 2.4393e-02 3.3998e-02 -2.6559e-02 -2.9868e-02 -3.7175e-02 -5.2998e-03 3.6053e-02 -2.1714e-02 -3.4330e-02 -2.2919e-02 2.0818e-02 1.6902e-02 4.7231e-02 1.4917e-02 -6.3434e-02 3.8288e-02 1.2400e-02 1.1151e-01 3.8265e-02 3.4852e-02 -8.9020e-02 -1.2342e-02 -7.0638e-02 6.4362e-02 3.3907e-02 1.5103e-02 -8.6235e-02 -1.0105e-01 -3.2669e-02 2.3814e-02 4.2116e-02 3.3147e-03 -1.2598e-02 -1.1303e-02 3.8989e-02 4.6194e-02 4.8056e-02 2.5998e-02 3.6349e-02 3.6482e-02 -1.0960e-01 -4.7303e-02 -9.1784e-02 7.8916e-04 4.6064e-03 3.7305e-02 4.7940e-02 -6.5945e-02 -2.5156e-02 -1.1259e-02 1.2159e-02 -2.4776e-02 -2.5558e-02 -1.9631e-02 5.3229e-03 4.6236e-02 -1.8433e-02 4.9644e-02 -3.1234e-02 1.5149e-03 -8.3542e-02 -6.4022e-02 -2.0378e-02 9.5600e-03 8.0351e-02 8.3786e-02 -6.8560e-02 -3.9560e-03 -2.2803e-02 -2.3399e-02 -4.0168e-02 -9.2761e-03 3.8877e-02 -9.1937e-03 4.8326e-02 -6.8589e-03 3.6617e-02 2.7659e-02 -2.0395e-02 -1.4824e-02 -8.3027e-02 -4.6007e-03 -5.2321e-02 -4.0749e-02 -3.8866e-02 -2.0539e-02 -4.3223e-02 1.0677e-02 6.0128e-03 -1.0458e-02 7.5013e-02 5.0614e-02 3.5383e-02 9.4957e-03 4.2490e-02 -9.5037e-03 7.4345e-02 8.5158e-02 -1.9010e-02 3.4391e-02 3.8691e-02 -2.7907e-02 -3.5377e-02 -6.4150e-02 -1.6075e-02 -7.4148e-02 -5.3197e-02 -8.2431e-02 -1.2516e-02 -2.1769e-02 5.2499e-02 2.8123e-02 -6.8050e-02 -2.1577e-02 -3.4193e-03 -2.1504e-02 -6.1366e-02 4.1101e-03 -1.3151e-02 1.3589e-02 -9.4397e-03 3.8289e-02 2.1529e-02 -2.9055e-02 2.3976e-02 -6.5730e-02 -4.2537e-02 -7.1101e-02 -7.5315e-03 -5.6553e-02 -7.1591e-02 8.4124e-03 3.3139e-02 -4.6502e-02 4.0793e-02 -4.1186e-02 -1.9067e-02 -4.1402e-02 -1.2713e-02 2.8094e-02 4.8030e-02 4.9112e-02 -4.1766e-02 -5.8238e-02 -1.0125e-02 2.2085e-02 4.9134e-02 -1.1095e-01 -3.2584e-02 -2.4898e-03 -3.3993e-02 3.5651e-02 -3.6580e-02 -6.2895e-02 -5.9768e-02 -1.5626e-03 -6.6531e-02 1.2184e-03 4.6739e-02 -2.8267e-03 -2.7854e-02 6.0853e-02 1.8593e-02 1.7857e-02 6.9696e-04 7.0871e-04 -4.2496e-02 -1.3285e-02 1.2657e-01 -5.7235e-04 -4.7644e-02 1.6932e-02 6.1093e-02 9.2532e-02 2.9990e-02 2.9609e-02 1.2089e-02 -2.2369e-02 -1.2411e-02 8.2292e-02 2.6229e-02 6.7073e-02 -4.7169e-02 -3.2111e-02 -5.4401e-03 -3.1228e-02 3.5808e-02 5.3689e-02 -5.3187e-02 8.7997e-02 5.9077e-02 -3.1101e-02 1.9437e-02 4.3335e-02 -4.8517e-02 -2.5264e-02 -4.1467e-02 3.1204e-02 -3.5724e-02 5.4407e-03 5.2129e-02 -3.7956e-02 -8.9216e-02 -5.0623e-02 -2.2552e-02 1.8010e-02 1.0686e-02 -5.3963e-02 -6.4375e-02 3.8219e-02 5.5844e-03 1.6816e-03 8.5410e-03 3.7121e-03 -3.8956e-02 -6.3533e-03 -1.4875e-02 -8.3249e-02 1.0557e-02 -2.4352e-02 5.6733e-02 -5.8013e-02 5.4230e-02 -4.0504e-02 4.5604e-02 7.4318e-02 -4.6015e-03 -5.6147e-02 -1.1460e-03 -3.2776e-02 2.5379e-02 3.5098e-02 -4.8241e-03 -5.3132e-02 3.3625e-02 7.6804e-02 -1.8509e-02 4.1312e-03 -4.2409e-02 7.2904e-02 -4.5888e-02 -5.2553e-02 -8.1475e-03 -3.8173e-02 4.1006e-02 7.5154e-03 -4.1719e-02 -2.3317e-02 2.4459e-02 -3.1596e-02 1.0454e-02 3.1986e-02 6.0042e-02 -4.2102e-02 1.8046e-02 -5.4260e-02 1.2340e-02 8.5830e-03 -2.2195e-02 -1.5015e-02 5.9082e-02 -6.8349e-03 -2.2192e-02 1.7486e-02 2.3209e-02 1.6760e-02 7.8080e-02 -1.0529e-01 4.0178e-02 -1.4258e-02 -8.1588e-02 6.8842e-02 -5.7463e-02 -1.3709e-02 7.0543e-03 -1.0097e-02 -7.9005e-02 -6.5137e-02 -3.8097e-02 -3.3093e-02 -2.6502e-02 -5.1803e-02 1.8708e-03 -8.5728e-02 -6.1679e-03 7.8264e-02 -2.6147e-02 -5.7165e-02 -3.1250e-02 3.7597e-02 -5.8059e-02 -3.4869e-02 -1.7893e-02 2.1395e-02 -2.2752e-02 7.1273e-03 5.3289e-03 -5.8802e-02 -3.7416e-02 1.8845e-02 -1.0396e-02 3.0342e-03 6.5016e-02 3.9174e-02 3.8582e-02 3.0880e-02 -7.7070e-02 3.0772e-03 1.2155e-03 -5.8194e-02 -7.7668e-02 -1.5540e-02 -9.8551e-02 -5.9288e-02 4.9842e-02 -3.1469e-02 -1.9735e-02 5.2376e-02 6.2880e-02 2.1299e-03 -3.6736e-02 6.2117e-02 -2.8624e-02 1.6380e-02 -8.6295e-02 -9.1403e-02 5.3393e-02 -3.8732e-02 -1.2148e-02 -2.5717e-02 5.1586e-02 -5.8908e-03 3.9290e-02 -7.1846e-02 7.1964e-03 6.0351e-02 1.1710e-02 -1.2908e-02 -6.2385e-02 -5.7140e-02 -1.2515e-02 -1.7781e-02 9.5333e-03 8.5828e-02 -5.9217e-02 -6.6796e-02 7.6893e-02 -6.7276e-02 -4.3631e-02 -6.9723e-02 2.0398e-02 8.6032e-03 3.5655e-02 4.0287e-02 2.2954e-02 2.2070e-02 4.5195e-02 -4.9902e-02 -5.2794e-02 5.2751e-02 -2.9213e-02 2.6674e-02 -1.9373e-02 -1.1799e-02 -4.2956e-02 -7.2070e-02 3.7527e-02 1.2133e-02 -5.2414e-02 -5.4842e-02 -1.1364e-02 4.0604e-02 -5.3685e-03 -3.3350e-02 3.0882e-02 -3.7767e-02 4.3961e-02 1.6157e-02 3.3329e-02 5.4127e-02 1.7443e-02 1.5610e-02 -4.0222e-03 8.5173e-02 -3.7814e-03 -7.2458e-02 2.1877e-02 -5.1095e-02 2.7282e-02 -1.6697e-02 4.8868e-02 5.0714e-03 1.7135e-02 -2.3874e-02 4.6109e-02 8.1664e-02 -8.3434e-02 7.6344e-02 -3.5750e-02 -1.2892e-02 5.5730e-02 7.1239e-02 4.0011e-02 -2.4821e-02 -6.6753e-03 -2.0939e-02 4.6435e-02 2.2030e-02 1.7840e-02 -8.6356e-02 3.0052e-02 2.9162e-02 -2.4470e-02 4.3765e-02 -3.1597e-02 -2.6904e-02 5.7928e-02 -4.2866e-02 -1.3454e-02 8.9807e-03 2.1091e-02 -2.9391e-02 -5.4376e-02 1.3071e-02 -7.6023e-02 -3.1718e-02 -5.5379e-02 -4.3117e-03 6.2908e-02 -6.3762e-02 -8.0945e-02 -5.2078e-02 5.5081e-02 6.0036e-02 -6.6384e-02 2.4372e-02 5.1620e-02 -2.7754e-02 1.6904e-02 7.5886e-03 3.5554e-04 6.7337e-02 -2.9747e-02 -5.5810e-02 2.7355e-02 -5.8996e-02 -5.0447e-02 4.3203e-03 -2.4357e-02 -5.7448e-02 -3.4920e-02 4.2865e-02 -6.7159e-02 -2.8276e-02 -4.1255e-02 -9.3654e-02 -1.1907e-02 -4.4927e-02 6.1151e-02 3.2514e-02 -2.4278e-02 3.2004e-02 -9.2869e-02 2.5917e-02 8.7172e-03 8.0530e-03 -5.5156e-02 -1.6694e-02 -2.6905e-02 -7.7242e-02 -7.5145e-02 -5.2680e-02 3.3443e-02 1.2235e-02 -3.6010e-02 9.5978e-03 6.3664e-02 2.5040e-02 -1.2689e-02 5.1177e-02 -8.4579e-03 -4.9252e-02 1.0896e-01 3.7773e-02 1.3719e-02 7.1828e-02 9.5382e-02 -1.4352e-02 5.2887e-02 -5.1814e-02 3.0246e-02 -2.8358e-02 1.8296e-02 -6.4810e-02 5.2674e-02 4.6942e-02 4.2155e-02 -4.5416e-02 4.3104e-02 -3.8237e-02 -9.9420e-02 6.2671e-02 2.7890e-02 -3.3234e-02 -4.6754e-02 5.6817e-03 -3.2013e-02 -3.5783e-02 -1.1528e-02 -1.8867e-02 3.1979e-02 -4.7750e-02 -8.9127e-03 -7.4127e-02 -3.5183e-03 1.8850e-02 1.2896e-01 3.3614e-03 6.1630e-02 9.4202e-02 7.3638e-02 -2.3731e-02 -4.7840e-02 -6.6152e-02 -4.5794e-02 -5.2823e-02 5.7551e-02 -1.8901e-02 1.3047e-03 2.7871e-02 -2.1845e-02 9.4352e-02 -3.3130e-02 -3.6855e-02 5.6844e-02 -4.3692e-02 1.0463e-02 -7.2426e-02 -9.3921e-03 -2.1209e-02 6.2827e-02 4.3889e-02 8.7405e-02 3.2355e-02 6.5225e-02 -9.4232e-03 1.4880e-02 4.2736e-02 1.7270e-02 -6.9453e-02 -3.7953e-02 -5.1146e-03 -6.1101e-02 -9.5172e-02 -1.1192e-01 -2.3128e-02 8.2195e-02 -1.4255e-02 -5.7644e-02 -2.3689e-02 1.9729e-02 2.4291e-02 1.8386e-02 -4.3201e-02 4.0192e-02 5.4043e-02 -3.4444e-02 -4.9453e-02 -1.6067e-02 7.5281e-02 7.5407e-02 8.9089e-02 6.1151e-02 -1.8741e-02 4.2215e-02 5.8035e-02 1.4791e-02 1.5334e-02 -1.1134e-02 -2.4436e-02 2.4354e-02 -5.2845e-02 -1.4790e-02 -8.1347e-02 -2.9318e-02 7.6207e-03 -2.1375e-02 -8.8632e-02 -7.0943e-03 -2.6862e-02 2.2788e-02 -1.7034e-03 3.9785e-03 -1.0178e-02 -4.8383e-02 5.1847e-02 -1.5378e-02 5.2945e-02 2.8772e-02 4.2518e-03 -4.3192e-02 1.1534e-02 -5.4613e-03 -6.8041e-02 -3.3762e-02 -5.8538e-04 3.4202e-02 -1.0469e-01 -9.1466e-02 -1.7025e-02 -3.7187e-02 -1.0359e-01 -4.0869e-02 -1.4775e-02 3.0287e-02 7.6539e-03 -1.5675e-02 9.0700e-02 8.2843e-03 -6.1345e-03 6.9042e-02 1.1004e-01 -2.0491e-02 -1.8969e-02 -6.3280e-02 -4.4056e-02 2.6262e-02 5.0273e-02 5.5652e-03 -4.9311e-02 -3.1777e-02 -4.3987e-02 5.9711e-02 1.0505e-01 6.7179e-02 -1.4770e-03 1.2315e-03 7.1730e-02 9.9050e-03 9.6980e-03 8.0389e-03 1.4960e-02 -1.4406e-02 -3.2357e-02 -2.4942e-02 -5.5376e-02 7.0418e-02 -1.2203e-02 -1.3089e-02 4.2640e-02 2.2584e-02 -5.4610e-02 -4.4501e-02 3.3773e-03 -1.2124e-02 -6.7759e-02 2.3312e-02 -6.0106e-02 1.2818e-02 4.2135e-02 5.0701e-02 -6.2651e-02 -2.5645e-02 -5.4535e-02 3.6141e-02 -7.2812e-03 5.0647e-02 -1.0219e-02 1.7301e-02 2.5239e-02 -9.1199e-04 2.5081e-02 -3.3425e-02 -1.5116e-02 -4.0297e-02 -4.2526e-02 4.0901e-03 -4.1906e-02 -8.5262e-03 4.4278e-02 -1.5749e-04 -4.6757e-02 -4.9220e-02 -1.1359e-02 3.8761e-02 5.1898e-02 3.1440e-02 -5.9909e-02 1.0472e-02 2.8055e-02 -2.5328e-03 7.0503e-02 3.8292e-02 7.6096e-03 -1.8851e-02 7.0153e-02 -5.7089e-02 1.1909e-02 -1.1551e-02 3.8970e-02 -2.6392e-02 2.7106e-02 -3.8697e-02 7.8931e-02 4.0740e-02 4.7076e-03 2.9237e-02 -2.8876e-02 2.8305e-02 5.0362e-02 -2.0973e-03 -1.7046e-02 -6.5213e-02 -3.8596e-02 -4.5541e-02 -1.7654e-02 2.4568e-04 9.3207e-03 3.6876e-03 2.0379e-02 -8.2858e-02 1.8609e-02 -5.9450e-02 5.7213e-04 7.1422e-02 -2.9592e-02 -5.0870e-02 -2.9971e-02 1.9187e-02 5.2904e-02 4.2869e-02 5.9488e-02 4.6940e-02 -2.5624e-02 -1.8250e-03 -3.7054e-02 -1.0662e-02 4.7276e-02 -2.4944e-03 2.8950e-02 5.0235e-02 5.5905e-02 -8.5193e-03 -3.9445e-02 -1.5195e-02 -6.1212e-02 1.7643e-03 1.5837e-03 4.6076e-02 -4.0946e-02 2.7652e-02 -4.6119e-02 -9.3973e-02 5.0457e-02 -3.5009e-02 -4.3026e-02 -7.6852e-02 -2.1275e-02 -7.1929e-03 -6.8976e-02 2.0425e-03 -5.5807e-02 1.6460e-02 -6.9296e-02 -4.4051e-03 1.4505e-02 6.3475e-02 1.0155e-02 -6.1919e-02 1.2060e-02 1.5484e-02 5.5376e-02 1.0549e-02 2.1872e-02 -6.0850e-03 3.0126e-02 4.7783e-02 -8.7403e-02 1.6261e-02 2.4117e-02 7.1808e-02 5.1909e-02 -2.9182e-02 3.6574e-02 -2.9562e-02 4.6342e-02 -1.3854e-02 4.0462e-02 -1.9956e-02 -9.1766e-02 -4.6232e-02 1.3775e-02 8.3522e-02 4.5577e-02 2.3581e-04 1.0992e-02 2.8508e-02 6.4536e-02 -6.9738e-02 2.9790e-05 1.6993e-02 -4.8520e-02 7.6336e-02 -4.4954e-02 -2.7351e-02 -3.5414e-02 -3.4010e-03 -9.9522e-03 -7.2223e-02 2.8426e-02 -2.1492e-02 -1.2500e-02 -8.9510e-02 2.5984e-02 -6.5017e-02 -5.9909e-02 6.5766e-02 3.6390e-03 5.5716e-02 -1.0353e-03 -7.7757e-02 -4.9002e-02 -1.9221e-02 2.3642e-02 3.2151e-02 -3.8149e-02 -2.5338e-02 4.0383e-03 -2.7130e-02 1.7376e-02 -7.3915e-03 -2.6928e-02 -8.4423e-02 6.4856e-02 -5.1806e-02 -1.3768e-02 -8.0578e-02 -3.3288e-02 5.9422e-02 4.6317e-02 -3.9174e-03 5.4307e-02 -9.4024e-02 -6.1409e-02 -3.9785e-02 -5.6910e-02 -1.1978e-01 1.5770e-03 5.3051e-02 -1.4396e-02 -9.1251e-02 -1.7470e-02 8.3289e-03 3.9796e-02 1.0230e-02 6.1997e-02 3.0879e-02 4.2491e-02 2.1399e-02 3.0756e-03 6.3506e-02 -5.9266e-03 -4.4972e-02 3.5011e-02 3.9719e-02 -3.9060e-02 -1.4923e-02 -7.7166e-03 -2.1725e-02 -3.1140e-02 2.2736e-02 2.9330e-02 -6.2021e-02 -4.2797e-02 5.5748e-03 -3.5192e-02 4.0219e-03 -1.1948e-02 -2.7092e-02 3.0147e-02 -9.7414e-03 1.6835e-02 -2.1823e-02 1.5546e-02 -1.2027e-02 2.2308e-02 -7.1673e-02 -3.0755e-02 1.9120e-03 7.0088e-02 1.9438e-02 -6.2777e-02 -5.8968e-02 -8.9121e-02 3.8888e-02 -8.8025e-02 -8.1397e-03 2.7477e-02 -1.9164e-03 -6.9029e-02 3.9118e-02 6.5682e-02 8.6683e-02 1.8400e-02 8.5924e-03 5.8397e-02 9.4959e-02 -1.0569e-02 -8.0564e-02 -3.7636e-03 -7.2883e-02 -1.1973e-02 1.6798e-02 -9.6554e-02 -7.4859e-03 2.8814e-02 -3.5175e-02 -9.4325e-03 8.2277e-02 3.4198e-02 -6.2802e-02 2.1204e-02 1.5610e-03 -1.6216e-02 -1.5785e-02 2.9779e-02 -9.6117e-06 -4.9585e-03 -4.5551e-02 2.0873e-02 9.3289e-02 -8.1486e-03 -6.6122e-02 3.7709e-02 -1.6029e-02 -4.3564e-03 1.7856e-02 5.5206e-02 3.1101e-02 -1.7019e-02 1.4647e-02 -3.3457e-02 -2.6217e-02 -4.5770e-02 4.5545e-03 -3.4485e-02 -6.3857e-02 -1.0227e-02 -3.6902e-02 -1.8287e-02 -2.3294e-02 6.5153e-02 -3.5718e-02 -6.3220e-03 -2.8325e-02 2.9539e-02 2.6842e-04 7.0255e-03 -4.7005e-03 -3.9649e-02 -2.0988e-02 -2.2596e-02 -8.9156e-02 -1.9644e-02 -3.1350e-02 3.0694e-02 6.7052e-02 1.3341e-01 4.8253e-03 1.8455e-02 -1.2423e-02 6.3894e-03 5.5143e-03 1.6529e-02 -7.3288e-02 -7.3909e-02 3.9824e-02 4.3885e-02 -4.3068e-03 -2.7026e-02 -1.5304e-02 -3.2605e-02 2.2092e-02 1.6815e-02 1.1082e-03 2.6697e-03 1.2711e-02 2.6920e-02 -4.2775e-02 -4.5678e-02 2.3604e-02 1.0762e-02 -5.3923e-02 1.5613e-02 -1.4504e-02 -2.6347e-02 1.1293e-02 8.9354e-02 2.1876e-02 -4.0914e-02 -4.9755e-03 -6.3633e-02 -2.8117e-02 8.3329e-02 2.2186e-03 -3.7533e-02 1.3198e-01 -9.4721e-02 -6.9720e-02 6.4600e-02 -4.0992e-03 5.0349e-02 1.0938e-01 1.4200e-02 -8.0073e-04 5.7848e-02 2.9053e-03 -2.6071e-03 -3.6632e-02 -5.6145e-02 2.7635e-02 -2.7716e-02 -3.1088e-02 -3.8403e-02 7.7446e-02 -1.7365e-02 4.9857e-02 -1.3022e-02 4.0076e-02 4.6901e-02 -2.1181e-02 5.6486e-02 -2.9104e-02 -4.3175e-02 7.8920e-03 -8.3337e-02 2.7424e-02 -2.6463e-02 8.1882e-02 -1.9264e-03 -2.7950e-02 -5.3211e-02 -4.5018e-02 -1.0972e-02 -8.5295e-02 5.2871e-02 2.5893e-03 9.8687e-03 -4.2500e-02 -4.3646e-02 -2.7170e-03 -3.6964e-02 5.6787e-02 -4.4140e-02 -4.3306e-02 -2.1194e-02 -2.5685e-02 2.2885e-02 -2.4153e-02 -4.0229e-02 -7.3066e-02 -5.5130e-02 -9.2495e-02 -3.3759e-02 3.9787e-02 -4.7334e-02 3.0888e-02 -5.3261e-02 5.7308e-04 -1.8743e-02 -6.8434e-02 6.9372e-03 6.1346e-02 -5.4700e-03 6.4807e-02 -5.9755e-03 4.6627e-03 1.0117e-01 6.1521e-02 7.3081e-02 5.8937e-02 -7.4221e-02 -5.5514e-03 1.6377e-02 1.2815e-02 4.5835e-02 -2.4840e-03 -8.0765e-02 -7.6836e-02 -2.6286e-02 2.6363e-02 -7.7961e-02 1.1510e-02 3.6943e-02 2.6037e-02 -5.1690e-02 6.0935e-02 -7.8509e-02 -7.3353e-02 3.6790e-02 -7.0328e-03 7.7719e-02 3.3276e-02 -2.0805e-02 -3.5322e-04 -4.2992e-02 -5.2130e-03 5.1876e-02 5.9411e-03 -1.2010e-02 -5.4388e-02 -8.6158e-02 -3.6633e-02 2.2351e-02 -4.4753e-03 1.8555e-02 1.6665e-02 7.0512e-02 -1.6826e-03 4.2109e-03 3.0167e-02 2.1300e-02 -5.8129e-02 -6.4604e-03 -1.4916e-02 4.6882e-02 -4.9486e-03 4.6460e-02 -5.4693e-02 3.2620e-03 3.3248e-02 3.2167e-02 -2.1047e-04 2.2538e-02 -3.3275e-02 3.6776e-02 2.9771e-02 -5.4537e-03 1.1473e-01
